#GEN -*-*-*-*-*-*-*-*-*-*-*- general info -*-*-*-*-*-*-*-*-*-*-*-

Method         : Cuts::CutsSA
TMVA Release   : 3.9.7         [198919]
ROOT Release   : 5.22/00       [333312]
Creator        : stelzer
Date           : Sat Sep 26 15:25:43 2009
Host           : Linux rabenstein2 2.6.24-23-generic #1 SMP Mon Jan 26 00:13:11 UTC 2009 i686 GNU/Linux
Dir            : /home/stelzer/TMVA397/macros
Training events: 6000


#OPT -*-*-*-*-*-*-*-*-*-*-*-*- options -*-*-*-*-*-*-*-*-*-*-*-*-

# Set by User:
V: "False" [Verbose mode]
H: "True" [Print classifier-specific help message]
FitMethod: "SA" [Minimization Method (GA, SA, and MC are the primary methods to be used; the others have been introduced for testing purposes and are depreciated)]
EffMethod: "EffSel" [Selection Method]
# Default:
D: "False" [Use-decorrelated-variables flag (depreciated)]
Normalise: "False" [Normalise input variables]
VarTransform: "None" [Variable transformation method]
VarTransformType: "Signal" [Use signal or background events to derive for variable transformation (the transformation is applied on both types of, course)]
NbinsMVAPdf: "60" [Number of bins used for the PDFs of classifier outputs]
NsmoothMVAPdf: "2" [Number of smoothing iterations for classifier PDFs]
VerboseLevel: "Default" [Verbosity level]
CreateMVAPdfs: "False" [Create PDFs for classifier outputs (signal and background)]
TxtWeightFilesOnly: "True" [If True: write all training results (weights) as text files (False: some are written in ROOT format)]
CutRangeMin[0]: "-1" [Minimum of allowed cut range (set per variable)]
    CutRangeMin[1]: "-1"
    CutRangeMin[2]: "-1"
    CutRangeMin[3]: "-1"
CutRangeMax[0]: "-1" [Maximum of allowed cut range (set per variable)]
    CutRangeMax[1]: "-1"
    CutRangeMax[2]: "-1"
    CutRangeMax[3]: "-1"
VarProp[0]: "NotEnforced" [Categorisation of cuts]
    VarProp[1]: "NotEnforced"
    VarProp[2]: "NotEnforced"
    VarProp[3]: "NotEnforced"
##


#VAR -*-*-*-*-*-*-*-*-*-*-*-* variables *-*-*-*-*-*-*-*-*-*-*-*-

NVar 4
var1+var2                     var1_P_var2                       'F'    [-6.05220985413,6.37847995758]
var1-var2                     var1_M_var2                       'F'    [-4.34529972076,4.76599025726]
var3                          var3                              'F'    [-5.18697977066,4.18717002869]
var4                          var4                              'F'    [-4.88857984543,4.54254007339]


#MAT -*-*-*-*-*-*-*-*-* transformation data -*-*-*-*-*-*-*-*-*-


#WGT -*-*-*-*-*-*-*-*-*-*-*-*- weights -*-*-*-*-*-*-*-*-*-*-*-*-

OptimisationMethod nbins:
Fit-EventSelection  100
Below are the optimised cuts for 4 variables:
Format: ibin(hist) effS effB cutMin[ivar=0] cutMax[ivar=0] ... cutMin[ivar=n-1] cutMax[ivar=n-1]
1     0         0         0.713479446994  9.22326553835  -1.84938237022  1.97997732021  -1.22163993705  3.81143590015  3.14363768921  4.57317797988  
2     0.01      0         0.0815589664067  6.8109407833  -0.922182434758  3.29568789163  -0.77478830116  4.0934021015  2.72054047455  5.67803747591  
3     0.02      0         -1.86906377527  7.15064855655  -2.2966654971  1.72292838135  -0.737524998899  4.15578215847  2.73861296834  3.95058933275  
4     0.03      0         -0.931041492825  7.6180034162  -2.41125552808  0.111558181609  1.94335592196  4.20602437097  2.46201452808  6.34288860875  
5     0.04      0.000333333329763  -1.79176429266  7.46087981995  -2.44181757624  0.759960585638  1.08547488721  4.52329854416  2.46266027863  6.81722232244  
6     0.05      0.0010000000475  -2.44206811803  8.15008370092  -4.34798415474  -0.178311462396  -2.61506590076  2.3490773205  1.91941715999  9.42781948255  
7     0.06      0.00133333331905  -0.871691496153  8.16601302083  -1.93830696915  1.25010099535  1.07003796808  3.0923037343  2.16020325876  6.31913179702  
8     0.07      0.00166666670702  -0.951143559983  7.95619476467  -2.45495440226  0.891830449922  1.55474434117  3.70540727558  2.07886968362  6.22418201726  
9     0.08      0.00233333325014  -1.78863026846  7.31579216251  -1.72626018508  1.44799702228  0.937891233056  3.46555570691  1.99793746537  6.20417369636  
10    0.09      0.00499999988824  1.94000480453  11.2756749017  -4.32310506916  2.76815819258  -0.702376977618  7.57076524643  1.73037552317  10.3168424868  
11    0.1       0.00266666663811  -1.40376643913  10.6337130277  -3.85395411799  3.33688858201  -0.978070083439  6.98979627224  2.04166594093  5.88919882262  
12    0.11      0.00533333327621  -0.279471819501  8.41503592861  -2.26381087395  1.09435970037  1.33720103852  3.30285287894  1.78143123332  5.55122067421  
13    0.12      0.00333333341405  -3.20376153969  6.16091791976  -4.16447618301  4.83802353004  -2.90671631668  5.0242730501  1.91635605319  11.1088084368  
14    0.13      0.00833333376795  -0.114925342928  8.28760628043  -2.80387612314  0.629853610511  1.17613189829  2.22157475819  1.38881481567  5.69186082409  
15    0.14      0.00533333327621  -3.587684351  7.57695564492  -3.99299342439  3.23612788387  -0.0611477330731  6.57183036626  1.82787420341  7.26509081593  
16    0.15      0.00533333327621  -5.34758168598  6.79942473912  -1.93671914523  2.55407908907  -2.97465992083  5.12568485875  1.73782658368  8.58238556235  
17    0.16      0.0066666668281  -3.49908144966  4.90533272039  -2.1200334786  4.03490336299  -3.52221669145  4.22638628741  1.70093344235  8.43156654039  
18    0.17      0.00700000021607  -2.85960103843  6.61999147613  -4.1994464414  3.39319810354  0.185812839337  8.79011140127  1.73045873698  6.07331973095  
19    0.18      0.00800000037998  -0.0840870069739  7.03155584529  -2.24669254798  2.38932802938  -4.43274245999  3.31295166655  1.61638663076  6.6845094073  
20    0.19      0.00833333376795  -5.84990079682  4.19223061555  -3.90900742552  2.06285448498  -2.76253964781  5.66534217438  1.61749801763  10.4905838672  
21    0.2       0.0086666662246  -3.35598350125  4.30409680832  -1.81401002258  2.94408975957  -0.440951303391  7.51259291901  1.48392881232  4.28415341571  
22    0.21      0.00933333300054  -1.70944264549  9.30272603204  -2.75514048047  4.44239129725  -2.94218265935  6.3183936013  1.57283394021  4.14166518053  
23    0.22      0.00999999977648  -1.14377762394  7.61590027378  -2.78247368192  2.6725567751  -0.786022394671  6.86610741001  1.53484352232  6.09347774913  
24    0.23      0.0116666667163  -2.18554395349  4.5235818586  -4.08241136519  1.71873768432  -2.11976221895  6.55041168149  1.46266659363  6.6694000904  
25    0.24      0.0116666667163  -3.3401757223  5.95674139974  -3.5980776451  3.79007607716  -0.620179075648  7.82274614489  1.49896988101  5.5992476857  
26    0.25      0.0120000001043  -3.33785050661  7.18511276913  -4.05817325241  4.20513689937  -3.60282650939  3.96246009689  1.47177803907  10.4351541233  
27    0.26      0.0130000002682  -3.40053404392  7.13409451598  -4.00766182336  3.88763049693  -4.2034943375  4.5472591475  1.43906806896  10.709257792  
28    0.27      0.0149999996647  -3.55030425996  4.36430428985  -2.8062334611  3.21420361328  -2.7367470376  5.89608726091  1.35656835176  6.6976051912  
29    0.28      0.015666667372  -5.48297132639  6.6531767597  -3.62462724764  4.16391423576  -1.68871702487  7.65961289332  1.37884197166  8.26965742923  
30    0.29      0.01600000076  -3.10400741345  4.68498378114  -3.95206276046  2.9708130812  -1.4812271984  6.71946880608  1.34479657485  5.50283162185  
31    0.3       0.0173333324492  -1.33075509967  11.2747664665  -4.19097605459  3.01803217603  -2.17830990377  5.64536393643  1.32356816664  5.03959810622  
32    0.31      0.019333332777  -4.69708644675  4.48610968021  -3.24416985933  4.44382048108  -4.57951081791  4.2652724452  1.26712148721  5.01747842154  
33    0.32      0.0203333329409  -4.35774162212  8.1591885161  -3.60208861768  3.73891587312  -1.68985326228  7.58092415219  1.26158737294  7.65332404886  
34    0.33      0.0213333331048  -5.50964663857  5.00925333148  -3.71107587156  2.79191973327  -2.17956661946  7.10952942271  1.22912246175  9.27307483063  
35    0.34      0.0233333334327  -3.61367323876  8.75027686875  -3.88399606428  3.96466916031  -1.90220455061  6.58345879493  1.20148526047  8.31694833703  
36    0.35      0.0263333339244  -2.4592977441  9.89533421781  -3.50454779057  5.36973988765  -1.61024275586  7.21008955631  1.16691785672  6.00850707842  
37    0.36      0.0289999991655  -4.01870372129  5.18644743469  -3.79645827989  4.99029092673  -0.681630746393  8.08826718243  1.13838012985  5.36649092029  
38    0.37      0.0299999993294  -5.09606606779  6.80057039919  -4.32646542447  2.83215367145  -2.97645486781  5.88629643578  1.10197765228  9.98946975412  
39    0.38      0.0306666661054  -2.37205203675  10.0256869708  -3.80905639685  3.35341816374  -0.691255790467  6.05436639223  1.08737832045  6.3444081059  
40    0.39      0.0340000018477  -3.93374952082  5.55607958112  -3.78290641703  4.25236120562  -1.17160749787  7.24652097715  1.05263967294  5.16490368447  
41    0.4       0.0359999984503  -3.11562194333  7.34950254358  -4.01771152059  3.57651094521  -3.21555406657  4.81274022419  1.02975321313  10.0714836125  
42    0.41      0.0379999987781  -2.41087288308  7.77981741547  -4.11530014402  3.69909440431  -2.92767059762  5.64139813103  1.00371965665  8.52833011137  
43    0.42      0.0396666675806  -5.10046725061  7.52004799319  -3.98395020443  3.19625772391  -0.536463395051  7.18743667382  0.980936432423  7.34048807586  
44    0.43      0.0419999994338  -2.69460339326  5.794558802  -4.40921651412  3.72621233771  -3.6377441102  4.42329675274  0.95764055634  8.28996532242  
45    0.44      0.0439999997616  -1.59989779479  10.6341038458  -3.23410730937  3.6458669546  -2.64723567526  6.9088506663  0.927829248948  9.59705697222  
46    0.45      0.0446666665375  -2.85549821286  6.11263360756  -3.21818771591  5.23926917903  -2.11629325551  6.77486740542  0.912578153481  4.73389897163  
47    0.46      0.0466666668653  -1.55078449361  6.57974302122  -4.25281472225  3.35640582693  -0.154527678177  9.1882063916  0.887431708699  8.33519698272  
48    0.47      0.0489999987185  -1.9188896804  6.70468763166  -4.2402067587  3.60686560122  -0.87101743455  8.38981865468  0.8666649073  7.6799808594  
49    0.48      0.0536666661501  -2.62271683021  5.0962219589  -4.19668641503  4.20465746074  -0.604624140131  7.89752940884  0.84115703438  5.40893668503  
50    0.49      0.0560000017285  -3.72864064155  7.20995448027  -3.84697127696  4.71233492233  -0.572524792321  6.02494886967  0.825421708512  4.71667110943  
51    0.5       0.0583333335817  -3.61551111662  9.00543309357  -4.13109427309  4.2144862092  -0.456671099975  6.29777009155  0.804532525787  5.57839756891  
52    0.51      0.0616666674614  -3.72746633248  5.92489138021  -3.62245990749  5.59831813198  -2.37116402719  5.5959731597  0.784307566884  8.04946621056  
53    0.52      0.062666669488  -5.34916900362  6.89900600254  -3.25841273034  5.39129888621  -1.91548974432  6.35854649817  0.755405324471  4.44514098153  
54    0.53      0.0663333311677  -3.11670751142  5.91141268112  -4.41854713523  3.68143514726  -1.38530338966  6.88312649551  0.727480850656  7.08544639945  
55    0.54      0.070000000298  -4.78124561131  6.82775488577  -4.38926244504  2.84668654718  -2.73020812384  5.14474672123  0.70088376277  9.25426149636  
56    0.55      0.0726666674018  -3.0405181254  5.86248446751  -4.42536437285  3.17119049634  -4.12683078811  4.55563205248  0.670488154228  4.4940205329  
57    0.56      0.0753333345056  -4.22581300093  7.70651309365  -4.11587204747  4.44112865197  -0.817499462596  8.70832506169  0.649882595871  7.41713374305  
58    0.57      0.0810000002384  -3.94058630443  6.38852878566  -4.16608660604  3.57149905895  -3.53308010842  4.85106194588  0.617958134783  6.95703485331  
59    0.58      0.0856666639447  -4.27071440524  7.07073096184  -4.17854087795  4.70092781249  -3.58570992552  4.9756009681  0.585318197581  7.7023541351  
60    0.59      0.089333333075  -3.59313196534  9.03400896815  -4.1966723397  3.66942779401  -1.41996968696  4.36827959221  0.567644901586  4.68395113281  
61    0.6       0.0953333303332  -2.73222975752  8.55090659654  -4.32154310706  4.67478318322  -2.23785509519  6.8021657161  0.531868224021  9.39787148764  
62    0.61      0.100666664541  -6.14923119004  5.35716929222  -3.97171233725  4.47992564869  -0.976487289511  7.54382577158  0.502323374271  5.47778488857  
63    0.62      0.104999996722  -4.95699692925  7.01570597975  -4.40798586333  3.73263646647  -4.52499666527  4.57945932042  0.471155239186  9.47287944199  
64    0.63      0.108666665852  -2.76047203899  9.37583364502  -4.36657604822  4.08474912347  -2.54010861147  5.6189627634  0.446106855728  7.80456537007  
65    0.64      0.113333337009  -4.11151788355  7.29388496284  -4.25440824609  3.9381277237  -2.2230495724  5.77761559987  0.422728234594  4.732254076  
66    0.65      0.118666663766  -3.95099890143  8.35709894612  -4.09357224351  2.97309106806  -1.47781233627  5.06285328474  0.39473148508  6.91311185134  
67    0.66      0.122666664422  -4.49335779862  6.92213215239  -4.19717223827  3.63392861556  -2.04230985069  4.93787637274  0.372816973307  5.13039047259  
68    0.67      0.126000002027  -2.83550378459  8.88151223029  -3.8434060403  4.78268872781  -1.48777814191  5.05485049786  0.355366531877  4.1760405021  
69    0.68      0.129666671157  -3.8965693172  6.75917048579  -4.11830498635  4.55368462213  -1.30543370861  6.08783792276  0.325481295598  8.95408884478  
70    0.69      0.133666664362  -5.86257642148  5.58419234896  -4.37888124038  3.70226042731  -4.04546349333  4.74108083237  0.300662745429  7.41368996879  
71    0.7       0.142000004649  -2.83373252662  6.80256929686  -4.253568908  4.85436520749  -1.32231485615  4.95780627139  0.25869680919  7.11416710676  
72    0.71      0.149666666985  -5.7293684131  6.78769074343  -4.13993366419  3.82780906119  -2.10638880842  5.6241215057  0.237135504151  6.89824989871  
73    0.72      0.156666666269  -3.7662817461  7.6557048326  -3.64158310207  3.33646915941  -1.84299997707  6.99872240704  0.202695712576  6.89151526014  
74    0.73      0.163000002503  -5.82338339408  5.72745931016  -4.20829420795  3.90540735885  -3.98750576686  4.77837378565  0.178505890329  7.06980667828  
75    0.74      0.170666664839  -6.03753413222  6.31417850884  -4.30702002479  2.94914568533  -2.4289276577  4.36600041714  0.149347339567  8.39926057987  
76    0.75      0.177000001073  -4.8058783915  5.71566516862  -4.41487446327  3.46130648268  -3.99995077468  3.888937864  0.124775711537  5.47708453237  
77    0.76      0.184333339334  -5.01884635864  7.27335067555  -4.2873905482  4.60595923759  -1.10309999464  7.21693592849  0.0932380743828  8.29943236927  
78    0.77      0.19333332777  -5.00152329873  6.78316178386  -4.42078832761  4.57429068026  -4.17093206275  4.19168103475  0.0642289355716  7.23329043907  
79    0.78      0.201666668057  -3.92371704374  6.82765835049  -3.8800115148  3.13659022206  -1.52204416752  4.39658529073  0.0185910421076  5.30552812632  
80    0.79      0.212666660547  -4.72068335202  5.69944624708  -4.25729089401  3.50537371807  -2.04705754554  7.21784508181  -0.00792265116432  5.05503612692  
81    0.8       0.219666659832  -3.19250107047  5.63567167868  -4.24114615528  3.2542390907  -2.27772951684  4.05063521566  -0.0381469817545  5.83333131204  
82    0.81      0.230666667223  -4.09200393476  8.0434485924  -4.28897353376  4.39921071191  -3.45703849  5.21391892556  -0.0709429163677  5.25020369374  
83    0.82      0.244000002742  -4.86763228886  6.20560519422  -4.38008401436  4.70983084048  -1.35684632535  6.23493607054  -0.119502899624  8.54573905856  
84    0.83      0.257333338261  -3.96396974841  6.61666146473  -4.08301025389  4.50667841493  -1.31733437108  7.34735203214  -0.178077213402  8.75243522446  
85    0.84      0.266000002623  -3.91717872978  7.53369097001  -4.37626581792  4.37187142167  -1.63080983782  4.30683357918  -0.210400173286  6.16862817528  
86    0.85      0.277333319187  -5.41818671896  6.99893002504  -4.23159007284  4.84825350211  -2.77982530534  6.36446985264  -0.250708723546  6.54461731417  
87    0.86      0.291000008583  -4.85986101442  5.97460493064  -4.04033370102  5.03385471093  -1.58740736761  6.69481896988  -0.296335078129  6.2467929331  
88    0.87      0.303666681051  -4.10585419799  6.9576229382  -4.18540565804  3.5462557369  -4.76805951738  4.36350278034  -0.334339806371  6.54007350765  
89    0.88      0.317666679621  -5.14793534684  7.2726635423  -4.20351967589  3.58466360334  -2.08543408569  5.53773074724  -0.378766576367  5.84324071561  
90    0.89      0.333666652441  -5.11360074216  6.48291417519  -4.35744441682  4.45943906613  -2.50694955049  4.42102077354  -0.422060168219  4.29023725901  
91    0.9       0.350333333015  -5.13843024917  7.01692341542  -3.9821404941  3.57246850285  -1.74418038557  6.01838189513  -0.474604299724  5.68214176256  
92    0.91      0.375666677952  -4.84272211833  6.20367055221  -4.18854096614  4.03399484984  -1.77777765095  6.25266636077  -0.536765596628  4.97189061723  
93    0.92      0.405666679144  -4.70888727698  7.86469122484  -4.21407108891  4.56257273092  -2.18724415288  5.54440758664  -0.600768237324  7.23672541742  
94    0.93      0.433333337307  -6.00877077134  6.34520107833  -4.34082830903  4.13420511222  -2.27827344488  6.63289944858  -0.666253350507  6.81409079235  
95    0.94      0.469000011683  -4.58536116226  7.54105224241  -4.37037282749  4.63423173525  -2.49684145198  5.32979096567  -0.767698468355  6.43996917277  
96    0.95      0.504999995232  -5.20685585119  7.43154294315  -4.34714141785  3.89021219681  -4.56630502479  4.61955233205  -0.856351528784  6.46583827093  
97    0.96      0.560000002384  -6.00103407312  6.6532089921  -4.35729242254  4.65544790227  -4.56601125106  4.6222827078  -0.978826621242  5.90448888246  
98    0.97      0.597333312035  -6.00027639378  6.63812504952  -4.34710210457  3.89030291401  -4.56626118335  4.62070420391  -1.07484583634  6.24733077975  
99    0.98      0.663666665554  -4.27214812137  7.25063979055  -4.42371262489  3.68215181414  -2.53815559515  6.35747500689  -1.26427667842  7.88517944344  
100   0.99      0.775333344936  -4.92824953115  7.31877337442  -4.42307395747  3.63030278349  -2.51924738834  5.3343470169  -1.56956409543  7.00066319934  
