#GEN -*-*-*-*-*-*-*-*-*-*-*- general info -*-*-*-*-*-*-*-*-*-*-*-

Method         : SVM::SVM_Gauss
TMVA Release   : 3.9.7         [198919]
ROOT Release   : 5.22/00       [333312]
Creator        : stelzer
Date           : Sat Sep 26 15:32:16 2009
Host           : Linux rabenstein2 2.6.24-23-generic #1 SMP Mon Jan 26 00:13:11 UTC 2009 i686 GNU/Linux
Dir            : /home/stelzer/TMVA397/macros
Training events: 6000


#OPT -*-*-*-*-*-*-*-*-*-*-*-*- options -*-*-*-*-*-*-*-*-*-*-*-*-

# Set by User:
C: "1" [C parameter]
Tol: "0.001" [Tolerance parameter]
Sigma: "2" [Kernel parameter: sigma]
Kernel: "Gauss" [Uses kernel function]
# Default:
D: "False" [Use-decorrelated-variables flag (depreciated)]
Normalise: "True" [Normalise input variables]
VarTransform: "None" [Variable transformation method]
VarTransformType: "Signal" [Use signal or background events to derive for variable transformation (the transformation is applied on both types of, course)]
NbinsMVAPdf: "60" [Number of bins used for the PDFs of classifier outputs]
NsmoothMVAPdf: "2" [Number of smoothing iterations for classifier PDFs]
V: "False" [Verbose mode]
VerboseLevel: "Default" [Verbosity level]
H: "False" [Print classifier-specific help message]
CreateMVAPdfs: "False" [Create PDFs for classifier outputs (signal and background)]
TxtWeightFilesOnly: "True" [If True: write all training results (weights) as text files (False: some are written in ROOT format)]
MaxIter: "1000" [Maximum number of training loops]
Order: "3" [Polynomial Kernel parameter: polynomial order]
Theta: "1" [Sigmoid Kernel parameter: theta]
Kappa: "1" [Sigmoid Kernel parameter: kappa]
##


#VAR -*-*-*-*-*-*-*-*-*-*-*-* variables *-*-*-*-*-*-*-*-*-*-*-*-

NVar 4
var1+var2                     var1_P_var2                       'F'    [-6.05220985413,6.37847995758]
var1-var2                     var1_M_var2                       'F'    [-4.34529972076,4.76599025726]
var3                          var3                              'F'    [-5.18697977066,4.18717002869]
var4                          var4                              'F'    [-4.88857984543,4.54254007339]


#MAT -*-*-*-*-*-*-*-*-* transformation data -*-*-*-*-*-*-*-*-*-


#WGT -*-*-*-*-*-*-*-*-*-*-*-*- weights -*-*-*-*-*-*-*-*-*-*-*-*-

0.220105662942
2782
0 1 0.0519705638289 -0.10979680717 -0.0525135882199 0.0784678533673
1 1 -0.166804105043 -0.00930171180516 0.0115839587525 0.0339386798441
2 1 -0.146832570434 0.586370229721 0.0802067145705 0.07890471071
3 1 0.0373969525099 -0.212728440762 0.248926013708 0.0714082494378
4 0.0916643440723 -0.260897040367 -0.0717165842652 0.100959531963 0.0837779343128
5 1 0.318078070879 0.0436413921416 0.185716018081 0.182154387236
6 1 -0.290692657232 0.103962160647 0.0816489756107 0.0324457511306
7 1 0.157829523087 -0.151913791895 0.406958460808 0.196996733546
8 1 -0.396007806063 0.113815881312 0.043704200536 -0.000483530282509
9 1 0.31126588583 0.251431971788 -0.0464970469475 -0.0900402292609
10 1 0.546414554119 0.0437489524484 0.119847640395 0.2308357656
11 1 -0.0345877930522 0.283238649368 0.0917789638042 0.0124841770157
12 1 -0.695558309555 0.410092294216 -0.421466499567 -0.350936084986
13 1 -0.0411924123764 0.150513201952 0.243259370327 0.0709565505385
14 1 -0.262856692076 0.178531214595 -0.0725644752383 -0.283964157104
15 1 0.427154868841 -0.147578492761 0.221729949117 0.168664991856
16 1 -0.0149428611621 -0.195183187723 -0.0420614369214 -0.0497523322701
17 1 -0.305515617132 -0.156468570232 -0.18837659061 -0.161857783794
18 1 -0.197553798556 -0.245970711112 -0.158236250281 -0.0941288247705
19 1 0.0463328957558 0.0562828592956 -0.0754042044282 -0.0457146391273
20 1 -0.150742247701 -0.253207892179 0.372017711401 0.0751151293516
21 1 -0.132645115256 -0.431610733271 0.0870211943984 0.0323482006788
22 1 -0.0651058033109 -0.457100003958 0.165948882699 0.0835043787956
23 1 -0.125115349889 -0.37449914217 0.24788698554 0.149604693055
24 1 -0.0117475474253 -0.0288225430995 -0.0302417073399 0.0217174384743
25 1 -0.161190569401 -0.619509458542 -0.0547858029604 -0.0997124686837
26 1 -0.385052680969 0.0772436708212 -0.0184710398316 -0.142409414053
27 1 0.305248528719 -0.616282701492 0.319326013327 0.236438483
28 1 0.00879676640034 -0.149268716574 0.15639282763 0.102708876133
29 1 -0.192921727896 -0.16653740406 0.147933393717 -0.0943536162376
30 1 0.101044259965 -0.0165564417839 -0.172978922725 -0.0717030614614
31 1 0.224974632263 0.277077049017 0.0591167993844 0.0671584904194
32 1 -0.0766546428204 -0.263050615788 -0.011880566366 0.0212084855884
33 1 -0.00684355711564 0.0603635124862 0.216261714697 0.0647876113653
34 1 -0.197349473834 -0.0324751548469 0.091249845922 -0.0304608792067
35 1 0.100413553417 0.345034509897 0.109517104924 0.0484841428697
36 1 0.235696464777 -0.155542239547 0.293320447206 0.214598029852
37 1 0.0748429894447 0.0847705975175 0.383726507425 0.239284396172
38 1 0.13531909883 0.0239449571818 0.230974525213 0.0724091902375
39 1 0.311590909958 -0.265149116516 0.179153293371 0.178602308035
40 1 0.093440502882 0.230591863394 -0.0603969655931 -0.0300855282694
41 1 -0.139413833618 0.246938630939 0.00279809255153 -0.0840430632234
42 1 -0.251253157854 -0.0182444602251 0.0618285126984 -0.0139771560207
43 1 0.19908708334 -0.14582683146 0.346534878016 0.229796648026
44 1 0.443155616522 0.0170414540917 0.179859489202 0.191690891981
45 1 0.28493270278 0.209819853306 0.388697624207 0.271032482386
46 1 -0.0842921957374 0.241705566645 0.128341212869 -0.00236665853299
47 1 -0.372802317142 -0.230348348618 0.130511000752 0.059401191771
48 1 -0.388408839703 0.124516882002 -0.100808106363 -0.111660145223
49 1 0.0272832680494 0.15311217308 -0.152616530657 -0.172223463655
50 1 -0.408377200365 -0.551876962185 0.0498466230929 -0.0367019213736
51 1 -0.123870052397 -0.134919479489 -0.151479363441 -0.320566415787
52 1 -0.335443168879 -0.611242830753 -0.0785255432129 -0.0363753475249
53 1 0.199096739292 0.0129739567637 0.167461559176 0.00403767218813
54 1 0.154989793897 0.189528554678 0.205481007695 0.0693045780063
55 1 -0.434203565121 0.0750683397055 -0.235207483172 -0.287431418896
56 1 -0.189753755927 -0.21661812067 0.0328850895166 -0.134134680033
57 1 -0.773877441883 -0.239743247628 -0.28202560544 -0.249779477715
58 1 -0.369013309479 -0.325055003166 -0.190471708775 -0.0643614158034
59 1 -0.676725924015 0.145521610975 -0.418456107378 -0.347613036633
60 1 -0.00672932201996 0.38390275836 -0.214115440845 -0.181028366089
61 1 -0.103747278452 -0.447250664234 0.0597099214792 -0.0525452159345
62 1 -0.0230116024613 -0.229841277003 0.0955489054322 0.103217832744
63 1 -0.0242086388171 -0.168155163527 -0.00428948225453 -0.00365176354535
64 1 -0.339610278606 -0.0150330550969 -0.0283770039678 -0.175652548671
65 1 0.279081046581 0.0622512772679 0.194365337491 0.203248366714
66 1 -0.462444961071 -0.348711371422 0.013098760508 -0.0781540498137
67 1 0.472367197275 -0.167152017355 0.281765252352 0.278119653463
68 1 -0.182355940342 -0.124279931188 0.0401582829654 0.0492348484695
69 1 -0.157895520329 -0.340154975653 0.125132381916 0.00125115388073
70 1 -0.0739484354854 -0.222099244595 0.0649071931839 -0.019539590925
71 1 -0.158152922988 0.00627676257864 0.0836523622274 -0.0492327772081
72 1 -0.235590308905 -0.161326289177 0.0567165836692 0.000294745666906
73 1 -0.301017105579 -0.159888520837 -0.0144685385749 -0.0651778578758
74 1 0.0676430612803 0.0446950420737 0.0153496293351 0.0899044647813
75 1 0.0946825891733 -0.0972826629877 0.302917033434 0.196381747723
76 1 -0.128395929933 -0.322679936886 0.237038001418 0.116493031383
77 1 0.0154319610447 0.115901194513 0.151927351952 -0.00580209167674
78 1 0.161174476147 -0.14922042191 0.36035373807 0.207527816296
79 1 -0.299840956926 0.219111606479 0.118507787585 0.0209052339196
80 1 0.2444216609 0.251541703939 -0.0103657646105 -0.00588691886514
81 1 -0.450331389904 0.074436172843 -0.163777008653 -0.279763191938
82 1 0.216420009732 -0.0360136143863 0.0635758712888 0.0529798977077
83 1 -0.390201210976 -0.322221189737 -0.00327605404891 0.0179766323417
84 1 0.174913048744 0.24436378479 0.170358881354 0.184713989496
85 1 -0.0438809208572 0.00580262951553 0.0298469457775 -0.098904505372
86 1 -0.221911266446 0.0994227454066 0.0613698065281 0.0232549030334
87 1 0.275975823402 0.051890514791 0.122147582471 0.0888759493828
88 1 -0.285478115082 -0.0759838148952 -0.154344692826 -0.249522894621
89 1 0.258707284927 -0.277110099792 0.0720587745309 0.0297673847526
90 1 0.198412939906 -0.0242918971926 -0.125845044851 -0.0270572565496
91 1 -0.126164376736 0.188297107816 0.168105885386 -0.00865011010319
92 1 -0.156844884157 0.347209841013 0.173109009862 0.113104246557
93 1 0.349571108818 0.17396324873 0.335079967976 0.205610752106
94 1 -0.0139775108546 -0.0828917250037 -0.114818967879 -0.0136484559625
95 1 -0.712223529816 -0.387379854918 0.0483830273151 -0.0429090335965
96 1 0.317600220442 0.23289449513 0.227970510721 0.149859160185
97 1 0.124643914402 0.0508851632476 0.111633561552 -0.123968333006
98 1 -0.162662744522 0.305920392275 -0.16558624804 -0.141788065434
99 1 0.30469506979 0.112299084663 0.111526884139 0.118083514273
100 1 -0.121340826154 0.154778242111 0.00359816430137 -0.0812226086855
101 1 -0.23343758285 -0.108701467514 0.104503318667 0.0772845447063
102 1 -0.254940807819 0.036307644099 -0.138550192118 -0.00841471832246
103 1 0.0878559350967 -0.115029871464 0.12360265106 0.0370517782867
104 1 -0.144562393427 -0.0199917405844 0.348913758993 0.0695760175586
105 1 0.102234870195 0.302186578512 -0.240882664919 -0.0593397431076
106 1 -0.203238129616 -0.298035770655 0.156618982553 0.0574692897499
107 1 -0.334675729275 -0.18008762598 0.012215482071 -0.141928017139
108 1 -0.159940451384 -0.115600600839 -0.0487031079829 -0.0270593743771
109 1 0.0295244976878 -0.0694622322917 0.253619790077 0.119538269937
110 1 0.589525580406 0.137757614255 0.216769501567 0.21115835011
111 1 0.0043915444985 -0.146577551961 0.319673776627 0.169926762581
112 1 -0.192189663649 -0.0154215944931 0.43941155076 0.178920403123
113 1 0.338482439518 0.204233363271 0.353991538286 0.282638728619
114 1 -0.303276032209 0.049697637558 -0.0829376801848 -0.20163461566
115 1 -0.0808973684907 -0.0112026473507 -0.170448556542 -0.126935109496
116 1 0.1045999825 0.212135642767 0.154901489615 -0.095613270998
117 1 -0.264140635729 -0.13802112639 0.00572955934331 0.0204259697348
118 1 0.0247894469649 0.361324191093 -0.0242806263268 -0.0488743893802
119 1 0.315330028534 -0.0687510222197 0.329878419638 0.234515070915
120 1 0.286856949329 0.0613842085004 0.11853338778 0.118887238204
121 1 -0.110575526953 -0.242629796267 0.163926303387 0.0997505933046
122 1 -0.00358709902503 0.195369631052 0.0162499789149 0.0345748737454
123 1 -0.71431684494 -0.142178624868 -0.0758885070682 -0.235172525048
124 1 0.16475109756 -0.550526976585 0.0987683981657 0.117655143142
125 1 -0.222054466605 -0.59649848938 0.0153667014092 -0.0649445950985
126 1 -0.196974605322 0.175537109375 0.183672100306 -0.138221159577
127 1 0.190563037992 0.292091399431 -0.0066705015488 0.0191260185093
128 1 0.0630560293794 -0.308530449867 -0.0297573879361 0.0425824038684
129 1 -0.0993935242295 0.0550404451787 0.309827536345 0.107618160546
130 1 -0.109367236495 -0.306223452091 -0.137639179826 -0.138732224703
131 1 0.0520590581 -0.670659184456 0.332336246967 0.238003522158
132 1 -0.0712004005909 0.341021895409 0.250878185034 -0.0848276987672
133 1 -0.127414494753 -0.301637917757 0.0318183265626 0.0801580101252
134 1 0.508638739586 -0.225031852722 0.503711760044 0.36153498292
135 1 -0.04304106161 -0.070485137403 -0.252026081085 -0.136855453253
136 1 0.0772483274341 -0.345352947712 0.239946007729 0.108549118042
137 1 0.133377149701 -0.434560924768 0.275851130486 0.199077069759
138 1 -0.093678638339 0.284575432539 -0.0612247809768 -0.179476067424
139 1 0.100888192654 0.57597219944 0.283604353666 0.222024515271
140 1 -0.107724517584 0.2345803231 0.0904177725315 0.0190115030855
141 1 0.0183730684221 0.0240459311754 0.133884117007 0.0347487665713
142 1 0.0319620147347 -0.264093279839 0.172588422894 0.08446290344
143 1 0.103848613799 0.0914919227362 0.256894737482 0.126082569361
144 1 0.279970765114 -0.291395694017 0.241962194443 0.223536521196
145 1 0.556990027428 -0.435474067926 0.383598506451 0.230197459459
146 1 -0.063678689301 -0.53503626585 0.217663437128 0.132964029908
147 1 -0.313251316547 -0.227909609675 -0.23169785738 -0.16131067276
148 1 -0.242531195283 -0.320359736681 -0.0253836568445 -0.00418192287907
149 1 0.031299136579 -0.206797346473 0.299834102392 0.0670439749956
150 1 -0.0427369773388 -0.197226792574 0.0331240445375 -0.0322697870433
151 1 0.0326297171414 -0.0061824945733 0.269002497196 0.105781689286
152 1 -0.46091812849 -0.258267551661 0.129437848926 0.000746442121454
153 1 -0.115328282118 -0.0843733996153 -0.121161960065 -0.0397535227239
154 1 -2.65592771029e-05 0.117191918194 0.178425744176 0.0976299569011
155 1 -0.0391651764512 -0.215467900038 -0.279840886593 -0.142489999533
156 1 -0.0342080853879 0.123818859458 0.304747611284 0.153209775686
157 1 -0.541751921177 -0.330501019955 -0.275735974312 -0.360947608948
158 1 0.0582340843976 -0.0644618421793 -0.0528848282993 0.0117292292416
159 1 -0.16199503839 0.305777698755 -0.241548344493 -0.150811389089
160 1 0.21843598783 -0.382987529039 0.0443506613374 0.112576216459
161 1 -0.229870602489 0.167424097657 0.0438642166555 -0.139457479119
162 1 0.143629193306 -0.0950436890125 0.404650002718 0.201732113957
163 1 0.0629063993692 0.189570263028 0.220857337117 0.133373320103
164 1 -0.595020115376 -0.128874242306 0.0208029281348 -0.0564217418432
165 1 -0.132986202836 -0.10952681303 -0.184549033642 -0.229737326503
166 1 0.247330591083 -0.0820663720369 0.239845722914 0.150262087584
167 1 0.213058963418 -0.223949700594 0.130094975233 0.142201542854
168 1 -0.29004585743 -0.608507752419 0.179829612374 -0.0156058063731
169 1 -0.316100716591 -0.523105978966 0.25708886981 0.0310206823051
170 1 -0.04240071401 -0.220128059387 0.0598976686597 0.0562838539481
171 1 -0.213152289391 0.263043910265 -0.0632601678371 -0.0389434397221
172 1 -0.131737679243 -0.119084186852 0.237072139978 0.116124048829
173 1 0.0516664683819 0.0736964195967 -0.00823010411114 -0.0457761399448
174 1 0.26012635231 -0.011966525577 0.258770108223 0.109002940357
175 1 -0.13948301971 -0.224434792995 0.187606319785 0.114147603512
176 0.298762857914 0.150581344962 -0.673774003983 0.409567773342 0.292669355869
177 1 0.0203697420657 -0.0418876521289 0.0321319550276 0.0809108316898
178 1 -0.481629759073 0.343726217747 -0.147944122553 -0.28449434042
179 1 -0.164850875735 -0.0732750892639 0.541089057922 0.247783899307
180 1 -0.0682078078389 0.267429709435 -0.0343380719423 -0.013888088055
181 1 0.057033829391 -0.168218821287 0.199210569263 0.122492320836
182 1 0.396852493286 -0.0781042650342 0.384503096342 0.24482986331
183 1 -0.199453935027 -0.0590839013457 0.126022070646 -0.107348881662
184 1 0.120803423226 -0.260036796331 0.16115911305 0.12123054266
185 1 -0.190173685551 0.387553185225 -0.0999120250344 -0.197164297104
186 1 -0.0300184562802 -0.110747277737 -0.0132694961503 -0.164300769567
187 1 -0.0531000383198 -0.108310736716 0.223468780518 0.0270975008607
188 1 -0.0268810652196 0.195000872016 0.0787239149213 0.10234837234
189 1 -0.196002826095 -0.204325690866 0.0341460034251 0.0591318719089
190 1 -0.060645878315 -0.109206333756 0.098655320704 -0.0398383438587
191 1 -0.0331413634121 -0.288638651371 0.209929406643 0.0565701387823
192 1 -0.288895487785 -0.310519218445 0.341988295317 0.0532131679356
193 1 -0.0912620350718 0.125770270824 0.0755022838712 0.00438545830548
194 1 0.0625991001725 0.14490698278 0.176836282015 0.0836146473885
195 1 0.16003857553 0.137500777841 0.374289929867 0.222881242633
196 1 -0.152595713735 -0.207326352596 -0.0443592518568 0.0414711907506
197 1 -0.215979173779 0.169505015016 0.00289837107994 -0.0126114645973
198 1 0.247211515903 -0.593945622444 0.359216541052 0.263722628355
199 1 0.286330848932 0.195479378104 0.308421552181 0.252256333828
200 1 0.343922168016 0.0518839322031 0.169863909483 0.113358728588
201 1 -0.205273404717 -0.0215897615999 0.168667003512 0.0734673887491
202 1 0.0765082165599 0.0530846305192 0.090511649847 0.033686324954
203 1 -0.190471336246 0.037330545485 -0.0589995160699 -0.0297377444804
204 1 -0.183186143637 0.374744921923 0.266587346792 0.0449469164014
205 1 0.0763408839703 0.140909746289 0.295805990696 0.15704600513
206 1 -0.315347760916 -0.292166173458 -0.0404548980296 -0.0818333625793
207 1 0.0529503934085 -0.202304020524 0.0280206464231 0.0386719480157
208 1 -0.293776929379 0.182486727834 0.0259745940566 0.0218955725431
209 1 0.496771305799 -0.161607250571 0.330851316452 0.271870106459
210 1 -0.587707519531 -0.404731988907 -0.0407407842577 -0.0370793938637
211 1 -0.390571266413 0.268698424101 0.0402372218668 0.015368245542
212 1 0.245311394334 0.272353261709 0.0364352762699 0.0983255207539
213 1 -0.309944987297 -0.331563442945 -0.117065571249 -0.0934587046504
214 1 -0.14756141603 -0.165336683393 -0.191805168986 -0.136516153812
215 1 0.25598013401 0.47284078598 0.0974456071854 0.0120854973793
216 1 -0.206420570612 0.122225224972 -0.0929951220751 -0.0714846476912
217 1 -0.0970010608435 -0.00619566999376 -0.0973901972175 -0.0299688931555
218 1 0.136167004704 0.283708393574 -0.0664348602295 -0.115294925869
219 1 -0.0908147618175 -0.282685607672 0.304992973804 0.130298390985
220 1 0.0791484564543 0.0732639878988 0.341593593359 0.147471323609
221 1 -0.140692934394 -0.117253497243 -0.197964653373 -0.216076150537
222 1 0.157478779554 -0.029797160998 0.163964703679 0.137391939759
223 1 -0.256063848734 0.195907428861 -0.0897094979882 -0.176678940654
224 1 0.322747170925 0.172255471349 0.233500614762 0.143056154251
225 1 0.216788440943 -0.302862763405 0.352139621973 0.199270054698
226 1 -0.034029494971 0.13702224195 0.0103742470965 -0.131693825126
227 1 -0.0888036116958 0.100957095623 0.1709946841 0.125119790435
228 1 0.00745010003448 -0.456085860729 0.0214259196073 0.0315317548811
229 1 0.292789071798 0.0552489943802 0.179014608264 0.173160746694
230 1 -0.0760110765696 0.233063533902 0.169526815414 0.130192369223
231 1 -0.105052098632 0.0889917239547 0.0794898495078 -0.0535694845021
232 1 0.0324736572802 -0.372903376818 0.111881054938 0.0469784885645
233 1 0.243729829788 0.0214667096734 0.379933089018 0.153848096728
234 1 0.00733264768496 -0.260229945183 0.0955403670669 0.115538746119
235 1 0.169148281217 -0.225591614842 0.380355536938 0.243218183517
236 1 -0.145907431841 -0.168989300728 0.0417413599789 0.0725131034851
237 1 -0.0429590120912 0.397033780813 0.083560615778 0.0907357558608
238 1 0.211200669408 -0.11631398648 0.260594278574 0.176598295569
239 1 -0.185327619314 -0.0124428635463 0.0325415879488 -0.0638482198119
240 1 -0.647945523262 -0.0317617543042 -0.176896080375 -0.303650081158
241 1 0.358346134424 0.0658951029181 0.169595077634 0.110483147204
242 1 -0.134242758155 -0.199197977781 -0.0339924432337 -0.0143631119281
243 1 0.33499750495 -0.0595843791962 0.459069877863 0.302954435349
244 1 -0.0797389447689 -0.227848142385 0.091074898839 0.0336163453758
245 1 0.652724087238 -0.10419280082 0.557478785515 0.405396163464
246 1 -0.0951009243727 0.047379616648 -0.0703754797578 -0.0241922698915
247 1 -0.434010505676 0.292956262827 0.0398297198117 -0.0560442693532
248 1 -0.258507788181 -0.186051666737 -0.209425956011 -0.210403457284
249 1 -0.292087584734 -0.138122111559 0.00168012594804 -0.0882101282477
250 1 0.123360000551 -0.0675568953156 -0.10618032515 -0.106498517096
251 1 -0.0710652545094 0.16228979826 -0.0179461929947 -0.12074072659
252 1 -0.355685025454 -0.0267042815685 0.353167980909 0.128143832088
253 1 -0.206724658608 0.26653188467 -0.22608025372 -0.213520810008
254 1 -0.0127788670361 -0.177984729409 0.105561546981 0.0691964253783
255 1 0.331824719906 0.157289415598 0.287453234196 0.218919888139
256 1 -0.420038610697 -0.128358393908 -0.0536550208926 -0.08501432091
257 1 0.233452036977 0.0304884891957 0.10360083729 0.143813222647
258 1 -0.172768369317 -0.00176599714905 0.207362771034 0.0871624797583
259 1 0.16274638474 0.31611213088 0.0575891919434 0.136204376817
260 1 -0.0171116925776 -0.288816452026 0.535405278206 0.269212961197
261 1 0.133295089006 0.110237896442 0.0224564056844 0.0348611585796
262 1 -0.0858013555408 -0.769703388214 0.0951435342431 0.0321976356208
263 1 0.157148942351 0.125923931599 0.303458958864 0.201532781124
264 1 0.257420122623 -0.0897118374705 0.155404999852 0.0216877497733
265 1 0.00579934893176 0.535879015923 0.338450938463 0.182968705893
266 1 0.116438426077 -0.394544631243 0.284683912992 0.21441565454
267 1 -0.256380796432 0.242792114615 -0.216306567192 -0.39563703537
268 1 -0.00143918767571 0.213854417205 0.0408516786993 -0.0159175395966
269 1 -0.273166656494 0.14877910912 -0.19949439168 -0.165598601103
270 1 -0.111178874969 0.0384961403906 -0.0481121204793 -0.0418275073171
271 1 0.0204308778048 -0.337692081928 -0.0447198227048 -0.0739339739084
272 1 -0.0830018371344 0.256359934807 0.0960886850953 0.0814261510968
273 1 0.22391115129 0.0700218677521 0.501160085201 0.304875731468
274 1 -0.0452533327043 0.350366353989 0.0143596762791 -0.0410916432738
275 1 0.326579600573 0.0440892092884 0.0277006160468 0.112979136407
276 1 -0.22817479074 -0.281289547682 0.106250673532 0.00898300297558
277 1 -0.200330808759 -0.128797411919 -0.349656283855 -0.229402273893
278 1 -0.370723605156 -0.160768732429 -0.182756870985 -0.334573239088
279 1 -0.163504213095 -0.411776006222 0.22070159018 0.0227162595838
280 1 -0.562907636166 0.0661211982369 -0.137854650617 -0.261994361877
281 1 -0.299821674824 -0.25477078557 -0.240976542234 -0.177151829004
282 1 -0.44983586669 -0.0893123298883 -0.11712744832 -0.218559429049
283 1 -0.288705646992 0.251895129681 0.130965456367 0.0251147020608
284 1 0.0862341374159 0.0362461768091 0.288204222918 0.162457883358
285 1 0.147661164403 -0.466942727566 0.0592384114861 0.111246578395
286 1 -0.111404120922 -0.221704125404 0.144688293338 0.0802640393376
287 1 0.0913295969367 -0.0332566052675 -0.0696607455611 -0.00241331267171
288 1 -0.375156193972 -0.0777969509363 -0.0560659132898 -0.0829700231552
289 1 0.205196157098 -0.0671047121286 0.319530814886 0.214237526059
290 1 -0.178040802479 -0.143908336759 0.0592917501926 -0.0724686160684
291 1 -0.144409537315 0.137529313564 -0.104379624128 -0.0847025886178
292 1 -0.331660628319 0.0477352254093 0.0291791539639 -0.00470360042527
293 1 0.00663598300889 -0.368818312883 0.132849350572 0.0239122994244
294 1 0.159708738327 -0.175273820758 0.225030511618 0.0882906541228
295 1 -0.100352443755 0.259564727545 0.24849717319 0.106489978731
296 1 -0.149099543691 0.324196606874 -0.185487776995 -0.102596536279
297 1 -0.0138665027916 0.242912858725 0.0407129973173 0.0239483509213
298 1 0.182349473238 -0.00486544473097 0.0861080512404 0.113161511719
299 1 -0.241408184171 -0.134664863348 0.261835992336 0.0241858623922
300 1 0.449049085379 0.454860895872 0.170924276114 0.235755652189
301 1 0.0743458271027 0.231597214937 0.21006809175 0.17509265244
302 1 -0.411871761084 -0.186141654849 -0.0903879627585 -0.169992566109
303 1 0.00159041106235 0.222707167268 0.0130838239565 -0.0586526580155
304 1 -0.327316522598 -0.0769891664386 0.199886903167 0.0687235221267
305 1 -0.426849216223 0.0639239400625 -0.136653482914 -0.11731377244
306 1 -0.0459886081517 -0.251249879599 -0.010109750554 -0.0136972302571
307 1 0.405148029327 -0.593052208424 0.523368000984 0.368130177259
308 1 -0.112446710467 -0.530455172062 -0.0530811138451 0.000606479530688
309 1 -0.0433789379895 -0.0334409885108 -0.078621558845 0.0125520378351
310 1 -0.117788337171 -0.561708629131 0.349359661341 0.136015638709
311 1 -0.190212309361 0.165393650532 0.0296783968806 -0.143798425794
312 1 -0.144835904241 -0.364364475012 0.0370134599507 0.0811907574534
313 1 -0.054272942245 0.125449791551 -0.0015116345603 0.0557388477027
314 1 0.238801717758 0.0478537641466 -0.0825557783246 0.0463380552828
315 1 0.0377155169845 0.0931557938457 0.18901231885 -0.0547718890011
316 1 -0.0511451996863 -0.0537301003933 0.0674396902323 0.0622640550137
317 1 0.201436117291 0.237310990691 0.218068808317 0.161283046007
318 1 0.310455024242 -0.344870001078 0.326914936304 0.221840023994
319 1 0.130373284221 -0.277487665415 0.209050402045 0.0784084796906
320 1 -0.183042943478 -0.0866365283728 -0.0230133198202 -0.091439858079
321 1 -0.194062456489 -0.0333466008306 0.0831829831004 -0.0254646558315
322 1 0.393312811852 0.198010310531 0.38392919302 0.297877639532
323 1 -0.0424908138812 0.303709954023 0.0560935921967 0.0755647048354
324 1 -0.0656882300973 -0.595587551594 0.0661126375198 0.0280942004174
325 1 0.0648692771792 -0.0532976649702 0.119459338486 0.0630783811212
326 1 0.247625038028 0.321948856115 0.213421985507 0.160863161087
327 1 0.0509714074433 -0.460752606392 0.0163331851363 -0.00680091325194
328 1 -0.090443097055 -0.24190762639 -0.00812769494951 0.00798842217773
329 1 0.116856753826 -0.115940831602 0.122040905058 0.144913837314
330 1 -0.536801278591 -0.398256480694 -0.31740373373 -0.347239792347
331 1 -0.0883611515164 -0.596627950668 0.0961846932769 0.0996403172612
332 1 -0.0472049601376 -0.319082200527 -0.00049180991482 -0.0136845083907
333 1 0.13141104579 -0.088173083961 0.09723225981 -0.0364368408918
334 1 0.218960493803 -0.180368602276 0.195910006762 0.0978844314814
335 1 0.151129990816 -0.374112844467 0.162580057979 0.116410329938
336 1 -0.366305500269 0.108826465905 0.150736838579 -0.0150417145342
337 1 -0.164319932461 -0.166469350457 0.155415669084 0.0879407525063
338 1 -0.337200134993 -0.362544775009 0.00555247766897 -0.0550369694829
339 1 -0.302780479193 0.115304149687 0.113500401378 -0.0192193742841
340 1 -0.106154218316 0.0803672671318 0.136525422335 0.0759824663401
341 1 0.157017022371 0.043924562633 0.0209672041237 -0.0286498591304
342 1 0.00327012338676 0.0656799897552 0.00866102520376 0.0428580902517
343 1 -0.184927001595 -0.112167499959 0.130865171552 0.0959228351712
344 1 0.139203041792 -0.116768367589 0.0969612970948 0.106458172202
345 1 0.146246895194 0.177218526602 0.146853819489 0.128784254193
346 1 0.389206886292 -0.268817096949 0.133310198784 0.130209326744
347 1 -0.214293017983 -0.00538130197674 -0.0562173947692 0.0257572568953
348 1 0.0839366093278 -0.0493970103562 0.0582207217813 0.0500725023448
349 1 0.412383407354 -0.169856354594 0.305389791727 0.270294487476
350 1 0.563362896442 -0.269330769777 0.194602146745 0.239649131894
351 1 -0.136606261134 -0.0418525263667 0.211476221681 0.117025315762
352 1 0.0582887940109 0.206639185548 -0.00367715489119 0.0649911984801
353 1 -0.281967461109 -0.331692934036 0.182942435145 0.0542077459395
354 1 0.202837496996 -0.0646725594997 0.196157500148 0.184540092945
355 1 -0.266415625811 0.324802458286 -0.0812479332089 -0.0931109189987
356 1 -0.0726934820414 -0.17655134201 0.125403344631 0.0552108101547
357 1 -0.327644735575 -0.134078770876 0.0199303142726 -0.0159981232136
358 1 0.527841150761 0.113908067346 0.37331277132 0.223858863115
359 1 -0.0140048628673 -0.0128796817735 0.239342212677 0.157266557217
360 1 -0.229227036238 -0.0971882641315 -0.175547689199 -0.0684309154749
361 1 -0.352874219418 0.588288724422 -0.15140683949 -0.191086560488
362 1 0.121591791511 0.276769757271 -0.0192732419819 -0.0785188004375
363 1 -0.157086208463 0.304265290499 -0.355248242617 -0.272548794746
364 1 -0.00351630616933 0.217184320092 0.263073414564 0.174630343914
365 1 -0.0142461964861 -0.411185503006 -0.0191367026418 -0.0286498591304
366 1 0.501644730568 -0.0190434679389 0.235954165459 0.177295997739
367 1 -0.486276328564 0.0941589474678 -0.135896086693 -0.153199210763
368 1 -0.310493648052 -0.258100748062 0.224083229899 0.124074317515
369 1 -0.157692790031 -0.0700768530369 -0.313286036253 -0.347793310881
370 1 -0.421824574471 0.0510498099029 -0.222299650311 -0.219587951899
371 1 0.04796917364 -0.317018836737 0.380987048149 0.173048362136
372 1 0.0373840816319 0.0864871516824 0.365760087967 0.188399657607
373 1 -0.280601471663 -0.327770352364 -0.0740131363273 -0.05254733935
374 1 0.0544000156224 -0.961360096931 -0.0119659081101 0.0835976824164
375 1 -0.162601605058 -0.504182219505 0.0343870893121 0.0286582894623
376 1 -0.218789964914 0.190742433071 0.165699273348 0.0508486554027
377 1 -0.394931435585 -0.0379277318716 0.213968172669 0.0498074218631
378 1 -0.150290131569 -0.299016982317 0.064602099359 0.0670121610165
379 1 0.0893667116761 -0.000958210148383 -0.154444947839 0.0474365465343
380 1 -0.00566099537537 0.109798885882 0.232687741518 0.0444634109735
381 1 0.179096236825 0.21803162992 0.386002957821 0.210216790438
382 1 -0.0530389025807 0.0466969572008 0.151428103447 0.131193310022
383 1 0.158135220408 0.281807482243 0.155456200242 0.0450465865433
384 1 0.307113260031 0.182078436017 0.222094774246 0.225973144174
385 1 0.42849996686 0.141882166266 0.246771156788 0.196180284023
386 1 0.265479207039 -0.199933320284 0.363351345062 0.270243614912
387 1 -0.116863191128 -0.055767133832 0.400229334831 0.184084162116
388 1 -0.0364026539028 -0.357035130262 0.227168306708 0.0124014718458
389 1 -0.0451970174909 -0.107555627823 -0.0126955742016 -0.000897053978406
390 1 -0.270090430975 0.264148056507 0.204119816422 0.0185873769224
391 1 -0.0612122192979 0.191488742828 0.216255322099 0.125889584422
392 1 -0.163402855396 -0.464820086956 0.21208640933 0.0486707612872
393 1 -0.237046405673 0.213630512357 -0.109826527536 -0.108653075993
394 1 0.351768910885 -0.424604058266 0.253286927938 0.238037467003
395 1 0.311170965433 -0.0638362392783 0.21786826849 0.14989733696
396 1 -0.211775064468 -0.0793488770723 -0.0847405195236 -0.0163098573685
397 1 -0.32031288743 0.486248314381 -0.383176118135 -0.465535402298
398 1 -0.130727261305 0.0202199071646 0.0785233601928 0.0766674354672
399 1 -0.0828055515885 0.160702764988 -0.0584255941212 -0.0678859204054
400 1 0.0636513307691 -0.03393926844 0.426785349846 0.249512225389
401 1 0.0207783970982 0.278852880001 -0.316684752703 -0.208098322153
402 1 0.40253034234 -0.0552425049245 0.255804508924 0.176727667451
403 1 -0.234600841999 0.0177592374384 0.243555918336 0.126177996397
404 1 0.283573180437 0.0897863581777 0.121580064297 0.169767722487
405 1 0.382375389338 -0.206814900041 0.0976717621088 0.0691306814551
406 1 -0.0184857062995 -0.29157346487 0.261016726494 0.161283046007
407 1 -0.318665355444 0.00691334297881 -0.135763809085 -0.0386847183108
408 1 0.34848344326 0.535778105259 0.194926455617 0.142411485314
409 1 -0.119673982263 -0.00957609340549 -0.224264621735 -0.0861976370215
410 1 0.0933874100447 0.413220226765 0.165767535567 0.0669973194599
411 1 -0.0421416796744 -0.244868785143 0.045440889895 0.0304968841374
412 1 -0.0220012012869 -0.0105924112722 -0.0361750423908 -0.117947846651
413 1 -0.184529587626 0.00330023630522 0.220682382584 0.0616872422397
414 1 0.157617136836 0.0567065104842 0.225909531116 0.157660990953
415 1 -0.0898349285126 0.0136522343382 -0.0728140920401 -0.0350647866726
416 1 -0.315640598536 -0.0740982294083 -0.20289735496 -0.285385012627
417 1 0.154917374253 -0.351696699858 0.279241293669 0.104833766818
418 1 -0.23638188839 -0.251324504614 -0.127221167088 -0.200864836574
419 1 -0.214138567448 0.315684109926 0.0577001385391 -0.0819860398769
420 1 -0.133933857083 0.404523342848 -0.182611778378 -0.18200173974
421 1 -0.162503451109 -0.312299400568 0.254140347242 0.150056377053
422 1 -0.0299782324582 -0.128099367023 0.00823645573109 0.00189794867765
423 1 -0.481325656176 -0.0665362104774 -0.204503923655 -0.212719202042
424 0.906465888023 -0.353245913982 0.231823325157 0.0737634599209 0.0598740950227
425 1 0.0125455539674 0.0775531753898 0.179509580135 0.100499175489
426 1 -0.240981817245 -0.279432505369 -0.0414768569171 -0.0866790190339
427 1 -0.140705794096 -0.107349291444 0.0433223024011 0.00489229010418
428 1 -0.146079584956 -0.0986918956041 0.202220976353 0.10317966342
429 1 0.125755682588 -0.0612943507731 0.141114637256 0.081152588129
430 1 -0.102083645761 -0.0454063639045 0.190992221236 0.127159848809
431 1 0.107629582286 0.349936127663 0.207689210773 0.0802704021335
432 1 0.319333046675 -0.314876437187 0.252373784781 0.223648920655
433 1 0.0233398061246 0.00222465582192 0.0703903585672 -0.0771255493164
434 1 -0.332112699747 -0.287424772978 0.0640196427703 0.0560972355306
435 1 -0.366643369198 -0.094775877893 -0.0124800875783 -0.125098630786
436 1 0.0217099674046 0.0557999424636 -0.0455881655216 -0.0118798427284
437 1 -0.326722800732 0.376428514719 -0.347962260246 -0.167840108275
438 1 0.196779891849 -0.11491573602 0.339270204306 0.196875855327
439 1 0.0710877552629 0.131767228246 0.168039754033 0.100755773485
440 1 -0.146779477596 -0.784524559975 -0.00636967271566 0.0180063210428
441 1 0.0600650496781 -0.346244126558 0.0809769183397 0.0548354573548
442 1 -0.108358435333 -0.193503946066 0.0773093849421 0.0535673163831
443 1 -0.457796812057 -0.0255979765207 -0.156779050827 -0.187014937401
444 1 0.0140595529228 -0.271374374628 0.108057774603 -0.0260181427002
445 1 -0.382745474577 -0.124308459461 -0.264701366425 -0.307876497507
446 1 -0.25432780385 0.0302206929773 -0.206208601594 -0.0488955937326
447 1 -0.280751138926 0.0613359324634 0.073605582118 -0.0190242771059
448 0.614374876022 0.504296243191 0.112520806491 0.453761637211 0.355033099651
449 1 0.208518579602 -0.349064797163 0.225551098585 0.201435223222
450 1 0.255154788494 -0.0889435634017 0.232967227697 0.195535615087
451 1 -0.140816807747 -0.152245238423 -0.138808339834 -0.211870923638
452 1 -0.0208685193211 -0.120039045811 0.0185456555337 0.0587353110313
453 1 0.236793786287 0.2806199193 0.446642071009 0.235225498676
454 1 -0.357577115297 -0.0409547202289 -0.143762394786 -0.0894634202123
455 1 0.360728979111 0.139687076211 0.298027008772 0.249660670757
456 1 0.289355635643 0.0444755442441 0.0331539139152 -0.0491500757635
457 1 0.0587280318141 -0.408766537905 0.287517249584 0.151519626379
458 1 0.433413594961 0.210741758347 0.0917768329382 0.0840599834919
459 1 0.249108463526 -0.306445121765 0.191918179393 0.151214256883
460 1 0.046912111342 -0.226320385933 0.0933108329773 0.0897941887379
461 1 0.186175510287 0.0180028825998 0.229201555252 0.181904137135
462 1 -0.0882469192147 0.0825447887182 0.208736777306 0.133585393429
463 1 -0.111109696329 0.199164941907 0.173160210252 0.0172238051891
464 1 -0.0636288151145 -0.322287023067 0.286352336407 0.11784812063
465 1 -0.168100893497 0.0776365995407 0.249619409442 0.138168081641
466 1 0.151324659586 -0.470101445913 0.275322020054 0.221169888973
467 1 -0.198458015919 -0.194377586246 0.276034593582 0.0392339155078
468 1 -0.0907487943769 0.0213481858373 0.0265762470663 -0.040951680392
469 1 -0.092964284122 -0.296461939812 -0.113969840109 -0.127577662468
470 1 0.020989170298 0.039249047637 0.228727921844 0.120562538505
471 1 0.544910252094 0.2326464504 0.331984221935 0.28745046258
472 1 0.311584472656 -0.420209497213 0.182953089476 0.158265382051
473 1 -0.282387405634 0.149066656828 0.227799832821 0.105069153011
474 1 0.159819766879 0.407030135393 0.22317007184 0.1877104491
475 1 0.27351257205 -0.0956692695618 0.0340585261583 0.0483653880656
476 1 0.25700506568 0.127846822143 0.390210300684 0.225956186652
477 1 0.127155438066 0.240735337138 0.0949344485998 0.0942454114556
478 1 0.27212408185 -0.140552058816 0.448024600744 0.225226670504
479 1 0.588740468025 -0.027167443186 0.572599053383 0.293502748013
480 1 -0.190957218409 -0.230056390166 0.100923255086 0.0789662078023
481 1 0.0142864165828 -0.467085421085 0.0611180476844 0.106848366559
482 1 0.206113263965 -0.188180878758 0.0922014042735 0.0680788457394
483 1 0.0765033811331 -0.171021938324 0.320482373238 0.193094745278
484 1 0.00654910318553 -0.142712011933 0.279563456774 0.113727726042
485 1 0.038949560374 0.0423375293612 0.0259895306081 -0.10427608341
486 1 0.00973637960851 0.119496740401 0.151127278805 0.067773476243
487 1 0.104772128165 -0.154137402773 0.320439696312 0.219615459442
488 1 -0.45199021697 0.335731774569 0.0451613999903 -0.0359045639634
489 1 -0.154360711575 -0.258504599333 -0.0533733963966 0.0446288213134
490 1 -0.245090991259 0.486443728209 0.136700361967 -0.00408649398014
491 1 -0.35793748498 -0.3622572124 -0.114716567099 -0.025647033006
492 1 0.184022769332 0.286917626858 0.353786706924 0.235079154372
493 1 -0.299808770418 -0.270575344563 -0.00495087075979 -0.0237448215485
494 1 -0.065829820931 0.0826655104756 -0.0385624580085 -0.00331246177666
495 1 -0.346424072981 -0.712166011333 -0.121925756335 -0.188130393624
496 1 -0.361572086811 0.272149115801 0.28041473031 0.00592716131359
497 1 0.339700341225 -0.101754024625 0.385264784098 0.260452628136
498 1 0.0335435830057 0.125943690538 0.068869151175 0.109263777733
499 1 -0.114840775728 0.104374848306 -0.0437703989446 -0.148107558489
500 1 -0.253296494484 -0.191339597106 0.27082452178 0.121116027236
501 1 0.327337414026 0.230923354626 0.131198003888 0.120547696948
502 1 -0.249929010868 0.112342983484 -0.0556199997663 -0.0647134408355
503 1 0.204438358545 -0.236979678273 0.402819424868 0.225873470306
504 1 -0.0406566485763 0.221372544765 0.0657542049885 0.0335845351219
505 1 0.127710521221 -0.140077918768 0.410790294409 0.121111787856
506 1 0.0658072829247 0.404049187899 0.211791977286 0.0982597768307
507 1 -0.179770410061 -0.0694051608443 0.0370219945908 -0.0179003346711
508 1 -0.0147127844393 -0.258772403002 0.255862116814 0.150153934956
509 1 -0.0794380754232 -0.330334156752 0.00812764465809 -0.0503461174667
510 1 -0.490305066109 -0.268064171076 -0.139205172658 -0.174121439457
511 1 -0.263025611639 -0.19157885015 0.110581733286 -0.0438103042543
512 1 -0.316435396671 -0.19095107913 0.00125128333457 -0.130851924419
513 1 -0.344277769327 -0.15620957315 -0.234040439129 -0.26030421257
514 1 0.286540001631 0.00630311993882 0.0633753240108 0.0336290672421
515 1 -0.206026375294 -0.478530555964 -0.0550396814942 -0.0785103216767
516 1 0.00441889511421 -0.251895219088 0.237633258104 0.119266830385
517 1 -0.335832536221 0.261533677578 -0.241488605738 -0.173334687948
518 1 -0.0914583280683 -0.124600417912 0.0693534612656 0.0217895396054
519 1 -0.377654820681 0.428671449423 -0.168617993593 -0.281686604023
520 1 0.0386712178588 -0.00304134283215 -0.099860817194 -0.133509084582
521 1 0.0107837859541 -0.0217631664127 0.076944552362 0.0399846211076
522 1 0.504823923111 -0.122348278761 0.368973165751 0.264659970999
523 1 -0.185166716576 -0.0680661574006 0.131165996194 -0.0414267033339
524 1 0.137333482504 0.24937517941 0.274684071541 0.215590491891
525 1 -0.437183320522 0.236476883292 0.0445042736828 -0.115621507168
526 1 -0.347098201513 -0.0628023743629 0.0868185162544 -0.0223600398749
527 1 0.19537691772 0.0529375560582 0.261065781116 0.163745105267
528 1 -0.0550484359264 -0.486116737127 -0.136775106192 -0.133926853538
529 1 -0.153324574232 -0.470088273287 0.175125181675 0.0838988125324
530 1 0.0123154772446 -0.0884628370404 0.278660982847 0.125785678625
531 1 0.0520670935512 -0.0900806039572 0.187354564667 0.159181505442
532 1 -0.0662529692054 -0.204075440764 0.0807486250997 0.0760354846716
533 1 0.0136380083859 0.125465154648 0.163623347878 0.0776238441467
534 1 -0.3391533494 -0.00160356319975 -0.0417030118406 -0.110351711512
535 1 0.127041220665 -0.247461169958 -0.0424497462809 -0.0830654427409
536 1 0.214535951614 -0.199729189277 0.313682824373 0.237611204386
537 1 -0.1648042202 -0.483594566584 0.119295060635 -0.0030834346544
538 1 -0.680347561836 0.127949982882 -0.368550777435 -0.347135901451
539 1 0.157214924693 -0.0423617959023 0.14434479177 0.151712596416
540 1 -0.183411389589 -0.371248275042 0.00444090738893 0.0479009672999
541 1 -0.188035443425 -0.0379079692066 -0.113969840109 -0.0729818120599
542 1 -0.453425377607 0.0206852611154 0.0155373802409 -0.114444546402
543 1 0.215280875564 0.084127433598 0.263892710209 0.144349738955
544 1 -0.181932792068 -0.254489809275 0.107490256429 0.0692557990551
545 1 0.159845486283 -0.206182703376 0.296789556742 0.0784742161632
546 1 -0.332463443279 0.169164776802 -0.0356437973678 -0.0468491800129
547 1 -0.038952793926 0.0663143694401 0.240229770541 0.119459807873
548 1 0.0433467440307 -0.238854274154 -0.0578943490982 0.0755456164479
549 1 -0.206315994263 -0.00825685448945 -0.153984129429 -0.201221078634
550 1 0.122811347246 0.382963269949 -0.0791592076421 0.0106901163235
551 1 0.10082706809 -0.447601884604 0.287973821163 0.18850569427
552 1 -0.638367652893 -0.285541385412 0.0284494832158 -0.0364686474204
553 1 0.00127184600569 0.0855322927237 0.00384565256536 -0.0192766338587
554 1 -0.065712377429 -0.233388528228 0.118281632662 0.0956959277391
555 1 0.17229694128 -0.405537605286 0.293862342834 0.206832244992
556 1 -0.301657438278 -0.036336299032 0.147385075688 -0.0581627897918
557 1 -0.014218846336 0.24627789855 -0.0930313915014 -0.159355431795
558 1 0.228036403656 -0.136311158538 0.222086250782 0.0307237934321
559 1 0.266629606485 0.157050147653 0.132539987564 0.127369791269
560 1 0.231363669038 -0.341160297394 0.282031953335 0.231932133436
561 1 -0.599648952484 -0.117378592491 -0.325349032879 -0.322742164135
562 1 -0.0810067802668 -0.691734135151 0.287527918816 0.132013991475
563 1 0.0336015075445 -0.166313499212 0.102491401136 0.0253246463835
564 1 -0.123926363885 -0.329115927219 0.0272653773427 0.0812119618058
565 1 0.259077340364 0.304625302553 0.166172906756 0.0711028799415
566 1 0.168741241097 -0.045338306576 0.13355769217 0.035138964653
567 1 -0.276133537292 -0.595313131809 0.279610395432 0.126311600208
568 1 -0.258860141039 -0.0829334259033 0.0513400919735 0.0181823335588
569 1 0.542590141296 0.0972013473511 0.123643189669 0.219833880663
570 1 0.160057872534 0.0848232731223 0.114535160363 0.0669676363468
571 1 -0.174116656184 0.131558701396 -0.0968440100551 -0.00607777619734
572 1 0.0416058897972 -0.129526183009 0.194971263409 0.101173534989
573 1 -0.549117565155 -0.402012318373 0.0871641412377 -0.0953460708261
574 1 0.34080567956 -0.130533710122 0.171747818589 0.155419483781
575 1 -0.260076493025 0.0914655774832 0.0545979887247 -0.101913683116
576 1 0.14185616374 0.502944111824 0.221269100904 0.155447050929
577 1 0.236817911267 -0.0991923809052 0.085841357708 0.134605407715
578 1 -0.0264546927065 -0.139904513955 0.350027441978 0.163588181138
579 1 -0.218902587891 -0.0750860124826 -0.158453851938 -0.20749604702
580 1 -0.0103059513494 0.0803738534451 -0.109478741884 -0.00686453375965
581 1 0.271877914667 -0.421199470758 0.453151464462 0.318502962589
582 1 0.010828836821 0.0323543027043 0.130959048867 0.0663144737482
583 1 -0.0274747498333 0.0947099104524 0.135548263788 0.0992501154542
584 1 -0.356325358152 0.00489166425541 -0.381563186646 -0.46013623476
585 1 0.320213109255 0.152532681823 0.360293984413 0.251902192831
586 0.0370810180902 0.316879421473 0.317835301161 0.0942517220974 0.193580374122
587 1 0.0849309191108 -0.196897536516 -0.0435037016869 0.0754035338759
588 1 0.284713864326 -0.0573651492596 -0.0547004602849 -0.0321022570133
589 1 0.351123690605 0.168899178505 0.0438919514418 0.0551026575267
590 1 0.00900592468679 -0.130439326167 0.160937234759 0.0750409066677
591 1 -0.207276508212 -0.140174508095 -0.300094425678 -0.160286396742
592 1 0.328481376171 0.042758975178 0.238945379853 0.130909144878
593 1 -0.362555116415 -0.0494892112911 -0.0313212648034 -0.189778119326
594 1 0.0323610268533 -0.259347528219 0.136937186122 0.0360147878528
595 1 0.0203005559742 0.142128020525 -0.0436167791486 0.033785995096
596 1 0.0114032272249 -0.302283257246 0.0353983826935 0.0527126975358
597 1 -2.97671031149e-05 -0.364548891783 0.279842942953 0.160021275282
598 1 0.206605583429 0.020009174943 0.123869337142 0.13301704824
599 1 0.175133466721 0.0488064214587 0.261737853289 0.170637190342
600 1 -0.165595814586 -0.0663188770413 0.00934161618352 0.0477101095021
601 1 0.471426010132 0.276304423809 0.0680306777358 0.198506623507
602 1 0.108302108943 -0.223545789719 0.0256865713745 0.0582984611392
603 0.179129585624 -0.030060287565 -0.0744187235832 0.119132906199 0.125102832913
604 1 0.458623766899 -0.343772470951 0.279373556376 0.209340974689
605 1 -0.25801384449 -0.162281140685 0.0146348997951 -0.0799587145448
606 1 0.0767286419868 0.147189855576 0.181865006685 0.0632289424539
607 1 0.0143797267228 0.040271949023 -0.181771174073 -0.0997103452682
608 1 -0.0917302370071 -0.0912066847086 0.0126784564927 -0.0735480263829
609 1 -0.283640772104 -0.10659199208 -0.0290426649153 -0.127285003662
610 1 -0.10536262393 0.362623661757 0.0561383962631 0.0736858174205
611 1 0.21950109303 -0.263649910688 -0.0102206915617 -0.0501679815352
612 1 0.40918970108 -0.325792551041 0.130030959845 0.173618808389
613 1 0.211141139269 -0.217324957252 0.220554381609 0.158070281148
614 1 0.108313374221 -0.104451790452 0.287948220968 0.160712599754
615 1 -0.046690095216 -0.433805793524 -0.0152302123606 -0.131785005331
616 1 -0.152368873358 -0.0950634405017 0.171762749553 0.0384280756116
617 1 -0.0797115936875 -0.0940558984876 0.220187410712 0.124053113163
618 1 -0.214019492269 -0.337316721678 0.0364395454526 0.0404151119292
619 1 -0.195541039109 -0.08556971699 0.169727370143 0.0162037778646
620 1 -0.484076946974 0.165874361992 -0.142552673817 -0.0756792649627
621 1 0.0712856650352 -0.199849918485 0.157510787249 0.0934628918767
622 1 -0.521912336349 -0.575851619244 -0.00696066068485 -0.0533489361405
623 1 -0.0757230818272 -0.209589481354 0.372954338789 0.145779058337
624 1 0.164490461349 -0.174861133099 0.209528297186 0.0593163669109
625 1 0.0775701031089 -0.0422871597111 -0.135727539659 -0.101209640503
626 1 -0.00834789592773 -0.0786047354341 0.236914262176 -0.0371302887797
627 1 0.204340219498 -0.0830541625619 0.366169720888 0.235961347818
628 1 0.455977112055 -0.321793138981 0.457348108292 0.353073626757
629 1 0.0151729183272 -0.226542070508 -0.013915955089 0.0323884934187
630 1 -0.156629279256 -0.0792061910033 0.0420528538525 -0.18596945703
631 1 0.0232851058245 -0.0796298384666 0.0234890375286 0.0417935289443
632 1 -0.187403142452 -0.291002780199 0.0744419246912 -0.0135424248874
633 1 0.258979171515 -0.178057178855 0.348587304354 0.263726890087
634 1 0.342200636864 0.062459807843 0.0780433192849 0.150151818991
635 1 0.141786962748 0.302140504122 0.0615639574826 -0.0190179124475
636 1 -0.180825859308 0.214760988951 0.213210776448 0.127759993076
637 1 0.163861364126 0.17558978498 0.19654366374 -0.0181060377508
638 1 -0.265815496445 -0.212901845574 0.165204286575 -0.020502358675
639 1 0.495001465082 0.348858356476 0.296262562275 0.278573453426
640 1 -0.023721139878 0.232448905706 -0.16624763608 -0.108108080924
641 1 0.0916899964213 0.158926934004 0.0948747098446 0.0916009768844
642 1 0.048479180783 0.663143157959 0.137274295092 0.069987423718
643 1 -0.3128297925 -0.0339524485171 -0.199103951454 -0.184809461236
644 1 -0.00861980114132 -0.350050359964 0.0962828397751 0.0845477283001
645 1 0.200789317489 -0.45200958848 0.347919523716 0.21035887301
646 1 0.197096854448 0.286575198174 0.234187617898 0.0878156349063
647 1 0.0365860536695 -0.421691149473 0.172140389681 0.1598919034
648 1 0.20402649045 -0.141779109836 0.329921096563 0.241564080119
649 1 -0.0866894870996 0.29733762145 -0.0158489365131 -0.0571045875549
650 1 -0.235939458013 0.190042182803 -0.409621179104 -0.434936702251
651 1 0.627686023712 -0.214267209172 0.294242113829 0.299396038055
652 1 0.0364171229303 -0.116054974496 0.16735701263 0.133407250047
653 1 -0.0838223919272 -0.180522248149 -0.141223490238 -0.0357306674123
654 1 -0.024848992005 0.0672143548727 0.271756887436 0.172991096973
655 1 -0.265242725611 0.0733100697398 0.0960502848029 -0.00757494568825
656 1 0.11798620224 0.244113564491 0.379318624735 0.250757038593
657 1 0.25601875782 0.00447680661455 0.288837909698 0.208346381783
658 1 -0.00599082140252 -0.29633679986 -0.0789138525724 0.0121173067018
659 1 -0.3534309268 0.0543270520866 -0.00606670742854 -0.0903837755322
660 1 0.40849301219 -0.00566884875298 0.145085126162 0.113153025508
661 1 -0.531646311283 0.000137143229949 -0.0387822166085 -0.10135384649
662 1 -0.211926296353 -0.345857769251 0.236216589808 0.114143364131
663 1 0.269261777401 0.286678344011 0.21598008275 0.143295779824
664 1 -0.0597255751491 0.00345389777794 -0.100921183825 -0.0735119730234
665 1 0.43933442235 0.0703708827496 0.21251951158 0.214570462704
666 1 0.284330964088 0.22623462975 0.389619290829 0.282038599253
667 1 -0.228153884411 0.0842020735145 0.141180768609 -0.0141870994121
668 1 -0.171141758561 0.0285238884389 -0.00819810852408 -0.106186769903
669 1 -0.221230685711 0.0528102442622 -0.00740230316296 0.0289912316948
670 1 -0.0360293835402 -0.0918344780803 0.171122685075 0.087983161211
671 1 0.254248946905 -0.21355599165 0.360663086176 0.230801835656
672 1 0.0646552890539 -0.0366523861885 0.0775824710727 0.0785123929381
673 1 -0.0690701901913 -0.282068789005 0.252493262291 0.0634113177657
674 1 -0.055714532733 -0.185426056385 -0.331843435764 -0.228740617633
675 1 0.200079798698 0.047829605639 0.236545160413 0.169332996011
676 1 0.535787642002 -0.0266406163573 0.16871394217 0.160941630602
677 1 -0.13607531786 -0.202080115676 0.0951115339994 0.0475468225777
678 1 0.00744205666706 0.00766625395045 0.167389020324 0.00647852709517
679 1 -0.553545296192 -0.179409340024 -0.159520611167 -0.180347651243
680 1 0.0404555127025 0.227163180709 0.0427206456661 -0.0484375394881
681 1 0.23469735682 0.523547053337 0.412181347609 0.258442252874
682 1 -0.300326883793 0.44018676877 -0.121944956481 -0.261093080044
683 1 -0.50996285677 0.530602097511 -0.239310264587 -0.293647021055
684 1 0.513441324234 0.152576565742 0.417566388845 0.335650473833
685 1 0.158476307988 0.0463852509856 0.152913033962 0.129038736224
686 1 -0.0199820045382 0.0653902366757 0.373338341713 0.213211134076
687 1 -0.130001634359 0.228917047381 -0.109756127 -0.0494003109634
688 1 0.175131857395 -0.17086610198 0.308110058308 0.203770041466
689 1 0.225169301033 0.204079702497 0.252905040979 0.159315094352
690 1 -0.0277740117162 -0.293529301882 0.0332648567855 0.0890901386738
691 1 -0.04877365008 -0.3729121387 -0.10785086453 -0.05773017928
692 1 0.248600050807 -0.0266384314746 -0.00814476143569 0.121253862977
693 1 0.268386542797 -0.188525497913 0.259894490242 0.216027334332
694 1 -0.0501605346799 0.213094890118 -0.0250337664038 -0.0592803657055
695 1 0.26970744133 -0.0468002408743 0.320002317429 0.175495564938
696 1 -0.322044074535 -0.0915403366089 0.169283598661 0.0323906131089
697 1 0.147453591228 0.154986768961 0.161037504673 0.150336310267
698 1 0.0298414584249 -0.112501144409 -0.0333865247667 0.0580206550658
699 1 0.232348322868 -0.0474016852677 0.0203890223056 -0.0394354239106
700 1 -0.237445399165 -0.205598831177 0.113882303238 0.0792779400945
701 1 0.757789850235 0.00328709371388 0.499973863363 0.403095275164
702 1 -0.211279496551 0.288875609636 -0.00795061327517 0.0389200635254
703 1 0.244627609849 0.155524581671 0.0611543208361 0.0176564157009
704 1 0.0395979583263 -0.0585636645555 0.205833047628 0.0701379850507
705 1 -0.475058913231 -0.167204678059 -0.141351521015 -0.178023427725
706 1 0.0638685375452 -0.58430480957 0.3486982584 0.186645895243
707 1 -0.022939203307 0.0331577062607 0.0682610943913 -0.00122787419241
708 1 -0.143819049001 0.0224391296506 0.0451251342893 -0.0472245290875
709 1 -0.0402946323156 0.19045047462 -0.0691358968616 0.0175927951932
710 1 0.105478450656 0.104726061225 0.12688614428 0.104801945388
711 1 -0.0808442756534 -0.107006855309 -0.0898780450225 0.0335590876639
712 1 0.598521053791 0.242267489433 0.702733576298 0.450421571732
713 1 0.207683548331 0.170415982604 0.120359688997 0.122714988887
714 1 -0.354050368071 0.537158787251 -0.216756746173 -0.17711789906
715 1 -0.381471186876 -0.134094148874 -0.0773926377296 -0.0786163434386
716 1 -0.397024661303 0.283890604973 0.137615650892 -0.0205808226019
717 1 -0.0683381259441 -0.363517165184 0.250402420759 0.133581146598
718 1 -0.270141899586 -0.0156103596091 0.104552388191 -0.0291185174137
719 1 0.000473816238809 0.0621415190399 0.083951048553 -0.032193440944
720 1 0.100362084806 -0.276519656181 0.192063257098 0.166031166911
721 1 -0.177197739482 -0.119196131825 0.0539600662887 -0.0531856454909
722 1 -0.222952231765 0.0586359873414 -0.0381570830941 -0.0287346784025
723 1 -0.50081294775 0.0694226026535 -0.118625186384 -0.206766575575
724 1 0.00844119675457 -0.0731324031949 0.15729957819 0.115895017982
725 1 0.123757407069 -0.203746169806 0.235237315297 0.170762300491
726 1 -0.402136147022 -0.171968013048 0.0808851718903 0.0340574383736
727 1 0.0376270227134 -0.0137686925009 0.482495993376 0.265397936106
728 1 -0.482430994511 -0.386519402266 0.251759320498 -0.0517775453627
729 1 0.169804722071 -0.040744010359 0.119734562933 0.0954987108707
730 1 -0.180389836431 -0.270041972399 0.172823116183 0.0114556662738
731 1 0.0146194547415 0.1715310812 0.186979070306 0.144903242588
732 1 -0.255343049765 -0.284353882074 -0.33436742425 -0.359830021858
733 1 0.281658530235 -0.0925412923098 0.306898206472 0.203992709517
734 1 -0.0541876703501 -0.0199149120599 -0.0222665760666 0.0583960078657
735 1 -0.106633678079 0.00596726452932 0.383811831474 0.172431245446
736 1 0.564867258072 -0.00537033099681 0.520965635777 0.389043927193
737 1 0.162093162537 -0.188281849027 0.248573988676 0.127882987261
738 1 0.0149154961109 -0.330215632915 0.175515621901 0.113825276494
739 1 -0.103077955544 0.195082083344 -0.0142039787024 -0.0308319963515
740 1 0.149257212877 0.147257909179 0.0289636682719 0.0841829776764
741 1 -0.120105169713 -0.413365244865 0.17351436615 -0.050015296787
742 1 0.36122611165 0.30422359705 0.149100422859 0.180421814322
743 1 -0.282821804285 0.340385347605 -0.0514532215893 -0.234739914536
744 1 -0.0450634770095 -0.0627562627196 0.144562423229 0.0535312630236
745 1 -0.568645060062 -0.163918659091 0.204858019948 0.0873915031552
746 1 0.061598341912 -0.276416480541 0.270376503468 0.0524327717721
747 1 -0.224660903215 0.0440035872161 -0.111588820815 -0.0967393293977
748 1 0.065800845623 -0.268391251564 0.0962871015072 0.0372256711125
749 1 -0.188315391541 -0.572541415691 0.173591181636 0.0648130625486
750 1 -0.138129919767 -0.393910288811 -0.000993182882667 -0.0886024460196
751 1 0.0605348497629 -0.248874813318 0.286392867565 0.172403678298
752 1 -0.124946407974 -0.0759618580341 0.346135884523 0.180988028646
753 1 0.116369247437 0.139085620642 0.158906117082 -0.0243831276894
754 1 -0.116415910423 0.0891871005297 0.104100078344 0.0877074822783
755 1 -0.24044765532 -0.213277220726 0.0358656235039 0.019679505378
756 1 1 0.165415614843 0.515377879143 0.430264890194
757 1 -0.225795194507 0.291268229485 -0.0332585051656 -0.126091092825
758 1 0.752475559711 -0.253030091524 0.353456020355 0.324722796679
759 1 0.0672006085515 0.0870227441192 -0.0830208882689 -0.0563538856804
760 1 -0.157646119595 -0.0907391309738 -0.0859779641032 -0.0614391751587
761 1 0.156162679195 -0.649564504623 0.0935135185719 0.11534152925
762 1 0.0670702829957 -0.104025945067 0.106609106064 0.0305901914835
763 1 -0.0929996818304 -0.890955150127 0.0204466283321 0.00320213986561
764 1 -0.0597545318305 0.0281134080142 -0.00172284804285 -0.0491734035313
765 1 0.317420005798 -0.441530287266 0.316379606724 0.223865225911
766 1 0.337307929993 -0.148897752166 0.561146318913 0.359208643436
767 1 -0.0331912524998 -0.295669496059 0.160911634564 0.0452904626727
768 1 -0.22887468338 -0.0063800518401 0.0906652584672 0.0355397649109
769 1 -0.392688602209 -0.196649491787 -0.097257912159 -0.210730046034
770 1 -0.377051502466 -0.0173488669097 -0.191026419401 -0.29817032814
771 1 -0.188403859735 -0.166910558939 -0.221678808331 -0.223824977875
772 1 0.689309298992 -0.0502706766129 0.43772393465 0.349235266447
773 1 0.0131730316207 -0.0304095838219 0.0853271782398 0.039927367121
774 1 0.194770365953 0.35421872139 0.142441689968 0.0554864928126
775 1 0.221184000373 0.420472770929 0.167083919048 0.1311763376
776 1 -0.0614229850471 0.199718102813 0.224057629704 0.0764829367399
777 1 -0.324505746365 -0.189247682691 -0.0802515745163 -0.220429852605
778 1 0.0549406185746 -0.283853381872 0.000790445192251 0.0921035632491
779 1 0.168258547783 -0.456283420324 0.276245832443 0.227245524526
780 1 0.0307199247181 0.12607319653 -0.0241675488651 0.0641895905137
781 1 0.134868606925 0.291349470615 0.0943413302302 0.0239144209772
782 1 0.262681305408 0.300476610661 0.335312515497 0.225841656327
783 1 -0.104519553483 -0.0881445482373 0.0470367744565 0.0732722952962
784 1 0.322536379099 -0.392786383629 0.44005587697 0.305219292641
785 1 0.462485194206 0.0400370843709 0.166458800435 0.21541659534
786 1 -0.122153319418 -0.309711426497 0.0545702539384 -0.0255940146744
787 1 0.00661828741431 -0.174033582211 0.0496567413211 0.0690649449825
788 1 -0.167874038219 -0.183773159981 -0.0299728736281 -0.0598359704018
789 1 -0.251019865274 0.0701755210757 0.0238645393401 0.0100581673905
790 1 -0.0929948464036 -0.0720436498523 0.100029312074 0.0444782562554
791 1 0.336801081896 -0.175183802843 0.179614126682 0.159380838275
792 1 0.0838561579585 -0.288673788309 0.0759780630469 0.0325433015823
793 1 -0.120787352324 -0.161418482661 0.144193321466 0.109768487513
794 1 -0.596699774265 -0.127737179399 0.118475779891 -0.155211701989
795 1 0.149498522282 -0.0228738803416 0.189208596945 0.146408885717
796 1 -0.385083198547 -0.0661937594414 -0.320985943079 -0.451011121273
797 1 -0.0620005950332 -0.292596399784 0.228269204497 0.0232888329774
798 1 0.0766144096851 -0.0108141144738 0.426798135042 0.253238201141
799 1 0.129739359021 -0.137309923768 0.278620451689 0.0869058817625
800 1 -0.0695255175233 -0.0453536808491 0.0943199917674 0.0014589743223
801 1 0.513051986694 -0.183731451631 0.169097974896 0.166451051831
802 1 -0.24603381753 -0.282070994377 0.344194382429 0.152622357011
803 1 -0.33657425642 -0.255391985178 -0.0154350288212 -0.0944384410977
804 1 -0.51751190424 0.0728139802814 -0.500684320927 -0.365373373032
805 1 0.116554267704 -0.0414705872536 0.298146486282 0.188908606768
806 1 0.345342814922 -0.0257669929415 0.288287460804 0.248409494758
807 1 -0.184510275722 -0.276901572943 0.0483702272177 -0.159323617816
808 0.936828613281 0.647324502468 -0.019954405725 0.622173726559 0.463516533375
809 1 0.186368554831 -0.386743307114 0.227938503027 0.198559641838
810 1 -0.234122991562 -0.200218692422 0.253779798746 0.0540486983955
811 1 -0.327876418829 -0.348595052958 0.0280761178583 -0.030185200274
812 1 -0.358254462481 0.0940886959434 -0.0535888820887 -0.0541569031775
813 1 0.0437232330441 -0.186141654849 0.284929275513 0.189071893692
814 1 -0.159469038248 -0.212603315711 0.331561774015 0.100910581648
815 1 -0.374646157026 -0.0219080355018 -0.118469424546 -0.131655648351
816 1 -0.240339845419 0.0329513698816 0.0483595579863 0.0513067133725
817 1 0.0282357577235 0.112055428326 0.423452794552 0.196761339903
818 1 0.155639797449 0.0282517019659 0.143723934889 0.139996081591
819 1 -0.121316686273 0.401366829872 -0.10726416111 -0.104507237673
820 1 0.372660726309 0.154029741883 0.232879757881 0.235475718975
821 1 0.577671051025 -0.478058606386 0.341147691011 0.317179679871
822 1 -0.139389693737 -0.025810893625 0.0896902382374 0.0678667798638
823 1 -0.13439399004 0.696310758591 0.0546619966626 -0.0956026613712
824 1 -0.153242513537 -0.280953675508 -0.15141749382 -0.170596942306
825 1 0.00202321377583 -0.507198274136 0.160026222467 0.0136165982112
826 1 -0.430766880512 0.0308814067394 -0.139017432928 -0.195153936744
827 1 0.140514314175 -0.16012339294 0.39796563983 0.215802550316
828 1 -0.00819665566087 0.479682862759 0.0165977459401 0.0439205281436
829 1 0.195010095835 -0.0700307637453 0.126841336489 0.119635820389
830 1 -0.292755275965 -0.105839081109 -0.0551698356867 -0.00917602796108
831 1 0.0672440379858 0.194728687406 0.260395854712 0.146699413657
832 1 0.157564043999 0.396089851856 0.310493201017 0.189067661762
833 1 -0.0929867997766 0.24521329999 0.091531470418 -0.00645100697875
834 1 -0.133127778769 -0.58777743578 0.203479751945 0.0788220018148
835 1 0.089250870049 -0.090965218842 -0.128987729549 -0.122087329626
836 1 -0.0653745010495 -0.0733058154583 0.115896351635 0.0478712804615
837 0.194801986217 0.715307891369 -0.177069365978 0.750827491283 0.566814959049
838 1 0.298943191767 -0.14162106812 0.273467957973 0.232593774796
839 1 -0.551749706268 -0.594055354595 0.231279611588 0.0712958574295
840 1 0.152705103159 0.158134520054 -0.110472969711 -0.0802047103643
841 1 -0.363970965147 -0.00367791671306 0.0827178731561 0.0617020875216
842 1 0.0218065045774 -0.360290437937 0.118452318013 -0.0238466113806
843 1 -0.187395080924 0.250867813826 0.0511331446469 -0.0242198444903
844 1 -0.362040251493 -0.282738268375 -0.0528144165874 -0.101869150996
845 1 0.161803558469 0.118612125516 0.172673761845 0.0679600909352
846 1 -0.0713999122381 -0.0303854364902 -0.227964177728 -0.0743178129196
847 1 0.0819737315178 -0.369079530239 0.327241390944 0.140345975757
848 1 0.0050560249947 -0.26420083642 0.197879254818 0.0299221910536
849 1 0.129670187831 -0.114887192845 -0.262013137341 -0.0805440098047
850 1 0.177331268787 -0.175464779139 0.282983511686 0.162071928382
851 1 -0.0428608618677 -0.214416459203 -0.0594966299832 -0.20958276093
852 1 -0.107706815004 -0.217660784721 0.283672630787 0.0220312923193
853 1 0.156967148185 -0.00592786632478 0.0627971366048 0.129469230771
854 1 -0.10572463274 0.146893531084 -0.0435207784176 -0.00848894007504
855 1 -0.205849394202 0.00385120371357 -0.0170415695757 -0.0054140156135
856 1 0.413290798664 0.157803058624 0.0663921236992 0.155232861638
857 1 -0.175390914083 0.245377928019 -0.0346154384315 -0.148981258273
858 1 -0.251906365156 -0.102684743702 -0.221008867025 -0.186238765717
859 1 -0.122224114835 0.225097611547 0.255303114653 0.12010447681
860 1 0.307044118643 0.206827953458 0.4103102386 0.294107168913
861 1 0.451739192009 -0.0741399303079 0.35494735837 0.272612333298
862 1 0.0330689586699 0.35983595252 0.149804487824 0.124926812947
863 1 -0.331124842167 -0.250389397144 -0.259883880615 -0.282081067562
864 1 0.182124227285 -0.0280235353857 0.374548077583 0.226874411106
865 1 -0.325763911009 0.11693508178 -0.118586778641 -0.125836610794
866 1 0.0356400087476 0.0950655117631 0.177969172597 0.119960278273
867 1 -0.132982969284 0.230956271291 -0.0994682461023 -0.0765635743737
868 1 -0.261651605368 0.0272046532482 -0.0240267347544 0.0329334996641
869 1 0.292497813702 -0.07507943362 0.260075807571 0.132561117411
870 1 0.793276190758 -0.11902268976 0.429699748755 0.395904183388
871 1 0.354166209698 0.481195241213 0.152445793152 0.236432135105
872 1 -0.102199487388 0.0825491696596 0.190855681896 0.0427796244621
873 1 -0.286396831274 -0.858369171619 0.0635609403253 0.0333321802318
874 1 0.0739741697907 0.209723249078 0.198655858636 0.162375181913
875 1 9.57217635005e-05 0.0481698475778 -0.00608590943739 -0.101544700563
876 1 -0.219645902514 0.255492836237 0.0338985174894 -0.0341592766345
877 1 0.154357463121 0.0461613498628 0.121097885072 0.024472149089
878 1 -0.120954677463 0.365255594254 0.108318060637 0.011470512487
879 1 -0.0361918881536 0.507674455643 0.0598891377449 -0.044141124934
880 1 0.285167574883 -0.27279022336 0.0173295419663 -0.0155782382935
881 1 0.128666236997 0.377315342426 0.0008181805606 -0.0340744517744
882 1 0.57462054491 0.0220066867769 0.513585746288 0.298072755337
883 1 0.1424369663 0.245217695832 0.0676935762167 0.0356712415814
884 1 -0.183927863836 0.628766000271 0.153649106622 -0.00948352087289
885 1 0.283762991428 0.406193763018 0.069084636867 0.131348103285
886 1 -0.0782796517015 -0.307373642921 0.139751315117 0.0709120184183
887 1 0.698539614677 0.223497420549 -0.072043903172 0.131787076592
888 1 -0.0212675333023 -0.0535544939339 -0.107148945332 -0.0867765694857
889 1 -0.36331614852 -0.48563605547 -0.249246105552 -0.238559186459
890 1 0.210674524307 -0.212188452482 0.277404338121 0.212591901422
891 1 0.251774430275 0.189161971211 0.081429220736 0.136726051569
892 1 -0.413953691721 0.0838223174214 0.168242424726 -0.00134026899468
893 1 0.038474932313 -0.178928628564 0.0362261869013 -0.0182884149253
894 1 -0.136411592364 -0.348318487406 0.0650032013655 -0.0628133490682
895 1 -0.339959412813 -0.141528859735 0.0527354180813 -0.0637803599238
896 1 0.149216964841 -0.402321785688 0.0803709924221 -0.00996914692223
897 1 -0.178930535913 -0.129989340901 0.085237570107 -0.0117632076144
898 1 -0.112945467234 0.196774497628 -0.376551538706 -0.381240010262
899 1 -0.129691123962 0.177870452404 -0.112700372934 -0.128061160445
900 1 -0.036513671279 -0.132349044085 -0.177341982722 -0.26874011755
901 1 -0.382045596838 -0.0243511535227 0.109331488609 -0.0281621068716
902 1 -0.0803969949484 -0.128154247999 0.195406496525 0.0404532849789
903 1 0.171830356121 -0.338451564312 0.15976805985 0.114565372467
904 1 0.0330480337143 0.056219201535 0.29053619504 0.144502431154
905 1 0.0667549371719 0.06211957708 0.223221287131 0.165672764182
906 1 -0.0582035370171 -0.0731455758214 0.118736073375 0.0804761052132
907 1 0.163615211844 -0.0175573956221 0.116613216698 0.136049568653
908 1 -0.00288721732795 0.104236550629 -0.00877629034221 -0.0280094221234
909 1 -0.113074183464 0.0443833358586 0.0947360321879 0.0721207857132
910 1 0.182719543576 -0.172007530928 0.378582566977 0.243116378784
911 0.00923691410571 0.177384361625 -0.25106549263 0.530653953552 0.32910194993
912 1 0.0587199740112 0.0928419008851 0.0758607238531 0.035715777427
913 1 0.124743670225 0.173014968634 0.258637815714 0.1686989218
914 1 -0.412076115608 0.513208270073 -0.206238463521 -0.222107246518
915 1 -0.313959270716 -0.162272363901 0.0258657839149 0.0127874286845
916 1 0.012711272575 -0.401129841805 0.101431034505 0.0398213341832
917 1 -0.0900151208043 -0.326119631529 0.136911585927 0.102000586689
918 1 -0.181039839983 -0.410983562469 0.130664616823 0.106070093811
919 1 0.308427780867 0.109138146043 -0.00165031140205 0.0426820740104
920 1 0.0859139636159 -0.0144711164758 0.434365779161 0.215565040708
921 1 0.185696035624 0.00475338287652 0.182140216231 0.118991151452
922 1 0.097401663661 -0.302794724703 0.297265321016 0.199210673571
923 1 0.18147906661 0.137790516019 0.120511166751 0.135947778821
924 1 -0.00569801265374 0.420246690512 0.166972979903 -0.00773187400773
925 1 0.287675917149 0.187269806862 0.282787233591 0.233017906547
926 1 0.278487354517 0.0612612999976 0.234895944595 0.188011571765
927 1 -0.536223709583 -0.0813156813383 -0.45143827796 -0.361577451229
928 1 -0.00921028107405 0.286897838116 0.0344831012189 0.09892141819
929 1 -0.133052170277 0.255969196558 0.0207282546908 -0.0199573542923
930 1 -0.165492847562 -0.427712261677 0.268895834684 0.136791795492
931 1 -0.017245227471 0.0814692005515 0.201845481992 0.118229836226
932 1 -0.0689913406968 0.335975408554 0.0917149558663 0.0748479291797
933 1 0.293722212315 -0.242574945092 0.322253197432 0.237831756473
934 1 -0.212902918458 0.412517786026 -0.212809726596 -0.280944406986
935 1 -0.0379391722381 0.0728118047118 0.151763066649 0.0804782211781
936 1 -0.20332339406 -0.22718963027 0.152721017599 0.0881718993187
937 1 -0.0191276650876 -0.391131281853 0.123815998435 0.111547701061
938 1 0.254628658295 0.147534489632 -0.025763431564 -0.105219766498
939 1 0.331596255302 -0.210952624679 0.466833770275 0.289638966322
940 1 -0.0648065507412 0.00653139734641 0.187279894948 -0.0364410802722
941 1 0.053608443588 -0.0282540153712 0.334484696388 0.163768440485
942 1 0.0399680063128 -0.0440893173218 0.0291300807148 -0.0201227683574
943 1 -0.142716944218 0.253451436758 -0.174540638924 -0.103809542954
944 1 -0.1289960742 0.172826170921 0.239999338984 0.110561609268
945 1 0.213530391455 -0.29040569067 0.29051271081 0.196135744452
946 1 -0.0922949686646 0.0682153105736 -0.213690876961 -0.392411500216
947 1 -0.0322822071612 0.0574638135731 -0.142258256674 -0.0200485456735
948 1 0.184963986278 -0.0740696936846 0.0647322386503 0.0677649900317
949 1 -0.113785326481 -0.148081183434 -0.0110292900354 -0.106583341956
950 1 0.37558734417 0.401483178139 0.136994794011 0.13172134757
951 1 -0.0962673947215 -0.116006687284 0.149979442358 0.102151155472
952 1 -0.0174382962286 0.22991360724 -0.169307112694 -0.14861227572
953 1 -0.118422240019 -0.0758894234896 -0.289879113436 -0.447486639023
954 1 0.0941806063056 0.00400705635548 0.298498511314 0.112063020468
955 1 -0.138026937842 0.149595662951 -0.0162116326392 -0.0692516043782
956 1 0.047808278352 -0.0231109466404 0.142023518682 0.0146090574563
957 1 0.0511934496462 -0.124233841896 -0.0773179680109 -0.0338687486947
958 1 0.530484616756 -0.395027577877 0.261441290379 0.245601773262
959 1 -0.410887122154 0.371136188507 0.00552047556266 -0.0297186579555
960 1 -0.17998278141 -0.0118238544092 0.0632707774639 -0.0476316958666
961 1 -0.328793495893 -0.199149683118 -0.0924382805824 -0.162659391761
962 1 -0.130569592118 -0.151645988226 -0.00952729489654 -0.0187019370496
963 1 0.292645871639 0.370960563421 0.326078623533 0.23593378067
964 1 0.242537602782 -0.179868116975 0.161619961262 0.0683121159673
965 1 -0.167185425758 -0.000611394294538 0.0105491988361 -0.0534867830575
966 1 -0.232287198305 -0.00110528396908 0.16170103848 -0.0492476262152
967 1 0.131245329976 0.551299452782 0.401987373829 0.264386385679
968 1 -0.429529666901 -0.30128890276 -0.113873824477 -0.061087153852
969 1 -0.0321390107274 -0.192619338632 0.0842625498772 0.0582772530615
970 1 -0.0399052761495 -0.0877713859081 0.180755570531 0.0904876366258
971 1 0.226860299706 0.0120739685372 0.0792615637183 0.118694253266
972 1 0.148084282875 -0.070878058672 0.136307805777 0.157054483891
973 1 -0.197674483061 -0.0485036186874 -0.0955126881599 -0.136783361435
974 1 0.151944085956 -0.104025952518 -0.0374466218054 -0.0448621399701
975 1 0.0508620105684 -0.0410710833967 0.364279389381 0.146256193519
976 1 -0.0784502029419 -0.0951402634382 0.116491600871 0.0632395520806
977 1 0.247568711638 0.0585240237415 0.312310963869 0.175836995244
978 1 0.367399573326 0.165062204003 0.340258032084 0.235412105918
979 1 -0.348353177309 -0.327594727278 0.0742947086692 -0.000769816630054
980 1 0.264031201601 -0.00630102632567 0.241213321686 0.140273883939
981 1 0.30329528451 0.0476276539266 0.16661028564 0.110139600933
982 1 0.343056589365 -0.133095368743 0.336479574442 0.229402214289
983 1 -0.00587337836623 -0.202859356999 0.160706818104 0.0295468382537
984 1 -0.257283419371 -0.138012349606 -0.175274580717 -0.181170463562
985 1 -0.144082918763 0.0874046832323 0.0645978301764 -0.0551981367171
986 1 -0.27156740427 0.113403193653 -0.0148440403864 -0.130697116256
987 1 0.0621888116002 0.110235713422 0.0876313894987 0.0737876072526
988 1 0.0336497724056 -0.0411193743348 -0.0522212907672 -0.0587947368622
989 1 -0.242585897446 -0.294936358929 0.0402926951647 -0.0523140691221
990 1 0.215826302767 -0.350114047527 0.387613773346 0.274559110403
991 1 -0.500104963779 0.124668352306 -0.430442273617 -0.389599561691
992 1 -0.0279011167586 0.118783339858 0.0876484587789 0.0838479176164
993 1 0.408879160881 -0.0522308461368 0.395247548819 0.304765462875
994 1 0.262076348066 -0.00870026089251 0.180403530598 0.140651345253
995 1 0.463971823454 -0.0323214754462 0.483364343643 0.301084041595
996 1 -0.284419447184 0.528110682964 -0.001221475075 -0.173985719681
997 1 0.528849959373 -0.214087188244 0.296025753021 0.256385207176
998 1 0.381986051798 -0.345859974623 0.464915752411 0.305514067411
999 1 0.0641693994403 -0.248051658273 -0.0272163655609 -0.0180699881166
1000 1 -0.774800956249 -0.266843765974 0.149426862597 0.00552211888134
1001 1 -0.0326763913035 0.0133098019287 0.164476752281 0.0886045098305
1002 1 -0.184645444155 -0.160066306591 0.252459138632 -0.0261369012296
1003 1 0.0166579596698 0.199472263455 -0.0166959390044 -0.0351453758776
1004 1 -0.0797759518027 0.12902995944 0.346404731274 0.16748803854
1005 1 0.259178668261 0.109678149223 0.105437800288 0.127140760422
1006 1 -0.01210794691 -0.183127790689 0.225732445717 0.0214226711541
1007 1 -0.0381869487464 0.0406056083739 0.108394868672 -0.00482023600489
1008 1 -0.211831375957 0.426245838404 -0.11535449326 -0.258247196674
1009 1 -0.102172128856 -0.0999694392085 0.0366571620107 -0.0534019544721
1010 1 0.428083240986 -0.0673856884241 0.310324639082 0.254739612341
1011 1 -0.0863001272082 -0.519789218903 0.0889456346631 0.112879469991
1012 1 -0.083716198802 0.214947536588 0.331186264753 0.184387415648
1013 1 0.0661580339074 -0.167654693127 -0.0308817569166 0.0740993395448
1014 1 0.269343852997 0.245948657393 0.16987670958 0.11350081116
1015 1 0.297371298075 -0.667849481106 0.507904171944 0.314605265856
1016 1 0.112533569336 0.000198597321287 0.213349446654 0.182663336396
1017 1 -0.0649272203445 0.0897709876299 0.116835102439 0.0848276540637
1018 1 -0.27014669776 0.26663506031 -0.0101545518264 0.0268599875271
1019 1 -0.141098380089 -0.188057944179 0.234840467572 0.0543371066451
1020 1 0.188476264477 -0.312756001949 0.276779204607 0.19105681777
1021 1 -0.346584945917 -0.224349200726 0.161989063025 0.0876205340028
1022 1 -0.0877899900079 0.204643845558 0.0541670173407 0.0515505857766
1023 1 -0.224900633097 -0.232280015945 0.11178290844 0.0679622143507
1024 1 0.296965837479 -0.150249928236 0.110543332994 0.130147829652
1025 1 0.0126758757979 0.395727664232 0.11515814811 -0.145503416657
1026 1 0.165072903037 -0.0605370402336 0.165027201176 0.0360126644373
1027 1 0.226285904646 0.260361522436 0.383368074894 0.271946460009
1028 1 0.811408698559 -0.0694139450788 0.504976987839 0.42491877079
1029 1 -0.212619721889 -0.300689637661 0.107857219875 -0.0492073297501
1030 1 -0.32405847311 0.0138190584257 0.11385243386 0.0132666928694
1031 1 -0.216735363007 0.260583251715 -0.24357303977 -0.36945348978
1032 1 -0.111278623343 0.233480617404 -0.0600556097925 -0.0765084400773
1033 1 0.203067556024 0.16378903389 0.25885117054 0.170062497258
1034 1 0.177989304066 0.0200969912112 0.2695081532 0.188668981194
1035 1 -0.114724941552 0.182076230645 0.0255692265928 -0.0755753517151
1036 1 -0.212417021394 -0.0390933193266 -0.359233677387 -0.319525182247
1037 1 -0.278209030628 0.0269653927535 -0.026751248166 -0.158958867192
1038 1 0.332231760025 0.173583447933 0.200411751866 0.211726680398
1039 1 0.490938961506 0.0116613097489 0.476140201092 0.229107439518
1040 1 0.289495587349 0.0536004751921 0.224985718727 0.194199606776
1041 1 0.481885522604 -0.416455894709 0.610503315926 0.444407433271
1042 1 -0.112700924277 -0.553345441818 -0.0022028950043 -0.0298861898482
1043 1 -0.061535615474 -0.326995462179 0.161041781306 0.111780978739
1044 1 0.100838325918 -0.0628901645541 0.0122197484598 -0.0790998488665
1045 1 -0.0617383345962 -0.010794358328 -0.0838977769017 0.0413079001009
1046 1 0.375254303217 -0.630425632 0.279544264078 0.192649424076
1047 1 -0.285602003336 -0.267673462629 0.242670506239 0.110733382404
1048 1 -0.238097012043 -0.140982285142 0.0818388611078 -0.0283868964761
1049 1 0.231569603086 0.240724369884 -0.0395374819636 -0.109734602273
1050 1 0.190579131246 0.192070439458 0.24367967248 0.0983700528741
1051 1 -0.369515329599 -0.474078923464 -0.116472452879 -0.165433183312
1052 1 -0.283796817064 -0.0545312985778 -0.131283402443 -0.00857800804079
1053 1 -0.0735735595226 -0.196173161268 0.025983126834 -0.146830931306
1054 1 0.417470782995 -0.0708319544792 0.103182666004 0.171937137842
1055 1 -0.489460378885 0.320890843868 -0.17946909368 -0.231215402484
1056 1 -0.0202506929636 0.240046083927 0.0893958136439 -0.100914873183
1057 1 -0.0135093070567 0.399755656719 -0.00776499928907 0.0839009359479
1058 1 -0.65049892664 -0.00593224959448 -0.329820871353 -0.336908042431
1059 1 0.17211997509 0.154405102134 0.129431441426 0.0902776941657
1060 1 -0.225656822324 0.0200047921389 0.24768216908 0.103902801871
1061 1 -0.574026882648 0.216459959745 -0.119999185205 -0.149413883686
1062 1 0.292159974575 -0.274901837111 0.239980131388 0.197340279818
1063 1 0.172166630626 0.057564791292 0.287143886089 0.156539186835
1064 1 -0.157271251082 -0.114290133119 0.284479111433 0.0741671994328
1065 1 0.122032649815 -0.662451803684 0.0786705762148 0.0874975398183
1066 1 0.0149573273957 -0.360073119402 0.163324654102 0.0528335720301
1067 1 -0.0630849972367 0.257951319218 -0.0816853046417 -0.152001053095
1068 1 0.138166904449 -0.0283901076764 0.0546534620225 0.0722140967846
1069 1 0.523627400398 -0.109851703048 0.330046981573 0.295472830534
1070 1 0.276305675507 -0.0353880189359 0.201103016734 0.0345218554139
1071 1 -0.456324636936 -0.683759450912 0.0118783852085 -0.0259757284075
1072 1 -0.387715429068 -0.121729247272 -0.0288442447782 -0.05906829983
1073 1 -0.188744962215 -0.179145932198 -0.078982129693 0.0318943858147
1074 1 -0.177984505892 0.0545728951693 0.112713128328 0.0304481089115
1075 1 0.168519213796 0.0278719551861 0.101887613535 0.0419865064323
1076 1 0.129452988505 -0.171105355024 0.249766618013 0.188993439078
1077 1 0.226252108812 -0.587621569633 0.31783041358 0.159215420485
1078 1 -0.365550935268 -0.242410302162 0.187181740999 0.0950258076191
1079 1 0.17468136549 0.0198511425406 0.0467935465276 0.0694148540497
1080 1 -0.107077732682 0.464918762445 -0.0707680508494 -0.102920994163
1081 1 -0.0876274853945 -0.0824527069926 0.32211664319 0.153979569674
1082 1 0.035593342036 0.146897912025 0.21858087182 0.15244846046
1083 1 -0.028563991189 0.36695894599 -0.0132460333407 0.0895524397492
1084 1 -0.125287503004 -0.24103179574 0.201548919082 0.0361886806786
1085 1 0.417782902718 0.0537958405912 0.0525626055896 0.131687402725
1086 1 -0.220651477575 -0.0576153881848 -0.100865714252 -0.194420203567
1087 1 0.133526772261 -0.0145347751677 0.187732204795 0.0904367417097
1088 1 0.00165637535974 -0.0867704302073 0.446686893702 0.219950526953
1089 1 0.451419055462 0.172624230385 0.389964938164 0.265158295631
1090 1 -0.101275965571 -0.112720653415 0.0982307493687 -0.0951000750065
1091 1 -0.0447239913046 0.255387485027 0.0353535786271 -0.0655701756477
1092 1 -0.0669737681746 0.354018986225 0.118386171758 -0.0236196983606
1093 1 0.199322000146 0.386888086796 0.292744398117 0.139253854752
1094 1 0.443749308586 -0.102755002677 0.340290039778 0.268089026213
1095 1 -0.387668758631 0.191914588213 0.00668537989259 -0.0114154238254
1096 1 0.295911967754 -0.0708297714591 0.150083988905 0.135909602046
1097 1 -0.0127402534708 0.311860263348 0.163203045726 0.06269454211
1098 1 -0.122870907187 0.189216837287 -0.0929097831249 -0.0662721097469
1099 1 -0.0101498868316 0.100425899029 0.156584843993 0.0891919285059
1100 1 -0.257838457823 0.31889551878 -0.09445232898 -0.10791721195
1101 1 -0.18130530417 -0.060703869909 -0.200087502599 -0.252650827169
1102 1 -0.1883572191 0.125585883856 -0.0420955829322 -0.0593482255936
1103 1 -0.42086404562 0.0817216262221 0.180074974895 0.0632543936372
1104 1 -0.047150246799 0.205611884594 0.0917320251465 0.0628111809492
1105 1 -0.144708797336 -0.180427864194 0.330151498318 0.167392611504
1106 1 0.330465167761 -0.0298827551305 0.311233520508 0.150544136763
1107 1 0.785262107849 0.295322567225 0.353895545006 0.288691043854
1108 1 -0.0208009332418 -0.508221149445 0.0767183974385 0.00617739837617
1109 1 0.21382804215 -0.294121980667 0.27216437459 0.18286691606
1110 1 0.188814118505 -0.0385116189718 0.171583533287 0.142084896564
1111 1 -0.322436660528 -0.170589521527 -0.14099521935 -0.29536896944
1112 1 -0.393678069115 0.118508957326 -0.15732948482 -0.201621890068
1113 1 0.169751629233 -0.517521739006 0.0983928963542 0.140861302614
1114 1 -0.157296985388 -0.00055869971402 0.138923510909 0.0131521783769
1115 1 -0.172818258405 0.227665826678 0.131910607219 -0.0243958570063
1116 1 -0.0193416550756 -0.184515103698 0.106423489749 0.0337732732296
1117 1 -0.444785445929 -0.0345472991467 0.0300218984485 -0.0198725331575
1118 1 -0.364781856537 -0.374264270067 0.015059470199 -0.0469467304647
1119 1 0.0930656194687 -0.139724507928 0.383308321238 0.200682401657
1120 1 -0.212663188577 -0.150917217135 -0.0980729237199 -0.172119572759
1121 1 0.29587495327 0.0401644036174 -0.0186161138117 -0.00257447897457
1122 1 0.43536683917 -0.38833039999 0.250231742859 0.235588118434
1123 1 0.0238128304482 0.130913347006 0.126380503178 -0.048554174602
1124 1 0.00733747845516 0.00704065710306 0.371623009443 0.159043654799
1125 1 0.311378508806 -0.176094770432 0.246466055512 0.156346201897
1126 1 -0.0923657566309 0.223784938455 0.146508187056 0.0518156662583
1127 1 -0.108921550214 -0.19072496891 0.0315964370966 -0.130478695035
1128 1 0.130925133824 0.0522373318672 0.0794450417161 0.021927382797
1129 1 -0.259728968143 -0.359956771135 -0.0102740256116 0.0503693893552
1130 1 -0.187362924218 0.1864554286 -0.255275458097 -0.056987952441
1131 1 -0.254163682461 -0.0887394174933 0.0734647661448 0.0704942569137
1132 1 -0.0157103184611 -0.187520161271 0.0853954479098 0.0347614884377
1133 1 -0.397660166025 -0.319907575846 0.24660474062 0.0999054014683
1134 1 -0.147114127874 -0.178287640214 0.0150872049853 0.0101133026183
1135 1 0.0860346406698 0.124901033938 -0.0136919356883 -0.142224907875
1136 1 0.134755983949 0.0329360105097 0.236813977361 0.111015424132
1137 1 -0.194593384862 0.317277759314 -0.069042019546 -0.0439290553331
1138 1 -0.179466307163 -0.145313173532 -0.183428928256 -0.180627569556
1139 1 0.05559867993 -0.0773820728064 0.10929095 0.124602355063
1140 1 -0.00569317908958 -0.354253977537 0.384611934423 0.175166875124
1141 1 -0.248299196362 -0.169024422765 -0.253024578094 -0.18873052299
1142 1 0.234978914261 0.00354828359559 0.455931454897 0.26108032465
1143 1 0.0341871529818 -0.293851971626 0.71587818861 0.388971805573
1144 1 -0.113959096372 -0.242807611823 -0.071926549077 -0.145957231522
1145 1 0.0511870123446 0.189060986042 0.187299087644 -0.000875847239513
1146 1 0.140305176377 0.194491609931 0.267577290535 0.183666393161
1147 1 -0.0859011188149 0.0435733497143 0.323147147894 0.141567468643
1148 1 0.0108095249161 -0.33777987957 0.184310019016 0.106237627566
1149 1 -0.355321407318 0.112393461168 0.00899385660887 0.0035838552285
1150 1 -0.560035705566 0.0644770786166 -0.283096641302 -0.257405281067
1151 1 -0.0477809421718 0.153667539358 0.173224210739 0.103164814413
1152 1 0.0812448784709 -0.190152063966 0.1756927073 0.163166180253
1153 1 -0.112485319376 -0.185617014766 0.0446088165045 0.0363159179688
1154 1 -0.156378298998 -0.438198149204 0.223037809134 0.041083112359
1155 1 -0.127100750804 -0.309375554323 0.0833067297935 0.102456524968
1156 1 -0.266528248787 0.171757161617 0.173290356994 -0.0648025050759
1157 1 0.101295247674 0.158307939768 0.246276170015 0.153076186776
1158 1 0.110123410821 0.186503723264 -0.0894684121013 0.0525218397379
1159 1 0.0104829110205 0.32320445776 -0.038152821362 -0.0421774126589
1160 1 -0.0216842424124 -0.490645170212 0.344755500555 0.107450626791
1161 1 -0.0911043584347 -0.363438159227 0.339208334684 0.11119992286
1162 1 -0.227650299668 0.0396222136915 0.03409479931 -0.0449130348861
1163 1 0.141872242093 -0.349703580141 0.149569809437 0.165238037705
1164 1 0.592939734459 0.0917487442493 0.542849242687 0.409285396338
1165 1 -0.0396784171462 -0.014484285377 0.0682888329029 0.00754733011127
1166 1 0.255759716034 0.117964573205 0.369523614645 0.261553198099
1167 1 0.534516632557 -0.0941963642836 0.244313329458 0.270576536655
1168 1 -0.233080387115 0.186892256141 -0.0843415409327 -0.175272956491
1169 1 0.0527750141919 -0.233625590801 0.199355646968 0.0369393862784
1170 1 -0.0979921594262 0.000964680046309 0.216329991817 0.101478911936
1171 1 0.0965730771422 -0.0290179029107 0.265699803829 0.151307567954
1172 1 -0.311825841665 -0.0252423752099 -0.346624553204 -0.22942982614
1173 1 0.722763597965 -0.0976689606905 0.346780240536 0.332923322916
1174 1 0.0889837890863 -0.015858406201 -0.117959536612 0.0622513331473
1175 1 -0.0346376597881 -0.388238191605 0.116800963879 0.121714040637
1176 1 0.0607954934239 0.0805845931172 0.0736973211169 0.0817866548896
1177 1 -0.204633057117 -0.437811851501 -0.0198812969029 -0.264388561249
1178 1 0.074373178184 0.266242146492 0.314879745245 0.124485723674
1179 1 0.216661348939 -0.375776737928 -0.0236427001655 0.121491380036
1180 1 0.130812510848 -0.622358679771 0.178016111255 0.0638312026858
1181 1 0.0659569129348 0.0440628565848 0.150363475084 0.112548649311
1182 1 -0.0111039783806 -0.102585971355 0.0900977402925 -0.0349566340446
1183 1 -0.191797077656 -0.32552036643 0.120302081108 0.108351901174
1184 1 -0.0356545075774 -0.0114836134017 0.159057602286 0.0952336266637
1185 1 0.0689816847444 -0.108148299158 0.175824984908 0.0906997025013
1186 1 0.405188292265 -0.0104190129787 0.316326260567 0.230267435312
1187 1 -0.0895598009229 0.0790019333363 -0.15608137846 -0.0638503432274
1188 1 -0.393274217844 -0.468220233917 0.0440732985735 -0.136293485761
1189 1 -0.49084725976 -0.162869423628 -0.0484620220959 -0.120344161987
1190 1 0.181017294526 0.0987773910165 0.253702968359 0.107999876142
1191 1 0.00216157687828 0.339707046747 0.1031165272 0.0284589510411
1192 1 -0.235324829817 -0.239864006639 -0.0912136286497 -0.180899009109
1193 1 -0.400487035513 -0.062264546752 -0.13958068192 -0.0219274293631
1194 1 -0.0450361222029 0.0576547831297 0.234923675656 0.160875886679
1195 1 0.0616707466543 -0.330808311701 0.15378138423 0.0910453647375
1196 1 0.441067218781 0.109748393297 0.181203603745 0.105124287307
1197 1 -0.628258764744 -0.318351238966 -0.196654677391 -0.1411370188
1198 1 0.330740302801 -0.199129939079 0.403203487396 0.285535514355
1199 1 -0.200733020902 0.0794409438968 -0.0481419935822 -0.0317905247211
1200 1 0.155417755246 0.1587754637 0.229504525661 0.133000090718
1201 1 -0.0102946916595 -0.115306451917 0.0660464987159 0.0654301717877
1202 1 0.0108658466488 0.432967185974 0.103709645569 0.0667746514082
1203 1 0.0182395242155 -0.418593913317 0.21518214047 0.0972482413054
1204 1 -0.314696133137 0.302364379168 -0.243803471327 -0.160290628672
1205 1 0.572067201138 -0.0840397328138 0.688044190407 0.462070226669
1206 0.633797764778 -0.0960872024298 -0.32133436203 0.245744928718 0.167112693191
1207 1 -0.169524788857 0.0908707231283 -0.151479363441 -0.231342643499
1208 1 -0.388585835695 -0.0753845572472 -0.349477022886 -0.292658776045
1209 1 -0.229138538241 0.198315441608 -0.121027544141 -0.19494612515
1210 1 -0.486104160547 -0.683568477631 0.143858358264 0.0402242541313
1211 1 0.252936065197 -0.252975225449 0.152006283402 0.141684100032
1212 1 -0.134014293551 -0.0493618957698 -0.130942031741 -0.132883504033
1213 1 0.201968669891 -0.0977348461747 0.132866427302 0.114709578454
1214 1 0.281703591347 0.283704012632 0.322274535894 0.201600626111
1215 1 -0.110752508044 -0.365593731403 0.107810281217 -0.00343757891096
1216 1 -0.375814199448 -0.393956363201 -0.00413373904303 -0.118651889265
1217 1 0.00897214002907 0.175231993198 0.0368726477027 -0.095910154283
1218 1 -0.0874746441841 -0.253965198994 0.0975352153182 0.0520701445639
1219 1 -0.270231992006 0.170896723866 -0.212528094649 -0.125809043646
1220 1 0.299047768116 -0.403043985367 0.400903552771 0.300163686275
1221 1 -0.265619218349 -0.0503694303334 0.0302267149091 -0.0715461373329
1222 1 0.143949374557 0.563938736916 0.210810557008 0.134465441108
1223 1 0.289119124413 -0.311326980591 0.256489366293 0.206316947937
1224 1 0.190947547555 0.220024764538 0.115006670356 0.129414081573
1225 1 -0.0195604674518 -0.166023746133 0.282322108746 0.172779038548
1226 1 0.0658555552363 0.217550903559 0.0701898038387 0.0999647751451
1227 1 0.24058277905 -0.315881788731 0.298950821161 0.220932379365
1228 1 0.312285959721 -0.253682017326 0.355111658573 0.249179288745
1229 1 0.177662700415 0.184010103345 0.166497200727 0.112052410841
1230 1 -0.33060836792 -0.642744362354 0.0752782672644 0.085188165307
1231 1 -0.505963087082 0.353367060423 -0.0729783847928 -0.151687204838
1232 1 0.18651497364 0.447735697031 0.342453449965 0.254514843225
1233 1 -0.382085800171 -0.602638065815 -0.0800616815686 -0.0939824953675
1234 1 0.430614084005 0.0689440816641 0.497594982386 0.332117497921
1235 1 -0.498616755009 -0.427189856768 -0.0474656634033 -0.245324015617
1236 1 0.0587392896414 0.0409941449761 0.290007084608 0.180396363139
1237 1 -0.393272608519 0.0628505274653 -0.116995170712 -0.150018259883
1238 1 0.083132147789 -0.164950355887 -0.00638887472451 -0.0256873220205
1239 1 -0.391969382763 -0.150234535336 0.058517280966 -0.121258154511
1240 1 -0.000858364743181 -0.314577907324 0.315669119358 0.176784917712
1241 1 0.210981845856 0.168844312429 0.093852750957 0.0919954106212
1242 1 -0.374906808138 0.112329818308 -0.0291514694691 -0.0713001415133
1243 1 0.340339124203 -0.436843812466 0.258520483971 0.181709036231
1244 1 0.117814056575 0.0816579759121 0.17988935113 0.0417871661484
1245 1 0.0596740655601 -0.204808592796 0.00108060461935 0.0525854602456
1246 1 0.183528825641 -0.35174715519 0.0360277742147 0.0447772666812
1247 1 0.18608379364 0.3073823452 0.124599002302 0.0890795364976
1248 1 -0.591644585133 -0.283987253904 0.0128534017131 -0.0293008945882
1249 1 0.289204359055 -0.00436937669292 0.287222802639 0.213353216648
1250 1 -0.254342287779 0.129405334592 -0.108288250864 -0.000714680994861
1251 1 0.239839464426 0.158724993467 -0.0923187956214 -0.0281154531986
1252 1 0.0826092362404 -0.0617355518043 -0.117825120687 -0.111284799874
1253 1 -0.184355825186 -0.257194131613 0.142019256949 0.0589134469628
1254 1 -0.533819973469 0.00577189587057 -0.0376919768751 -0.0716203600168
1255 1 -0.396891087294 -0.36404183507 0.14643779397 0.00916961953044
1256 1 -0.0631268322468 -0.408874094486 0.278170257807 0.158123284578
1257 1 -0.205921798944 0.0815240740776 -0.147604882717 -0.29916703701
1258 1 -0.123968191445 -0.154370084405 0.0945461466908 0.0581881888211
1259 1 -0.0762588530779 -0.521771371365 0.101326495409 0.126349762082
1260 1 0.203678950667 0.264077782631 0.329283177853 0.082713380456
1261 1 -0.106632068753 -0.436189681292 0.12389280647 0.122354477644
1262 1 -0.240198254585 0.426068037748 -0.116026550531 0.00149290636182
1263 1 0.0622596144676 0.0172785036266 0.155518069863 0.110559485853
1264 1 -0.355366438627 0.0723201185465 0.0355157256126 -0.00205068080686
1265 1 -0.046736754477 0.0797219052911 0.0915677398443 -0.00115577247925
1266 1 0.00795369502157 -0.123595073819 -0.0871620625257 -0.0827982500196
1267 1 0.115164145827 -0.139875978231 0.306680589914 0.0842063054442
1268 1 0.254281133413 0.419926196337 0.369064927101 0.18273755908
1269 1 0.311293244362 0.30992859602 0.0291599519551 -0.0430935285985
1270 1 -0.446420103312 -0.0522879436612 -0.0883482992649 -0.157417163253
1271 1 -0.192978039384 -0.260418713093 0.157229170203 0.0979947000742
1272 1 -0.191225901246 0.23969706893 -0.316285789013 -0.150732919574
1273 1 -0.0419679135084 -0.868293106556 0.17712430656 0.175890013576
1274 1 0.0710266083479 -0.234446555376 0.0200348589569 -0.0870776921511
1275 1 -0.3392547369 0.0301219113171 -0.0247115995735 -0.0149993048981
1276 1 0.207966715097 0.0525446347892 0.184945806861 0.0637336596847
1277 1 0.110292337835 -5.82289612794e-05 0.0465460568666 -0.00866283476353
1278 1 -0.000647597538773 -0.0192102901638 0.102898903191 0.074869133532
1279 1 0.144193917513 -0.207899272442 0.179253563285 0.128075957298
1280 1 -0.507940471172 -0.683717787266 -0.254334568977 -0.206537529826
1281 1 -0.104942694306 0.0710359811783 0.0748707577586 -0.0239335540682
1282 1 -0.0171374324709 0.0942335724831 -0.001368684927 0.0055730137974
1283 1 -0.229510203004 -0.310738712549 0.0281763952225 0.0160786602646
1284 1 -0.234375566244 -0.0883508846164 0.202628478408 0.0538896508515
1285 1 0.0397282801569 -0.279166907072 -0.00129187537823 0.0925107300282
1286 1 -0.149155855179 0.046653047204 -0.0239392686635 -0.0861827805638
1287 1 -0.540810704231 -0.125908687711 0.0141121884808 -0.209591254592
1288 1 0.28245010972 -0.250183075666 0.0782566666603 0.0705833211541
1289 1 -0.0793174132705 -0.204334452748 0.291739493608 0.161507844925
1290 1 0.488123357296 0.265596807003 0.141989380121 0.191788434982
1291 1 0.272920489311 -0.0898040086031 0.198101133108 0.190098285675
1292 1 0.33901014924 -0.404088795185 0.272744715214 0.119338929653
1293 1 0.211952015758 0.011033501476 0.259437888861 0.209181919694
1294 1 -0.0535762794316 -0.20668977499 0.0720566436648 -0.0217577815056
1295 1 -0.107254721224 -0.00934121478349 -0.271626800299 -0.310461550951
1296 1 -0.172518983483 -0.0494453087449 0.193859681487 -0.00982494372874
1297 1 0.144271165133 0.404352158308 0.124462462962 0.0511285811663
1298 1 0.275438457727 0.280990898609 0.206453889608 0.0886342003942
1299 1 -0.283697068691 0.337233185768 -0.0100628128275 0.0249153617769
1300 1 0.41243326664 -0.118190802634 0.672535598278 0.44355070591
1301 1 -0.564788460732 -0.253484457731 -0.155961886048 -0.290784150362
1302 1 -0.183990597725 0.271413773298 -0.147918507457 -0.103166989982
1303 1 -0.146602496505 0.17394348979 -0.0329790152609 -0.182290136814
1304 1 -0.0120870275423 -0.0702283158898 -0.0287012960762 -0.038850132376
1305 1 -0.176990181208 0.230442598462 -0.0778300240636 -0.172569140792
1306 1 -0.191409319639 -0.364625692368 0.21010223031 0.121608011425
1307 1 -0.0517083369195 -0.9294962883 0.295185148716 0.223721027374
1308 1 0.152359202504 0.0259402859956 0.0981838107109 0.0969725549221
1309 1 -0.182195037603 -0.206274911761 -0.0945974066854 -0.178254559636
1310 1 -0.178238719702 -0.380000054836 0.19541503489 0.107751764357
1311 1 -0.0259527117014 0.0538902245462 0.352743417025 0.162748411298
1312 1 0.11137997359 -0.106743454933 0.10217563808 0.0771763846278
1313 1 -0.368720501661 0.146715700626 0.121752880514 -0.0243979729712
1314 1 -0.175542160869 -0.188382834196 -0.0449353083968 -0.0432271249592
1315 1 0.042569629848 -0.293373465538 -0.0433010198176 -0.0543371550739
1316 1 0.108789615333 -0.0440300516784 0.416979640722 0.205354169011
1317 1 -0.0289163440466 -0.150186255574 0.293446332216 0.123834684491
1318 1 -0.125818446279 0.401213169098 -0.13667267561 -0.165193557739
1319 1 -0.0455461516976 -0.377934455872 -0.0430471301079 -0.108888469636
1320 1 -0.00414699688554 -0.336814045906 -0.16160081327 -0.264199823141
1321 1 -0.0521636418998 0.173462748528 0.351994544268 0.203988477588
1322 1 -0.0983879491687 -0.127829372883 -0.160736754537 -0.259998828173
1323 1 -0.310078531504 0.143603101373 0.0239242762327 0.00570025434718
1324 1 0.0734737962484 -0.0126843200997 0.261067897081 0.182044103742
1325 1 -0.0489570647478 -0.247472152114 0.449332475662 0.239854842424
1326 1 -0.166639983654 0.0367027521133 -0.125294595957 -0.11852889508
1327 1 -0.201498880982 -0.538377165794 -0.0173253323883 0.0711622536182
1328 1 -0.322653859854 0.291112393141 -0.0864302590489 0.00805840361863
1329 1 -0.195423588157 -0.304860293865 0.258108705282 0.120710983872
1330 1 0.489449083805 0.0304731167853 0.038509067148 -0.0891516879201
1331 1 -0.182552233338 0.0389944203198 -0.0309415012598 -0.0993413552642
1332 1 0.318982303143 -0.341726660728 0.323561042547 0.188569307327
1333 1 0.0895018577576 0.0285919364542 0.0503117330372 0.0834259092808
1334 1 -0.104416571558 -0.134491443634 0.0267896018922 0.00146745890379
1335 1 -0.0451439246535 -0.0329866036773 0.0544315762818 0.0407841019332
1336 1 0.194070473313 -0.514082014561 0.290376156569 0.129333496094
1337 1 0.184523135424 0.0352496169508 0.229344502091 0.0493260361254
1338 1 0.211232855916 0.0209311172366 0.210317716002 0.0622237622738
1339 1 0.00383003079332 0.0512802787125 0.1776086092 0.0319686084986
1340 1 -0.16467551887 -0.255679547787 0.199142307043 0.0935265123844
1341 1 -0.103658780456 -0.103024989367 -0.0525562651455 -0.00461241230369
1342 1 0.297837823629 -0.0491753332317 0.291705369949 0.239284396172
1343 1 0.215346857905 0.130458980799 0.151703327894 0.101964533329
1344 1 0.139960855246 0.110635206103 0.016307586804 0.117833279073
1345 1 -0.0125230420381 -0.330505400896 0.132550656796 0.081506729126
1346 1 0.00641234638169 -0.161117747426 -0.0919603705406 -0.0444274060428
1347 1 -0.219848632812 0.0611098371446 0.135812819004 0.0444528087974
1348 1 -0.0031124651432 0.205420911312 0.0625837817788 0.0917663872242
1349 1 0.12994530797 0.352772176266 0.385638147593 0.224369943142
1350 1 -0.173822209239 0.149740532041 0.21631719172 0.0487365014851
1351 1 -0.0865736454725 0.163451001048 0.0341801345348 0.0579570382833
1352 1 0.224559545517 -0.461176246405 0.00647629005834 0.0377155393362
1353 1 -0.0513398759067 -0.0442012660205 0.0732514113188 0.067614428699
1354 1 -0.115503653884 0.112790770829 0.221217900515 0.0773905739188
1355 1 -0.0430635884404 -0.116963736713 0.0264909099787 0.0168208833784
1356 1 0.0828779265285 -0.366634219885 0.352312445641 0.193843349814
1357 1 -0.597005486488 -0.190836921334 0.0172698050737 -0.0967456996441
1358 1 -0.274162590504 -0.0854467898607 -0.215145930648 -0.105380937457
1359 1 -0.220683664083 0.107261367142 0.126115947962 0.0334127619863
1360 1 -0.150014996529 0.232944995165 0.151212617755 0.0343649312854
1361 1 -0.334883272648 0.293406277895 -0.0377111807466 -0.0730327069759
1362 1 -0.0992068871856 -0.293678551912 0.194145575166 -0.0423152521253
1363 1 -0.0686550885439 0.0302953217179 -0.108796030283 -0.0437127538025
1364 1 0.0987129360437 0.0585920847952 -0.149121820927 -0.0834938138723
1365 1 -0.0114321978763 -0.606782376766 0.207279577851 0.159726500511
1366 1 -0.0702624022961 -0.522098481655 -0.0818453207612 0.0417405106127
1367 1 0.128547161818 -0.247698232532 0.212169617414 0.118976302445
1368 1 0.000790784601122 -0.591361999512 0.152292177081 0.0626797005534
1369 1 0.24041223526 0.144127696753 0.0510627403855 0.104142434895
1370 1 0.0893731489778 -0.00718783866614 0.263568401337 0.150363877416
1371 1 0.143593788147 0.193187743425 0.0375553816557 0.0841532871127
1372 1 -0.125937506557 -0.310497254133 -0.0167684759945 -0.0108449719846
1373 1 -0.260768294334 -0.0762033164501 -0.141558483243 -0.140695944428
1374 1 0.185091078281 0.154751896858 -0.103600896895 -0.18191690743
1375 1 0.026556039229 0.0603876560926 0.256357073784 0.136289194226
1376 1 0.139289930463 -0.0377630926669 -0.0388547517359 -0.0751703158021
1377 1 -0.221422165632 -0.302772760391 0.00220283772796 -0.0752848237753
1378 1 -0.138071998954 0.069176748395 0.00815751031041 -0.0536055341363
1379 1 -0.125866726041 -0.357647538185 0.190377771854 -0.0134809250012
1380 1 0.10217051208 0.422472506762 0.111317798495 0.157894268632
1381 1 -0.0180947352201 0.502498447895 0.15282343328 0.12504132092
1382 1 0.0363141447306 -0.0894330590963 0.231755390763 0.0926570519805
1383 1 -0.0407982282341 -0.0698178336024 0.461374074221 0.208916842937
1384 1 0.129465863109 0.247008889914 0.123798929155 0.113562308252
1385 1 -0.0714980512857 -0.144167363644 -0.0261709298939 -0.0358791127801
1386 1 0.113942988217 0.153564363718 0.186324059963 0.0921035632491
1387 1 0.267773538828 0.111636161804 0.00525805167854 0.0730729550123
1388 1 0.281642436981 -0.248146042228 0.387750327587 0.28031027317
1389 1 0.217399820685 -0.0865816399455 0.0422149971128 0.121752217412
1390 1 -0.127131327987 0.042458254844 0.0819860771298 0.043731790036
1391 -1 -0.021795257926 -0.160279229283 0.0803923308849 -0.0368015915155
1392 -1 0.127522274852 0.34335526824 0.0668657720089 -0.039068557322
1393 -1 0.218324959278 -0.0626706629992 0.367496758699 0.132628977299
1394 -1 -0.163473635912 -0.236417725682 0.251554518938 0.110059015453
1395 -1 -0.333695888519 0.153803616762 -0.201664179564 -0.192889094353
1396 -1 0.327876389027 -0.0315268784761 0.385072767735 0.205464437604
1397 -1 0.187919571996 0.290710687637 0.0776336789131 0.0487895160913
1398 -1 0.0622483454645 0.321088403463 0.193112954497 0.0692685246468
1399 -1 -0.46066391468 0.340475320816 -0.00687745492905 -0.171848118305
1400 -1 -0.0510567128658 -0.377063035965 -0.0612354502082 -0.0912362784147
1401 -1 0.13173443079 -0.0942819863558 -0.0956556349993 -0.0850249230862
1402 -1 0.165422022343 -0.405750513077 0.108731970191 0.0803615897894
1403 -1 0.0319153554738 -0.149139210582 -0.0643973350525 -0.0175271071494
1404 -1 -0.0941098332405 0.0716484189034 0.0685299187899 -0.0133155155927
1405 -1 -0.195177435875 -0.360046774149 0.077012822032 0.101025089622
1406 -1 -0.0506995357573 0.388659507036 0.0738829374313 -0.0123972799629
1407 -1 0.516567468643 -0.146860703826 0.37773129344 0.39647886157
1408 -1 0.546763718128 0.0357742346823 0.24070340395 0.355701118708
1409 -1 -0.0470826737583 -0.235686779022 0.450072795153 0.178746521473
