#GEN -*-*-*-*-*-*-*-*-*-*-*- general info -*-*-*-*-*-*-*-*-*-*-*-

Method         : Cuts::CutsGA
TMVA Release   : 3.9.7         [198919]
ROOT Release   : 5.22/00       [333312]
Creator        : stelzer
Date           : Sat Sep 26 15:25:00 2009
Host           : Linux rabenstein2 2.6.24-23-generic #1 SMP Mon Jan 26 00:13:11 UTC 2009 i686 GNU/Linux
Dir            : /home/stelzer/TMVA397/macros
Training events: 6000


#OPT -*-*-*-*-*-*-*-*-*-*-*-*- options -*-*-*-*-*-*-*-*-*-*-*-*-

# Set by User:
V: "False" [Verbose mode]
H: "False" [Print classifier-specific help message]
FitMethod: "GA" [Minimization Method (GA, SA, and MC are the primary methods to be used; the others have been introduced for testing purposes and are depreciated)]
EffMethod: "EffSel" [Selection Method]
# Default:
D: "False" [Use-decorrelated-variables flag (depreciated)]
Normalise: "False" [Normalise input variables]
VarTransform: "None" [Variable transformation method]
VarTransformType: "Signal" [Use signal or background events to derive for variable transformation (the transformation is applied on both types of, course)]
NbinsMVAPdf: "60" [Number of bins used for the PDFs of classifier outputs]
NsmoothMVAPdf: "2" [Number of smoothing iterations for classifier PDFs]
VerboseLevel: "Default" [Verbosity level]
CreateMVAPdfs: "False" [Create PDFs for classifier outputs (signal and background)]
TxtWeightFilesOnly: "True" [If True: write all training results (weights) as text files (False: some are written in ROOT format)]
CutRangeMin[0]: "-1" [Minimum of allowed cut range (set per variable)]
    CutRangeMin[1]: "-1"
    CutRangeMin[2]: "-1"
    CutRangeMin[3]: "-1"
CutRangeMax[0]: "-1" [Maximum of allowed cut range (set per variable)]
    CutRangeMax[1]: "-1"
    CutRangeMax[2]: "-1"
    CutRangeMax[3]: "-1"
VarProp[0]: "NotEnforced" [Categorisation of cuts]
    VarProp[1]: "FMax"
    VarProp[2]: "NotEnforced"
    VarProp[3]: "NotEnforced"
##


#VAR -*-*-*-*-*-*-*-*-*-*-*-* variables *-*-*-*-*-*-*-*-*-*-*-*-

NVar 4
var1+var2                     var1_P_var2                       'F'    [-6.05220985413,6.37847995758]
var1-var2                     var1_M_var2                       'F'    [-4.34529972076,4.76599025726]
var3                          var3                              'F'    [-5.18697977066,4.18717002869]
var4                          var4                              'F'    [-4.88857984543,4.54254007339]


#MAT -*-*-*-*-*-*-*-*-* transformation data -*-*-*-*-*-*-*-*-*-


#WGT -*-*-*-*-*-*-*-*-*-*-*-*- weights -*-*-*-*-*-*-*-*-*-*-*-*-

OptimisationMethod nbins:
Fit-EventSelection  100
Below are the optimised cuts for 4 variables:
Format: ibin(hist) effS effB cutMin[ivar=0] cutMax[ivar=0] ... cutMin[ivar=n-1] cutMax[ivar=n-1]
1     0         0         -4.29231083824  -4.23247895416  -2.98001569038  1e+30       -4.11832198531  -2.33539125255  1.46954229937  3.49072458581  
2     0.01      0         -2.66732852659  6.59359190173  -2.1452275709  1e+30       2.8047708097  4.46474679761  0.367517028807  9.66605324284  
3     0.02      0         -3.77921128673  5.51930707171  -2.55040668685  1e+30       -2.23821717707  3.57678814257  2.60935633775  10.7736617491  
4     0.03      0         -3.92572757534  8.52506181717  -4.20409699393  1e+30       -1.9231918691  5.13443918018  2.65227442705  6.34569188408  
5     0.04      0.000333333329763  -2.43835705305  4.90226883887  -3.55025779879  1e+30       -2.66012877675  4.24946629875  2.48266497489  8.81216796576  
6     0.05      0.000333333329763  -0.887655181746  5.83542664543  -1.76483176929  1e+30       -4.18806168431  1.72386266395  1.75553111782  10.4285547011  
7     0.06      0.000666666659527  -2.4112007998  2.4234850543  -4.37667332807  1e+30       1.278715172  9.01309101414  1.90777579531  8.52767744225  
8     0.07      0.0010000000475  -4.66617593285  4.41373875469  -4.35029714023  1e+30       -1.68918596454  6.5887524749  2.15381110939  10.977994406  
9     0.08      0.0010000000475  -4.71575542318  2.76180325224  -1.56834763245  1e+30       -3.06984571118  4.59824327459  1.75314113456  10.8015611255  
10    0.09      0.00166666670702  -4.32425037417  3.49098400491  -3.53116346202  1e+30       1.01383611233  7.11673291005  1.91726502999  8.07143411093  
11    0.1       0.00200000009499  -5.08915180898  2.8888874113  -2.30597333212  1e+30       0.564413190153  8.34231113444  1.75716245609  9.86567454251  
12    0.11      0.00266666663811  -3.96346138754  4.27897024644  -4.01504984546  1e+30       -2.76265238344  6.09700110079  1.90720787422  9.7572689052  
13    0.12      0.00300000002608  -4.67362103961  3.00556517957  -1.50665395956  1e+30       0.50112234843  9.91417833832  1.60136673758  6.34927102885  
14    0.13      0.00366666656919  -3.99362114013  2.60839978476  -4.43569565422  1e+30       0.582780044481  7.94119709309  1.59866373739  8.95188686613  
15    0.14      0.00466666650027  -3.91857386368  7.68606296701  -1.756770376  1e+30       -3.7422456334  3.84301385645  1.74494574154  9.56585971684  
16    0.15      0.00466666650027  -1.83299834832  2.89016693253  -3.07721751851  1e+30       -1.49324397075  4.57724483749  1.57500936796  7.61422365075  
17    0.16      0.00499999988824  -4.33847729881  2.99076747768  -2.40398265408  1e+30       -0.590749462686  6.93646476663  1.54353371218  4.56929609649  
18    0.17      0.00633333344012  -3.57155389391  2.5221069371  -4.21763847526  1e+30       -3.37891685311  5.63377254929  1.43462601297  8.62769541332  
19    0.18      0.00600000005215  -2.85816959621  3.01919236156  -3.08949427247  1e+30       0.758974294881  5.533017138  1.49873357708  9.3676110188  
20    0.19      0.00700000021607  -3.91857386368  6.68834469302  -1.74204340823  1e+30       -3.24946212876  5.98130363048  1.55773827809  9.38373649875  
21    0.2       0.00833333376795  -4.70091915523  3.50306244133  -4.36130171155  1e+30       -3.06984571118  5.19592080628  1.52047043842  8.80995739032  
22    0.21      0.00899999961257  -1.31092473186  10.2276062135  -2.85262447927  1e+30       -1.00286521653  6.56893885844  1.58345966704  7.53969509163  
23    0.22      0.00933333300054  -5.19813583797  4.287078004  -4.37600874631  1e+30       -2.70585465624  6.60525347347  1.53429117257  6.44384824448  
24    0.23      0.0103333331645  -3.91857386368  8.66495366267  -4.27417115244  1e+30       -1.08599790195  5.97188314242  1.53514810663  9.33005337776  
25    0.24      0.0113333333284  -2.85816959621  6.12497039478  -3.79303703576  1e+30       0.537875676949  5.31191852007  1.49873357708  10.0072584588  
26    0.25      0.0120000001043  -5.04032666728  6.52290314801  -4.22634488363  1e+30       0.346224707932  8.29276941351  1.46113411246  10.1341576958  
27    0.26      0.0130000002682  -4.79055785233  7.37965900959  -4.36130171155  1e+30       -2.41665718359  6.83263369346  1.43937004014  5.22949182088  
28    0.27      0.0143333328888  -3.91857386368  6.46556013094  -4.42956303795  1e+30       -1.97387030773  5.10006274077  1.41587729256  10.6184256923  
29    0.28      0.0146666662768  -4.68840672239  5.59498856122  -2.4651398912  1e+30       -0.656582135241  4.82493968547  1.36120392302  9.43502651829  
30    0.29      0.01600000076  -4.71575542318  6.98846574233  -4.36038068348  1e+30       -3.09113498031  5.14759264251  1.36341308063  10.0364366639  
31    0.3       0.0173333324492  -5.41744856478  6.14328872088  -4.37265063855  1e+30       -4.22564130544  4.99858923934  1.32789819533  9.95251365175  
32    0.31      0.0189999993891  -4.68063353051  4.04303222225  -4.37649014469  1e+30       -2.70546850054  4.88226772087  1.24906721121  9.28374538382  
33    0.32      0.019666666165  -5.04032666728  6.60161452365  -4.42551220889  1e+30       -3.04229960369  6.26908298147  1.27275056328  9.94577414658  
34    0.33      0.0209999997169  -6.06683128526  5.47004454361  -3.83663407465  1e+30       -0.0551504041363  5.04718855395  1.23354491871  9.83376278927  
35    0.34      0.0233333334327  -4.86154773565  6.662605727  -4.36130171155  1e+30       -3.06984571118  5.78161515529  1.20549365298  10.6326168646  
36    0.35      0.0263333339244  -2.30019379097  5.84178795664  -4.37412833775  1e+30       -0.399661770517  4.009915423  1.15944347044  8.95434874157  
37    0.36      0.0286666657776  -4.7588217544  6.92020520139  -4.36641318819  1e+30       -3.02180348673  5.23807207249  1.14413401663  9.81715759994  
38    0.37      0.0299999993294  -4.38316683205  7.7224307698  -4.27907072711  1e+30       -3.59935832322  4.38611738842  1.10774162497  7.00475499446  
39    0.38      0.0309999994934  -4.47355597318  7.87410204717  -4.37632415308  1e+30       0.20321699826  7.77502107323  1.07811155153  7.00162252046  
40    0.39      0.0340000018477  -4.67667909981  7.27033768177  -4.23932532453  1e+30       -2.71385381143  4.87812824536  1.04747717159  6.92702401777  
41    0.4       0.0363333337009  -4.30336656689  7.95178926245  -4.42551220889  1e+30       -2.51157704769  5.39436316293  1.02713178577  9.49875799947  
42    0.41      0.0379999987781  -4.15121458598  8.09424857026  -4.27907072711  1e+30       -0.741032566178  6.57657531594  1.00075797847  8.79566324959  
43    0.42      0.03933333233  -3.91857386368  7.60766937929  -4.37649014469  1e+30       -2.70601667014  5.73306261742  0.983295182142  5.03067134531  
44    0.43      0.0419999994338  -4.55179610667  6.97494173789  -4.37347811479  1e+30       -2.71201589373  4.88081231073  0.95917091635  8.75407618748  
45    0.44      0.0443333350122  -4.48827051508  7.08528021431  -4.42551220889  1e+30       -1.92493721851  6.76118447615  0.930359162491  8.53332411542  
46    0.45      0.0450000017881  -4.06138016527  8.26507821614  -4.42551220889  1e+30       -2.86213347  6.37812748144  0.9142551276  7.66384502464  
47    0.46      0.0469999983907  -3.91857386368  7.68606296701  -4.37540541065  1e+30       -0.209888529024  6.45368733384  0.892727279429  9.08714165175  
48    0.47      0.0489999987185  -5.41744856478  6.10603893526  -4.40479259331  1e+30       -2.71037049294  4.87738001008  0.868227132225  8.69950664472  
49    0.48      0.0529999993742  -2.90344139956  8.23664236746  -4.42236158004  1e+30       -2.71201589373  6.6097784271  0.843641789992  8.6839282901  
50    0.49      0.0546666681767  -3.50701751827  8.0259788755  -4.37704200125  1e+30       -2.70585465624  6.18416070286  0.832314736881  9.7323468434  
51    0.5       0.0583333335817  -3.88145637684  7.72940575401  -4.37649014469  1e+30       -2.71201589373  4.87324359613  0.802406616056  8.59731188718  
52    0.51      0.062666669488  -2.01480521463  10.0983562448  -4.3653162464  1e+30       -2.7619653182  4.12935581472  0.766848545732  5.29241930798  
53    0.52      0.0630000010133  -4.30336656689  6.68337088442  -4.42551220889  1e+30       -1.65967043004  6.66602800758  0.756972153222  8.78075819421  
54    0.53      0.0670000016689  -4.7725870886  6.86935410233  -4.35127279428  1e+30       -0.649675193231  6.03999065048  0.725624999048  4.92938559643  
55    0.54      0.070000000298  -5.41145860359  6.45656109569  -4.33113361939  1e+30       -1.94556622906  4.84970696554  0.700643308613  10.2963988945  
56    0.55      0.0723333358765  -4.65955553625  7.09993546357  -4.36038068348  1e+30       -3.11028969792  4.95105029928  0.672845873873  9.34586945718  
57    0.56      0.0766666680574  -6.06357104394  5.93082240295  -4.17880812665  1e+30       -2.16654047189  5.19187657672  0.64517228502  8.04979793145  
58    0.57      0.0813333317637  -3.91857386368  8.05677448798  -4.43280640566  1e+30       -2.17524906433  6.13752359632  0.616483150491  8.41138842162  
59    0.58      0.086333334446  -5.3780645768  6.69565809793  -4.17919484631  1e+30       -2.32617344332  6.87654414285  0.583324203377  10.1686653053  
60    0.59      0.0900000035763  -3.8160871254  5.83283276052  -4.42551220889  1e+30       -1.9022332658  6.15910673141  0.565536197372  7.36780094559  
61    0.6       0.0953333303332  -3.05617759847  5.65210376426  -3.69689559703  1e+30       -2.78854154672  4.21784629348  0.530324702462  9.78324351994  
62    0.61      0.100666664541  -3.91857386368  7.69359517983  -4.37649014469  1e+30       -2.71201589373  4.88976573973  0.504828211137  8.29973348226  
63    0.62      0.105333335698  -2.8978346869  8.85226440878  -4.36130171155  1e+30       -4.04286593359  4.1833119015  0.468460006758  6.9672713999  
64    0.63      0.109999999404  -5.02570140417  6.51282954114  -3.90148062794  1e+30       -2.71201589373  5.44445008346  0.438898802569  7.9477750012  
65    0.64      0.113666668534  -3.0948898943  8.58413706149  -4.42551220889  1e+30       -1.31575407937  6.74928567812  0.420560102782  8.18711564271  
66    0.65      0.119000002742  -4.71575542318  7.60196440046  -4.36130171155  1e+30       -3.06984571118  5.16888191164  0.394806901363  9.06783048467  
67    0.66      0.122000001371  -3.91857386368  7.60512514663  -4.40851782286  1e+30       -2.71201589373  4.87962917672  0.375622649568  7.03975045228  
68    0.67      0.126666665077  -5.8251011375  6.59687140581  -3.40731176267  1e+30       -1.69045398661  5.45851612431  0.346852111516  8.86654372441  
69    0.68      0.129666671157  -5.06810842753  7.50116123786  -4.39981268378  1e+30       -1.46866559089  7.50235962446  0.328206377229  9.91354747916  
70    0.69      0.134000003338  -4.7725870886  6.86935410233  -4.42551220889  1e+30       -0.991222868201  7.04722240839  0.298340959705  8.72089372524  
71    0.7       0.142333328724  -3.91857386368  6.78366664029  -3.77243883008  1e+30       -2.71201589373  4.87324359613  0.257034936763  6.61690580391  
72    0.71      0.15000000596  -4.7588217544  6.88227052166  -4.36544117095  1e+30       -2.99956281787  5.26529778875  0.235325942358  8.86844983211  
73    0.72      0.157000005245  -4.6728022262  7.60047840036  -4.37649014469  1e+30       -1.82164114893  5.76609507248  0.207662145783  7.99077861145  
74    0.73      0.166666671634  -4.71575542318  7.03434367249  -4.36130171155  1e+30       -0.983214326429  7.33833915161  0.165406159603  8.83842974291  
75    0.74      0.170666664839  -3.94627477593  6.34016927904  -4.3835986703  1e+30       -1.2027789596  6.40284416656  0.153112498941  7.94801777007  
76    0.75      0.177333340049  -4.91764149609  7.4794264677  -4.43280640566  1e+30       -2.18093204714  5.17748500147  0.125309778342  8.31972415066  
77    0.76      0.185000002384  -4.68063353051  6.85700487291  -3.88369710849  1e+30       -2.70585465624  4.87930828454  0.0912807054703  7.08790634901  
78    0.77      0.196999996901  -4.73989366439  6.99184543949  -4.36130171155  1e+30       -1.90771294459  4.23492283279  0.048929009405  8.68583636507  
79    0.78      0.202666670084  -4.71575542318  7.05194404491  -4.35214540215  1e+30       -3.07044791109  5.14294058773  0.023503673359  8.65998634829  
80    0.79      0.216666668653  -5.92458353172  5.82551556395  -4.36130171155  1e+30       -2.71583403552  6.79312414673  -0.0136437264307  8.65937985687  
81    0.8       0.220333337784  -3.91857386368  8.23279109155  -4.16925392626  1e+30       -1.12985344277  6.56661318575  -0.0295739388102  7.9512073629  
82    0.81      0.231000006199  -4.7588217544  6.94586384944  -4.35249866493  1e+30       -3.06984571118  5.43929521681  -0.0720109468165  8.58127445757  
83    0.82      0.243333339691  -5.59636827115  5.94216267416  -4.37649014469  1e+30       -2.71201589373  4.87516470653  -0.118219202104  7.82708848958  
84    0.83      0.256666660309  -4.71575542318  7.76483879572  -4.42606306636  1e+30       -3.88835143169  5.25585953333  -0.172378314485  8.50064526882  
85    0.84      0.268333345652  -5.17500557139  6.62844191867  -4.32701594125  1e+30       -4.45283459408  4.34821744732  -0.21216341546  9.37317768647  
86    0.85      0.27933332324  -5.48024582845  5.97448145578  -4.17919484631  1e+30       -1.65878558499  7.31223963037  -0.258626949511  9.32671415242  
87    0.86      0.291000008583  -4.71575542318  7.15511098842  -4.36130171155  1e+30       -1.49268339732  8.03479877342  -0.294768305425  8.41264150015  
88    0.87      0.303666681051  -5.41749229053  5.57153461173  -4.37649014469  1e+30       -1.73881424885  5.85167665865  -0.335141708257  4.76264228566  
89    0.88      0.31833332777  -3.91857386368  7.60512514663  -4.33954691513  1e+30       -1.97967193401  5.62210969944  -0.380324273028  7.43728656338  
90    0.89      0.335333347321  -3.91857386368  7.6898652692  -4.37649014469  1e+30       -2.71201589373  6.1391724134  -0.428000672558  7.72598724806  
91    0.9       0.351333320141  -5.04032666728  6.70052431301  -4.42551220889  1e+30       -3.24941391134  4.84943335007  -0.475647486871  5.02423093131  
92    0.91      0.380666673183  -4.42930639951  8.13996326587  -4.03939985596  1e+30       -2.51157704769  6.78131307985  -0.544697372245  7.27525141918  
93    0.92      0.402999997139  -4.71575542318  7.03434367249  -4.36038068348  1e+30       -3.06984571118  5.16888191164  -0.597354206227  5.38787284289  
94    0.93      0.434666663408  -5.69543231533  5.81007230798  -4.37649014469  1e+30       -2.71503270626  4.80223260817  -0.668128457061  6.42409020496  
95    0.94      0.469333320856  -4.71575542318  7.03434367249  -4.36130171155  1e+30       -3.98344393281  4.25528369  -0.768141252985  7.90488233032  
96    0.95      0.508000016212  -4.79920783201  6.92033643344  -4.17919484631  1e+30       -2.51157704769  5.76594718606  -0.861729125623  6.9582196658  
97    0.96      0.56400001049  -4.71575542318  7.03434367249  -4.36130171155  1e+30       -3.06984571118  5.16888191164  -0.986518017093  4.98249756677  
98    0.97      0.60366666317  -4.71575542318  7.20989523153  -4.36130171155  1e+30       -2.097293801  6.14143382181  -1.09200900419  6.96309161119  
99    0.98      0.664666652679  -5.41744856478  6.12108238053  -4.37649014469  1e+30       -2.71201589373  4.87572032768  -1.2642142739  6.53069099723  
100   0.99      0.774666666985  -4.71575542318  7.03434367249  -4.36130171155  1e+30       -3.29303238387  4.94569523894  -1.56742112603  7.10560245728  
