#GEN -*-*-*-*-*-*-*-*-*-*-*- general info -*-*-*-*-*-*-*-*-*-*-*-

Method         : KNN::KNN
TMVA Release   : 3.9.7         [198919]
ROOT Release   : 5.22/00       [333312]
Creator        : stelzer
Date           : Sat Sep 26 15:26:05 2009
Host           : Linux rabenstein2 2.6.24-23-generic #1 SMP Mon Jan 26 00:13:11 UTC 2009 i686 GNU/Linux
Dir            : /home/stelzer/TMVA397/macros
Training events: 6000


#OPT -*-*-*-*-*-*-*-*-*-*-*-*- options -*-*-*-*-*-*-*-*-*-*-*-*-

# Set by User:
nkNN: "400" [Number of k-nearest neighbors]
TreeOptDepth: "6" [Binary tree optimisation depth]
ScaleFrac: "0.8" [Fraction of events used for scaling]
UseKernel: "False" [Use polynomial kernel weight]
Trim: "False" [Use equal number of signal and background events]
# Default:
D: "False" [Use-decorrelated-variables flag (depreciated)]
Normalise: "False" [Normalise input variables]
VarTransform: "None" [Variable transformation method]
VarTransformType: "Signal" [Use signal or background events to derive for variable transformation (the transformation is applied on both types of, course)]
NbinsMVAPdf: "60" [Number of bins used for the PDFs of classifier outputs]
NsmoothMVAPdf: "2" [Number of smoothing iterations for classifier PDFs]
V: "False" [Verbose mode]
VerboseLevel: "Default" [Verbosity level]
H: "False" [Print classifier-specific help message]
CreateMVAPdfs: "False" [Create PDFs for classifier outputs (signal and background)]
TxtWeightFilesOnly: "True" [If True: write all training results (weights) as text files (False: some are written in ROOT format)]
##


#VAR -*-*-*-*-*-*-*-*-*-*-*-* variables *-*-*-*-*-*-*-*-*-*-*-*-

NVar 4
var1+var2                     var1_P_var2                       'F'    [-6.05220985413,6.37847995758]
var1-var2                     var1_M_var2                       'F'    [-4.34529972076,4.76599025726]
var3                          var3                              'F'    [-5.18697977066,4.18717002869]
var4                          var4                              'F'    [-4.88857984543,4.54254007339]


#MAT -*-*-*-*-*-*-*-*-* transformation data -*-*-*-*-*-*-*-*-*-


#WGT -*-*-*-*-*-*-*-*-*-*-*-*- weights -*-*-*-*-*-*-*-*-*-*-*-*-

# MethodKNN will write 6000 events 
# event number, type, weight, variable values
0, 1, 1, 1.82123994827, 0.574860036373, 0.987410008907, 1.49949002266
1, 1, 1, 0.486150026321, -0.289849996567, -0.74603998661, 0.196999996901
2, 1, 1, 1.57702994347, -0.368210017681, 1.45712995529, 1.88364994526
3, 1, 1, -1.17005991936, 0.225199997425, -0.197840005159, 0.528819978237
4, 1, 1, -0.873610019684, 0.167969971895, -0.445609986782, -0.0129800001159
5, 1, 1, -1.19150006771, -1.43581998348, 1.26985001564, 1.50429999828
6, 1, 1, -0.749480009079, 2.88163995743, -0.123970001936, 0.199059993029
7, 1, 1, 0.395570009947, -0.758769989014, 0.666830003262, 0.163709998131
8, 1, 1, -1.4584300518, -0.116370022297, -0.0266999993473, 0.222039997578
9, 1, 1, 2.14010000229, 0.409159958363, 0.370559990406, 0.685940027237
10, 1, 1, -1.64362001419, 0.683959960938, -0.117210000753, -0.0200200006366
11, 1, 1, 1.14409995079, -0.481720030308, 1.40753996372, 0.755930006504
12, 1, 1, -2.29819011688, 0.728850007057, -0.295060008764, -0.175300002098
13, 1, 1, 2.09775996208, 1.35578000546, -0.717840015888, -0.597609996796
14, 1, 1, 2.8168900013, -2.41845011711, 1.19005000591, 1.76490998268
15, 1, 1, 3.55928993225, 0.409649968147, 0.0618299990892, 0.915499985218
16, 1, 1, 0.322879999876, -0.909559965134, 0.997479975224, 1.00951004028
17, 1, 1, 1.69459998608, -1.24105989933, 2.51772999763, 3.15578007698
18, 1, 1, 0.0403500199318, -1.89864993095, 0.872060000896, 1.27375996113
19, 1, 1, 1.27602005005, 0.460920006037, 0.833540022373, 1.09941995144
20, 1, 1, 0.503899991512, -0.709639966488, 2.41295003891, 1.78030002117
21, 1, 1, 0.922440052032, -2.64958000183, 1.46815001965, 1.26649999619
22, 1, 1, -0.0518400073051, 1.50067996979, -0.0697299987078, -0.114150002599
23, 1, 1, 0.456319987774, -1.08958005905, 0.762130022049, 0.929310023785
24, 1, 1, -4.15999984741, 2.07858014107, -2.47534990311, -1.82788002491
25, 1, 1, -0.0928899943829, 0.896029949188, 0.640269994736, 0.161579996347
26, 1, 1, -1.80263996124, -1.65343999863, -0.0819600000978, 0.588919997215
27, 1, 1, 1.35237002373, -0.63071000576, 0.750429987907, 1.38915002346
28, 1, 1, 1.00969004631, -1.48425006866, 1.54594004154, 1.39701998234
29, 1, 1, -1.47061002254, 1.02367007732, -0.840020000935, -1.51206994057
30, 1, 1, -0.259849965572, -0.962289988995, 2.41027998924, 2.59045004845
31, 1, 1, -0.83977997303, -0.585000038147, 0.0434199981391, 0.616900026798
32, 1, 1, 0.399230003357, 1.00208997726, -0.325639992952, 0.783110022545
33, 1, 1, 2.81804990768, -0.461969971657, 0.539359986782, 0.622330009937
34, 1, 1, -0.822640061378, 1.25258004665, 0.402319997549, 0.933960020542
35, 1, 1, 0.458280026913, -1.23715996742, 1.63935995102, 1.54882001877
36, 1, 1, 1.31615996361, -0.730979919434, 0.967429995537, 1.62208998203
37, 1, 1, 0.672810018063, -0.337130010128, 1.4152200222, 1.59812998772
38, 1, 1, 0.780969977379, -1.22885000706, 0.207790002227, 0.788460016251
39, 1, 1, 1.62971997261, 0.451120078564, 1.70048999786, 2.01952004433
40, 1, 1, 0.0702600181103, -0.678840041161, -0.697049975395, -0.407629996538
41, 1, 1, 1.92127990723, -1.27196002007, 0.763140022755, 1.45870995522
42, 1, 1, -0.870379984379, -0.0369200110435, 0.15515999496, 0.720420002937
43, 1, 1, 1.95137000084, -0.681629955769, 2.42702007294, 2.06358003616
44, 1, 1, -1.1890900135, -1.08099007607, 0.773209989071, 0.762080013752
45, 1, 1, 2.91108989716, 0.0833300352097, 1.14751005173, 2.12364006042
46, 1, 1, -1.73574995995, -0.502470016479, -1.38284003735, -0.93626999855
47, 1, 1, -1.06472992897, -0.910209953785, -1.24156999588, -0.616890013218
48, 1, 1, 0.451109975576, 0.466749995947, -0.853330016136, -0.38859000802
49, 1, 1, 1.86924004555, 1.57990002632, 1.49450004101, 1.50030004978
50, 1, 1, -0.773779988289, -0.943179965019, 1.24377000332, 0.181189998984
51, 1, 1, 1.08801007271, -0.6690300107, 1.57046997547, 1.63555002213
52, 1, 1, 1.92098999023, 0.36185002327, 1.8532500267, 1.80015003681
53, 1, 1, 0.891780018806, 0.815160036087, 0.458220005035, 0.931079983711
54, 1, 1, 1.90746998787, -1.35221004486, 1.29936003685, 2.00380992889
55, 1, 1, -0.661300063133, -1.75592005253, -0.0920300036669, -0.0204799994826
56, 1, 1, -0.241519987583, -1.87204003334, 0.277909994125, 0.220750004053
57, 1, 1, 1.93949007988, 1.15130996704, 1.18509995937, 1.60892999172
58, 1, 1, -0.614499986172, -1.49573993683, 0.66196000576, 0.532450020313
59, 1, 1, 1.22727000713, 0.920090079308, 0.901889979839, 1.24942994118
60, 1, 1, -0.00235000252724, -0.112190000713, 0.466890007257, 0.65463000536
61, 1, 1, 0.602119982243, -0.425099998713, 1.11749005318, 0.935980021954
62, 1, 1, 0.0901199951768, 0.0790399983525, -0.641650021076, -0.0706100016832
63, 1, 1, -0.838719964027, -2.61191987991, -0.75669002533, -0.64322000742
64, 1, 1, 3.27260017395, -0.85990011692, 0.862959980965, 1.42479002476
65, 1, 1, 1.90492010117, -0.199440062046, 1.96210002899, 2.02730989456
66, 1, 1, 2.85670995712, 0.00845003128052, 0.864239990711, 1.21846997738
67, 1, 1, 0.577170014381, -0.204029992223, 1.10933995247, 0.942439973354
68, 1, 1, -2.23010015488, 0.562240004539, -0.586480021477, -0.844560027122
69, 1, 1, 2.06035995483, -2.597219944, 0.996800005436, 0.941919982433
70, 1, 1, 0.217809990048, -0.469669997692, 0.233119994402, 0.311309993267
71, 1, 1, 1.80731999874, -2.44477987289, 2.3124101162, 1.95659995079
72, 1, 1, -0.884840011597, 0.48611998558, 0.0681300014257, 0.509220004082
73, 1, 1, 0.0614600032568, -0.355260014534, 0.45013999939, 0.734290003777
74, 1, 1, -1.03594005108, -0.548340022564, 0.193470001221, -0.617950022221
75, 1, 1, -0.359300017357, -1.52641999722, 1.28382003307, 1.40170001984
76, 1, 1, 0.79115998745, 0.13492000103, -1.3106700182, -0.511139988899
77, 1, 1, 1.56142997742, 1.4726099968, -0.22281999886, 0.143669992685
78, 1, 1, -0.31329998374, -0.988019943237, -0.555589973927, -0.0730099976063
79, 1, 1, 0.370320022106, 1.53448009491, 0.636789977551, 1.31868994236
80, 1, 1, 3.27324008942, -1.16226005554, 0.571690022945, 1.58229005337
81, 1, 1, 0.120599985123, 0.485339999199, 0.513729989529, 0.132489994168
82, 1, 1, -1.06345999241, 0.0623999834061, -0.0722099989653, -0.316659986973
83, 1, 1, 0.90950012207, -3.3353600502, -0.411680012941, 1.17179000378
84, 1, 1, -2.59985995293, 0.703799962997, -0.645550012589, -0.0915800035
85, 1, 1, 0.478569984436, -3.01572990417, 1.46252000332, 1.57731997967
86, 1, 1, 0.787239909172, 1.78219997883, 0.0134100001305, 0.0556100010872
87, 1, 1, 1.92437005043, -0.395649969578, 0.669250011444, 1.78724002838
88, 1, 1, 1.62806987762, -0.498249948025, 0.874909996986, 0.838930010796
89, 1, 1, 0.628310024738, 0.596530020237, 1.29865002632, 0.955340027809
90, 1, 1, 1.00418996811, 0.319429993629, 0.582690000534, 0.168430000544
91, 1, 1, 2.0997800827, -0.997579932213, 0.339800000191, 0.669189989567
92, 1, 1, 0.743900001049, 1.26083993912, -0.78298997879, -0.314889997244
93, 1, 1, 0.668689966202, -0.198529988527, 1.37521994114, 1.62787997723
94, 1, 1, -0.703370034695, 1.3353099823, -0.486790001392, -0.569329977036
95, 1, 1, -1.39848995209, 0.127229988575, -0.210109993815, -0.238930001855
96, 1, 1, 1.40052998066, -0.453989982605, 1.12433004379, 0.91060000658
97, 1, 1, 0.464680016041, 0.526059985161, 1.15319001675, 1.44648003578
98, 1, 1, 4.11258983612, -1.97642993927, 2.19132995605, 2.56661009789
99, 1, 1, 0.996170043945, 1.41541004181, 1.27050995827, 1.62485003471
100, 1, 1, -0.0589899979532, 0.152889996767, 0.697390019894, 0.859969973564
101, 1, 1, 2.91750001907, 0.287980079651, 0.343109995127, 0.730910003185
102, 1, 1, 1.93409001827, 1.16621005535, 1.3219499588, 1.10504996777
103, 1, 1, -0.360770016909, 1.31147003174, 0.101640000939, -0.184180006385
104, 1, 1, -2.15395998955, -0.83904004097, 0.111809998751, 0.107089996338
105, 1, 1, 2.08675003052, -0.0774500370026, 2.66235995293, 2.84842991829
106, 1, 1, 0.882009983063, 0.72817003727, -0.275689989328, 0.426519989967
107, 1, 1, -2.2509598732, 0.777599990368, -0.972400009632, -0.699559986591
108, 1, 1, 2.22637009621, 0.68042999506, 1.78097999096, 1.68201994896
109, 1, 1, 0.33270996809, 0.90786999464, -1.2152299881, -0.985149979591
110, 1, 1, -2.37507009506, -2.30381011963, -0.266270011663, -0.346089988947
111, 1, 1, -0.606760025024, -0.404300004244, -1.20990002155, -1.68466997147
112, 1, 1, 0.850239992142, 0.236340016127, 1.57852005959, 1.63273000717
113, 1, 1, 2.6305501461, -1.85977005959, 2.11400008202, 1.764950037
114, 1, 1, -1.92175996304, -2.57425999641, -0.867959976196, -0.344550013542
115, 1, 1, 1.40058994293, 0.269450008869, 0.284999996424, -0.153980001807
116, 1, 1, 1.1264500618, 1.07377004623, 0.463200002909, 0.153789997101
117, 1, 1, -2.36726999283, 0.487749993801, -0.0467000007629, 0.408989995718
118, 1, 1, -2.5355899334, 0.552329957485, -1.60233998299, -1.52841997147
119, 1, 1, 2.4944999218, -3.59606003761, 2.87814998627, 3.42474007607
120, 1, 1, -1.01625001431, -0.776489973068, -0.345770001411, -0.805540025234
121, 1, 1, 1.32270002365, -0.548959970474, 1.36917996407, 1.18782997131
122, 1, 1, -4.64678001404, -0.881839871407, -1.82177996635, -1.35087001324
123, 1, 1, -2.13040995598, -1.27048993111, -1.39266002178, -0.476520001888
124, 1, 1, 1.20096004009, -0.568099975586, 0.654309988022, 1.00524997711
125, 1, 1, 0.557020008564, -0.215120017529, 1.76406002045, 1.24856996536
126, 1, 1, 1.27543008327, 1.42668998241, 1.3594199419, 1.91867005825
127, 1, 1, 1.66226005554, -0.839879989624, 0.760370016098, 1.26805996895
128, 1, 1, 1.0491399765, -0.336179971695, 1.93482005596, 2.0451900959
129, 1, 1, 3.19366002083, 0.0151400566101, 2.38556003571, 2.33997988701
130, 1, 1, -0.516629993916, -0.235029995441, 0.748440027237, 1.13919997215
131, 1, 1, 0.0751600265503, -3.07671999931, 2.36876988411, 3.09671998024
132, 1, 1, 1.90242004395, 0.302540063858, 1.01268005371, 1.72194004059
133, 1, 1, -0.410640001297, -3.12127995491, 0.486849993467, 0.923629999161
134, 1, 1, -4.04295015335, 0.873290061951, -2.46124005318, -1.8122099638
135, 1, 1, 2.40793991089, 1.09772002697, 2.99278998375, 3.04081010818
136, 1, 1, 1.36091995239, -0.139159977436, 0.931259989738, 1.46983003616
137, 1, 1, 0.121309995651, 1.95927000046, -1.50347995758, -1.0266699791
138, 1, 1, -0.481690049171, -1.82717001438, -0.220039993525, -0.420800000429
139, 1, 1, 0.0201100111008, -0.836730003357, -0.0520600005984, 0.313710004091
140, 1, 1, 0.0126700103283, -0.555709958076, -0.520009994507, -0.190239995718
141, 1, 1, 0.440840005875, -0.996320009232, 0.473529994488, 1.25038003922
142, 1, 1, -1.94765996933, 0.14186000824, -0.632910013199, -1.00132000446
143, 1, 1, 1.89771997929, 0.493939995766, 0.411100000143, 0.785409986973
144, 1, 1, -0.614390015602, 0.752110004425, 0.508480012417, 0.986000001431
145, 1, 1, 1.06904006004, -2.24171996117, 0.602219998837, 1.38988995552
146, 1, 1, -2.71111989021, -1.37825989723, -0.438510000706, -0.541559994221
147, 1, 1, 3.54184007645, -2.44405984879, 2.3557600975, 2.92228007317
148, 1, 1, 3.09906005859, -0.551139950752, 0.820749998093, 1.13847005367
149, 1, 1, 0.260859966278, -2.43386006355, 0.0202300008386, 1.03963005543
150, 1, 1, -0.970270037651, -0.35582998395, -0.3116799891, 0.0591499991715
151, 1, 1, 0.563350021839, -1.87485003471, 1.12068998814, 1.73520004749
152, 1, 1, -0.818240046501, -1.33928000927, 0.0865999981761, -0.16711999476
153, 1, 1, -0.296479970217, -0.801460027695, -0.195680007339, -0.265159994364
154, 1, 1, 1.5752300024, -1.25769007206, 1.96371996403, 2.17322993279
155, 1, 1, -0.819839954376, 0.238939970732, -0.107819996774, -0.405180007219
156, 1, 1, -1.30113995075, -0.524600028992, -0.234070003033, -0.171629995108
157, 1, 1, -1.70779001713, -0.518050074577, -0.567719995975, -0.480369985104
158, 1, 1, 0.583559989929, 0.413960009813, -0.427960008383, 0.250930011272
159, 1, 1, -0.528970003128, -0.542750000954, 0.165590003133, 0.651560008526
160, 1, 1, 0.75161999464, -0.232840001583, 0.919889986515, 0.753030002117
161, 1, 1, -0.634889960289, -1.25967001915, 0.611109972, 0.376309990883
162, 1, 1, 1.06115996838, -1.77533996105, 1.6859099865, 1.38469994068
163, 1, 1, 0.259050011635, 0.738349974155, 0.212190002203, -0.200379997492
164, 1, 1, 2.62702989578, -0.705929934978, 1.790989995, 2.12325000763
165, 1, 1, 1.99735999107, -1.4380800724, 1.94613003731, 1.7279599905
166, 1, 1, 3.66493988037, 0.324679970741, 0.162049993873, 1.15314996243
167, 1, 1, 1.16489005089, -0.469450026751, 1.18910002708, 0.805589973927
168, 1, 1, 0.0655900239944, 2.42607021332, 1.74207997322, 2.13760995865
169, 1, 1, -1.70047998428, 1.20853996277, 0.0555500015616, -0.0744400024414
170, 1, 1, 0.885140061378, -1.31576001644, 1.01381003857, 1.20121002197
171, 1, 1, 2.29221010208, -1.16614997387, 1.3486700058, 1.78129005432
172, 1, 1, 1.68134999275, 0.360029935837, 0.577030003071, 1.09429001808
173, 1, 1, -0.255329996347, -0.225390002131, 0.697149991989, 0.765070021152
174, 1, 1, 1.68229997158, 1.35627996922, -0.54848998785, -0.200780004263
175, 1, 1, 2.71864008904, -0.270380020142, 1.7513999939, 1.87232005596
176, 1, 1, -2.63582992554, 0.549450039864, -1.26753997803, -1.49225997925
177, 1, 1, 0.307529985905, -0.148210003972, 1.26379001141, 1.71514999866
178, 1, 1, 1.50826001167, 0.0462800264359, -0.201920002699, 0.076810002327
179, 1, 1, -2.26209998131, -1.25758004189, -0.515259981155, -0.0882499963045
180, 1, 1, 1.25028002262, 1.32357990742, 0.298579990864, 0.698010027409
181, 1, 1, -0.109600000083, 0.236779987812, -0.360009998083, -0.639410018921
182, 1, 1, -0.323610007763, -1.00170993805, -0.210850000381, 0.367709994316
183, 1, 1, -1.21612000465, 0.663280010223, -0.212259992957, -0.0633599981666
184, 1, 1, 1.87841999531, 0.446740031242, 0.0726099982858, 0.246079996228
185, 1, 1, 3.02897000313, 0.152889966965, 2.38638997078, 2.32698988914
186, 1, 1, 4.00141000748, -1.17605006695, 1.39526998997, 1.70636999607
187, 1, 1, 1.32358002663, -0.246999979019, 0.685060024261, 0.84649002552
188, 1, 1, -1.61120998859, -0.135810017586, -1.2233300209, -1.34966003895
189, 1, 1, -0.519270002842, -0.187070012093, 1.16646003723, 1.59532999992
190, 1, 1, 1.77109003067, -1.05206990242, -0.162159994245, -0.0326500013471
191, 1, 1, 2.78781986237, 0.455880045891, 0.360040009022, 1.60958003998
192, 1, 1, 1.39633989334, 0.0996800065041, -1.0897500515, -0.300610005856
193, 1, 1, -2.12549996376, 0.00562000274658, -0.427529990673, 0.110119998455
194, 1, 1, 1.99276995659, -0.771430015564, 2.69601988792, 3.11853003502
195, 1, 1, -0.621020019054, 1.06816005707, 0.288020014763, -0.213809996843
196, 1, 1, 3.99760007858, 0.549260139465, 1.30561995506, 2.2411301136
197, 1, 1, -0.811710000038, 1.79211008549, 0.311470001936, 0.360329985619
198, 1, 1, 1.30080997944, -0.193130016327, -0.345629990101, 0.866590023041
199, 1, 1, 3.01850008965, -2.31514000893, 3.42817997932, 3.76848006248
200, 1, 1, 0.250070035458, -1.99123001099, 0.880789995193, 1.26523995399
201, 1, 1, 2.3358399868, 1.00286006927, 1.07063996792, 0.796549975872
202, 1, 1, 0.45572000742, -0.455139994621, 0.707840025425, 1.11096000671
203, 1, 1, 1.39792001247, 0.993420004845, 0.171399995685, 0.791440010071
204, 1, 1, 0.0762600004673, -0.167280003428, -1.03806996346, -0.237379997969
205, 1, 1, -4.26357984543, -1.55441987514, -0.273129999638, -0.375360012054
206, 1, 1, 2.13713002205, 1.27132987976, 0.568610012531, 0.533649981022
207, 1, 1, 0.937839984894, 0.442160010338, 0.0233299992979, -0.757600009441
208, 1, 1, -0.847869992256, 1.60400998592, -1.27602005005, -0.841629981995
209, 1, 1, 4.78003978729, -0.412120103836, 2.09236001968, 2.62079000473
210, 1, 1, 2.05692005157, 0.721940040588, 0.0228300001472, 0.383810013533
211, 1, 1, -0.591040015221, 0.915459990501, -0.483040004969, -0.556029975414
212, 1, 1, 2.32360982895, 0.749709963799, 1.65810000896, 1.82341003418
213, 1, 1, 1.07502996922, -1.80098998547, 0.444290012121, 1.57858002186
214, 1, 1, 1.98913002014, 0.282350063324, 0.705070018768, 0.98847001791
215, 1, 1, 0.309979975224, 1.41113996506, 1.95399999619, 2.04141998291
216, 1, 1, -1.2877600193, -0.284860014915, -0.0100899999961, 0.191420003772
217, 1, 1, -0.0530899763107, -0.72282999754, 0.509980022907, 0.871089994907
218, 1, 1, -1.42141008377, 0.375750005245, -1.14929997921, -0.212699994445
219, 1, 1, 0.709190011024, -0.313689976931, 0.0794299989939, 0.00170000002254
220, 1, 1, -0.73537003994, 0.119269996881, 1.13548004627, 0.155070006847
221, 1, 1, 2.6096200943, -0.102339982986, 0.65921998024, 1.29392004013
222, 1, 1, 0.968779981136, -0.700079977512, 1.58733999729, 1.75847005844
223, 1, 1, 0.798560023308, 1.5870000124, -1.62893998623, -0.452840000391
224, 1, 1, -1.10005998611, -1.14739990234, 0.234180003405, 0.0979800000787
225, 1, 1, -1.91699004173, -0.610069990158, -0.44264999032, -0.842289984226
226, 1, 1, -0.830950021744, -0.316290020943, -0.728179991245, -0.300619989634
227, 1, 1, 0.346639990807, -0.106100007892, 0.688830018044, 0.390670001507
228, 1, 1, 2.23652982712, -0.382249951363, 1.21373999119, 1.2379399538
229, 1, 1, -0.347889959812, -1.66767001152, 1.29868996143, 0.951240003109
230, 1, 1, 3.82723999023, 0.837920069695, 0.516110002995, 0.822709977627
231, 1, 1, 0.730899989605, -0.0651199817657, 1.51218998432, 1.37837004662
232, 1, 1, 0.190430015326, -0.457410007715, 0.998430013657, 0.628279983997
233, 1, 1, -1.03138995171, 0.140089958906, 1.55964994431, 0.670690000057
234, 1, 1, 2.26692008972, 1.14075994492, 1.15927994251, 1.15978002548
235, 1, 1, 3.38545012474, -1.96689009666, 2.44293999672, 2.26646995544
236, 1, 1, 4.18688011169, 1.00814008713, 3.93232011795, 3.88369989395
237, 1, 1, 2.40989017487, -0.225649952888, 1.51038002968, 1.94027996063
238, 1, 1, -1.72183001041, 0.436750054359, -0.888639986515, -1.1238399744
239, 1, 1, 3.56595993042, -0.41095995903, 1.87583005428, 2.27961993217
240, 1, 1, 4.3393497467, -1.28321003914, 1.02910995483, 1.72985005379
241, 1, 1, -0.33967000246, 0.159309983253, -1.29881000519, -0.771589994431
242, 1, 1, 2.66237020493, -0.456390023232, 0.359580010176, 1.16508996487
243, 1, 1, -0.826200008392, -2.22246003151, 0.540620028973, 0.80119997263
244, 1, 1, -0.888990044594, -0.0831899940968, 1.82190001011, 2.29155993462
245, 1, 1, 0.813260018826, 1.17675995827, 0.226129993796, -0.6238899827
246, 1, 1, -1.4785900116, -0.418429970741, -0.473049998283, -0.076700001955
247, 1, 1, 0.00442000478506, 0.212599992752, 1.04604005814, 0.975480020046
248, 1, 1, 0.317210018635, 1.85641002655, -0.61370998621, -0.403490006924
249, 1, 1, -1.19582998753, -0.717970013618, 0.969049990177, 0.99156999588
250, 1, 1, 0.951610028744, 1.03139007092, -0.309700012207, 0.456459999084
251, 1, 1, 1.83854007721, 0.563360035419, 1.82483005524, 1.65719997883
252, 1, 1, 0.294799983501, 0.667760014534, 0.823360025883, 0.816990017891
253, 1, 1, 2.1230199337, -0.102859973907, 1.04625999928, 0.932850003242
254, 1, 1, 1.94604992867, 0.489989936352, 0.0556700006127, 0.387600004673
255, 1, 1, -0.524129986763, -0.894989967346, 0.268429994583, 0.297360002995
256, 1, 1, 2.31942009926, 1.45078003407, 1.05357003212, 1.45427000523
257, 1, 1, 2.72598981857, 0.659150004387, 0.780499994755, 1.56181001663
258, 1, 1, 0.140839993954, 1.10037994385, -0.423739999533, -0.00997999962419
259, 1, 1, 3.61433982849, -1.94237995148, 1.3584100008, 1.7633099556
260, 1, 1, -4.27659034729, -0.437370061874, -0.855599999428, -1.28199005127
261, 1, 1, 0.578320026398, 0.0449400246143, 0.06026000157, 1.10812997818
262, 1, 1, 0.115839987993, -0.804980039597, 0.891650021076, 1.77753996849
263, 1, 1, 0.405560016632, -0.241119995713, 0.608560025692, 0.901289999485
264, 1, 1, 1.18711996078, -2.29766011238, -0.0369700007141, 0.381790012121
265, 1, 1, -1.21701002121, -2.50709009171, -0.427879989147, -0.479270011187
266, 1, 1, -1.06113004684, 1.0100300312, 0.360980004072, -0.824810028076
267, 1, 1, 1.99259996414, 1.34100008011, 0.55939000845, 1.14933001995
268, 1, 1, -1.73513007164, -0.236630022526, -0.18096999824, 0.309720009565
269, 1, 1, 1.34755003452, 1.54101002216, -0.531170010567, -0.0828299969435
270, 1, 1, 0.55505001545, -1.19520998001, -0.63937997818, 0.0277800001204
271, 1, 1, 2.64225006104, 0.657510042191, 1.14701998234, 1.7785500288
272, 1, 1, 0.618219971657, 0.0814199745655, 0.219610005617, 0.853250026703
273, 1, 1, -0.683259963989, -0.660040020943, 0.295020014048, 0.907459974289
274, 1, 1, 1.69676995277, 0.0535500049591, 1.87212002277, 1.73598003387
275, 1, 1, -0.454629987478, 0.461089998484, 0.952279984951, 0.334459990263
276, 1, 1, -0.51662003994, -1.18470001221, -1.14503002167, -0.827220022678
277, 1, 1, -2.7455599308, -1.09608006477, 0.451240003109, 0.747539997101
278, 1, 1, 1.39123010635, -1.85025000572, 1.97961997986, 2.17880988121
279, 1, 1, -0.34213000536, -1.38751006126, 2.40720009804, 2.20072007179
280, 1, 1, 0.486700057983, -2.84493994713, 1.05778002739, 0.949299991131
281, 1, 1, -0.279399991035, 1.76391994953, 0.675979971886, -0.573029994965
282, 1, 1, 0.411460012197, -1.02763998508, 1.03234994411, 1.00940001011
283, 1, 1, 1.21571993828, -0.00198000669479, 1.55227994919, 1.81640005112
284, 1, 1, 3.04095005989, 1.15076994896, 1.35309004784, 1.50689995289
285, 1, 1, 2.50147008896, -1.07648992538, 1.19447994232, 1.53556001186
286, 1, 1, -1.10597991943, 0.371519982815, 0.623979985714, 1.57651996613
287, 1, 1, -0.628790020943, -1.16381001472, -0.350769996643, 0.204970002174
288, 1, 1, 0.828670024872, -0.430269986391, 1.18731999397, 1.13417005539
289, 1, 1, 1.24427998066, -1.46231997013, -0.529709994793, 0.888689994812
290, 1, 1, 1.16659998894, 0.313600033522, 1.23321998119, 1.73111999035
291, 1, 1, 1.63782000542, 2.05976009369, 1.65294003487, 1.7057800293
292, 1, 1, 3.32450008392, -0.814819931984, 1.86102998257, 1.53182005882
293, 1, 1, -0.104379996657, -0.110760003328, -1.68116998672, -0.818369984627
294, 1, 1, 0.643260061741, -1.36296010017, 0.624740004539, 0.33884999156
295, 1, 1, 0.992120027542, -1.76936006546, 0.793030023575, 0.76573997736
296, 1, 1, 0.654690027237, 0.847630023956, 0.801029980183, 1.47452998161
297, 1, 1, -0.419110000134, 1.50676989555, -0.786870002747, -1.01935005188
298, 1, 1, 1.35997998714, 0.807500004768, 0.487749993801, 0.961820006371
299, 1, 1, 1.77881002426, 2.28309011459, 0.441909998655, 1.37386000156
300, 1, 1, 1.26900994778, -0.399949997663, 1.70067000389, 1.8031899929
301, 1, 1, 3.89998006821, 0.981700062752, 1.55349004269, 1.8785200119
302, 1, 1, 0.790189981461, 2.83427000046, 0.82937002182, 0.873950004578
303, 1, 1, 2.24799013138, -0.853030025959, 1.16421997547, 1.71246004105
304, 1, 1, -1.18120002747, -0.187099993229, 0.161369994283, 0.373340010643
305, 1, 1, 4.15054988861, -0.818930029869, 1.9923299551, 2.49657988548
306, 1, 1, -0.607219994068, -1.59538006783, 0.744989991188, 1.15848004818
307, 1, 1, -0.506410002708, 1.27900993824, -0.0761099979281, -0.083370000124
308, 1, 1, 1.33055996895, -0.818579912186, 2.19211006165, 2.18442988396
309, 1, 1, -0.896589994431, 0.142629981041, 1.31658005714, 1.44359004498
310, 1, 1, 3.45043992996, -0.701959967613, 2.23228001595, 2.2573800087
311, 1, 1, 1.2901699543, -0.872329950333, 2.1635799408, 1.97714996338
312, 1, 1, 0.277330011129, 0.319889992476, 0.127619996667, -0.00915999989957
313, 1, 1, 0.361790001392, -0.992770016193, 0.309029996395, 0.22527000308
314, 1, 1, 3.73007011414, -0.23882997036, 2.35140991211, 2.78114008904
315, 1, 1, 1.35808992386, 0.591509997845, 2.05983996391, 1.81140995026
316, 1, 1, -0.429719984531, -0.337639987469, 0.20841999352, 0.485969990492
317, 1, 1, -1.14933991432, 0.938879966736, -0.201719999313, 0.477710008621
318, 1, 1, 0.808589994907, 0.627149999142, 0.704180002213, 0.421530008316
319, 1, 1, 1.90324997902, -1.11715006828, 0.634190022945, 0.88107997179
320, 1, 1, 3.62502002716, -1.77351999283, 1.29805004597, 0.912490010262
321, 1, 1, -0.232649981976, -2.2270898819, 0.520299971104, 0.453979998827
322, 1, 1, -1.78382992744, -0.827929973602, -1.5858900547, -0.933690011501
323, 1, 1, -0.227209985256, 0.550729990005, 0.164199993014, 0.834770023823
324, 1, 1, -1.3442800045, -1.24909996986, -0.618879973888, -0.192739993334
325, 1, 1, 0.357669979334, -0.731750011444, 0.905439972878, 0.143130004406
326, 1, 1, 1.66292011738, -2.54438018799, 0.885609984398, 1.152780056
327, 1, 1, 0.861289978027, -0.462329983711, -0.281839996576, 0.649140000343
328, 1, 1, -0.012659996748, -0.46074000001, 0.767610013485, 1.08459997177
329, 1, 1, -1.90366995335, -1.34010994434, 0.740939974785, 0.529200017452
330, 1, 1, -0.102490007877, -0.688149988651, -0.344650000334, -0.325190007687
331, 1, 1, 0.365940004587, 0.182180017233, 0.760930001736, 0.325800001621
332, 1, 1, 1.88652002811, -0.0952399969101, 1.33056998253, 1.35801994801
333, 1, 1, -2.70163011551, -0.966230034828, 0.106780000031, -0.169499993324
334, 1, 1, 2.54035997391, -1.4633398056, 2.41690993309, 2.24521994591
335, 1, 1, -0.161080002785, -0.0359399989247, 0.0873399972916, 0.449149996042
336, 1, 1, -0.226960003376, -0.810180008411, 0.0525100007653, 0.452589988708
337, 1, 1, -0.553669989109, -0.174029991031, -1.06780004501, -0.360480010509
338, 1, 1, 0.162969976664, 0.744230031967, 0.336389988661, 0.287360012531
339, 1, 1, -0.0802900195122, -0.771250009537, -1.81154000759, -0.844940006733
340, 1, 1, 1.11226010323, -1.1151599884, 0.706900000572, 1.34542000294
341, 1, 1, -0.0494799911976, 0.774420022964, 0.928470015526, 0.549449980259
342, 1, 1, 0.392080008984, -2.14703989029, 0.548290014267, 0.894360005856
343, 1, 1, -0.234439998865, 0.23355999589, 1.24217998981, 1.24188995361
344, 1, 1, -0.683309972286, -1.71204996109, 0.871569991112, 0.816079974174
345, 1, 1, 2.18507003784, -0.452689945698, 0.639779984951, 1.35213005543
346, 1, 1, -1.5739300251, 1.40263009071, 0.436080008745, 0.767419993877
347, 1, 1, 1.91303002834, 1.88028991222, 1.06242001057, 1.52055001259
348, 1, 1, 1.06725001335, -1.62806987762, 3.14527988434, 3.17814993858
349, 1, 1, 0.536790013313, -0.708510041237, -0.0378299988806, 0.614889979362
350, 1, 1, 0.990009963512, -2.88532996178, 1.20632994175, 1.42193996906
351, 1, 1, 1.1919400692, 0.265039980412, 1.34402000904, 1.42590999603
352, 1, 1, -3.20404005051, -1.29530000687, -1.79229998589, -1.87509000301
353, 1, 1, 0.525079965591, -0.083319991827, -0.747780025005, -0.117710001767
354, 1, 1, -0.843719959259, 1.60335993767, -1.63206005096, -0.884180009365
355, 1, 1, -0.581780016422, 0.379720002413, -0.16917000711, 0.441260010004
356, 1, 1, 0.170769929886, -2.4002699852, 1.23813998699, 1.87653005123
357, 1, 1, 1.07682001591, -1.79515993595, 1.35767996311, 1.23840999603
358, 1, 1, 2.50470995903, 0.803669929504, 1.78700995445, 2.06546998024
359, 1, 1, 1.18516004086, 0.719099998474, 0.117700003088, 0.689220011234
360, 1, 1, 1.5207901001, -1.53440999985, -0.292030006647, 0.357840001583
361, 1, 1, -1.26559007168, 0.973070025444, -0.294310003519, -0.830640017986
362, 1, 1, 2.17264008522, 0.175760030746, 2.05578994751, 2.11906003952
363, 1, 1, 1.05584001541, -0.222640037537, 1.39672005177, 0.778259992599
364, 1, 1, 0.554120004177, 1.07396006584, 0.535269975662, 0.455909997225
365, 1, 1, -3.53512001038, -0.376760005951, -0.402399986982, -0.439079999924
366, 1, 1, -0.663420021534, -0.288619995117, -1.36489999294, -1.25636005402
367, 1, 1, 1.70037996769, -0.163519978523, 0.624270021915, 0.535549998283
368, 1, 1, 1.68441998959, 0.979139924049, 1.25354003906, 1.70329999924
369, 1, 1, 1.48737001419, -0.809890031815, 0.109860002995, 0.497539997101
370, 1, 1, 2.57209992409, 1.94397997856, 1.04131996632, 1.6610699892
371, 1, 1, 1.10554003716, 0.0188000202179, 0.60491001606, 0.794489979744
372, 1, 1, -1.63959991932, -2.56180000305, 0.342970013618, -0.24661000073
373, 1, 1, 2.23647999763, 0.666759967804, 1.29856002331, 1.58192002773
374, 1, 1, 3.04228997231, -0.87968993187, 1.70975995064, 2.37268996239
375, 1, 1, 1.54154002666, -0.868660092354, 2.16754007339, 2.47616004944
376, 1, 1, 0.742709994316, 0.0518699884415, 1.5157200098, 1.39512002468
377, 1, 1, -1.29661989212, -0.272780001163, 0.34729000926, 0.604969978333
378, 1, 1, -1.80154001713, -2.1727399826, 0.705089986324, -0.0267399996519
379, 1, 1, -0.100400000811, -0.792479991913, -0.21916000545, 0.0923900008202
380, 1, 1, -1.16167998314, 1.40867996216, -0.796410024166, -0.35666000843
381, 1, 1, 0.255760014057, 0.0755199939013, 1.15318000317, 1.67738997936
382, 1, 1, 2.15948009491, -1.03349995613, 0.619140028954, 0.981679975986
383, 1, 1, 0.694999992847, 1.58854007721, 1.59915995598, 2.48992991447
384, 1, 1, -0.655660033226, -0.332159996033, 0.611270010471, 0.374570012093
385, 1, 1, 0.484259963036, 0.546079993248, -0.538479983807, -0.38888001442
386, 1, 1, 1.77990996838, 0.155830025673, 0.712970018387, 0.340990006924
387, 1, 1, -0.703800022602, -0.812099993229, 0.379420012236, 0.365249991417
388, 1, 1, 1.09905004501, -2.8591299057, 1.41977000237, 1.2070800066
389, 1, 1, 1.75915002823, -1.4473900795, 0.696020007133, 1.07481002808
390, 1, 1, 0.289740025997, 0.0195199996233, -0.349299997091, 0.208519995213
391, 1, 1, 3.40004992485, 0.263489961624, 2.21509003639, 2.28268003464
392, 1, 1, 0.637149989605, 0.519030034542, 1.10143995285, 1.25784003735
393, 1, 1, -2.83035993576, 1.77623987198, -1.19333004951, -1.51456999779
394, 1, 1, -1.31752002239, 1.37178003788, 0.18588000536, 0.391240000725
395, 1, 1, -0.861469984055, -0.123470008373, 2.0362200737, 0.995419979095
396, 1, 1, 2.35438013077, -2.25237989426, 1.07813000679, 1.34689998627
397, 1, 1, -0.284000039101, -1.60585999489, 1.54578995705, 2.09059000015
398, 1, 1, -0.260800004005, 1.42866003513, -0.660849988461, -0.238509997725
399, 1, 1, -0.471769988537, 0.60254997015, 0.0722699984908, 1.0187100172
400, 1, 1, 1.57117009163, -0.90327000618, 1.49444997311, 1.63013005257
401, 1, 1, -0.373219996691, -1.05156004429, -0.0793000012636, 0.904670000076
402, 1, 1, 2.28774023056, -0.24728000164, 2.2310500145, 2.26748991013
403, 1, 1, 1.62515997887, -0.196020007133, 1.64444994926, 1.36802005768
404, 1, 1, 0.517619967461, -0.555999994278, 0.433809995651, 0.404599994421
405, 1, 1, 0.327580034733, -1.37267994881, 2.445499897, 2.16091990471
406, 1, 1, 2.62971019745, -0.145470023155, 1.30228996277, 0.981490015984
407, 1, 1, 2.79098987579, -0.690810084343, 1.39233994484, 3.06810998917
408, 1, 1, -1.07653999329, -0.0588200092316, 0.0907699987292, -0.679229974747
409, 1, 1, 0.36458003521, 2.55575990677, 1.84469997883, 1.54001998901
410, 1, 1, 0.913969993591, -0.974290013313, 0.255459994078, 0.398649990559
411, 1, 1, 1.05615997314, -0.508020043373, 0.92621999979, 1.31970000267
412, 1, 1, -1.01885998249, 1.97590005398, -0.968200027943, -1.10275995731
413, 1, 1, -2.7202501297, -0.146609902382, -0.13246999681, 0.155039995909
414, 1, 1, -0.0234400033951, -0.294180005789, -0.562099993229, -0.947790026665
415, 1, 1, 0.0879300236702, -1.1914100647, 0.966729998589, 1.62830996513
416, 1, 1, -0.166899994016, -0.283079981804, 0.547510027885, -0.0452399998903
417, 1, 1, -0.00394004583359, 1.09870004654, -0.130919992924, 0.309610009193
418, 1, 1, 0.828680038452, -2.86628007889, 1.55938005447, 1.80300998688
419, 1, 1, 0.10678999871, -0.0977500006557, 0.792599976063, 1.1046500206
420, 1, 1, -1.05509006977, -0.720490038395, -0.339859992266, 0.105820000172
421, 1, 1, -0.213799998164, -0.287160009146, -0.0375000014901, -0.360879987478
422, 1, 1, -0.042849957943, -1.10458993912, 0.484050005674, 0.0937400013208
423, 1, 1, 1.44739997387, 0.535820007324, -0.233549997211, 0.573539972305
424, 1, 1, -1.06681001186, -0.448570013046, 1.44466996193, 1.27418994904
425, 1, 1, 0.320160001516, -1.20925998688, 0.702260017395, 0.889670014381
426, 1, 1, -1.42587995529, -0.16036003828, 0.752070009708, 0.725549995899
427, 1, 1, -1.63244998455, -1.20427000523, 1.10301995277, 0.0779099985957
428, 1, 1, -0.717339992523, 0.969599962234, -0.0266900006682, 0.525839984417
429, 1, 1, -0.404089987278, 0.783309996128, -0.146019995213, -0.152339994907
430, 1, 1, 2.74449014664, -0.663869976997, 2.78415989876, 2.76668000221
431, 1, 1, 0.55221003294, 0.870490014553, 0.32894000411, 0.221269994974
432, 1, 1, 0.0273500084877, -1.35702991486, 1.62521004677, 1.67403995991
433, 1, 1, -0.594760000706, 0.225619986653, 0.13818000257, 0.827459990978
434, 1, 1, 1.28183996677, -0.133780002594, 0.308450013399, 0.961470007896
435, 1, 1, 2.36618995667, -0.0251899957657, 0.363620012999, 0.868960022926
436, 1, 1, 0.411350011826, -0.512950003147, 0.579419970512, 1.05121004581
437, 1, 1, 1.88172996044, -0.311710000038, -0.11155000329, 0.988489985466
438, 1, 1, 1.58315002918, -1.45623004436, 0.998740017414, 1.11892998219
439, 1, 1, 3.63566017151, -1.1838799715, 1.88104999065, 2.00602006912
440, 1, 1, 0.774339973927, -1.78446006775, 0.649810016155, 0.797779977322
441, 1, 1, 0.474920034409, -0.772400021553, 0.961820006371, 0.834529995918
442, 1, 1, 1.15782999992, 0.836750030518, 1.25442004204, 0.877990007401
443, 1, 1, 1.07993996143, -0.416820019484, 0.918519973755, 0.983980000019
444, 1, 1, 2.37448000908, 0.849680006504, 1.17042994499, 1.81227004528
445, 1, 1, 4.01297998428, 1.14945995808, 1.72743999958, 1.90763998032
446, 1, 1, -0.785299956799, -0.734160006046, -0.707819998264, 0.022539999336
447, 1, 1, 2.57773995399, -1.392359972, 1.90715003014, 2.10098004341
448, 1, 1, 1.02959001064, -0.680269956589, 0.78272998333, 0.984539985657
449, 1, 1, -1.17925000191, 0.982549965382, -0.486319988966, -0.232490003109
450, 1, 1, 1.69963991642, -2.49546003342, 1.18376994133, 1.07058000565
451, 1, 1, 1.4415500164, 0.589210033417, 1.31387996674, 2.27446007729
452, 1, 1, 1.18555998802, 0.00297999382019, 1.42210996151, 1.17598998547
453, 1, 1, 0.05872002244, 0.569720029831, 1.03585004807, 1.25671994686
454, 1, 1, 1.94278001785, 1.10087990761, 0.945689976215, 1.01651000977
455, 1, 1, 1.76851010323, -0.465030014515, 1.1953599453, 1.80463004112
456, 1, 1, 2.85585999489, -0.620219945908, 1.16866004467, 2.1774699688
457, 1, 1, 2.30072999001, 0.446710050106, 0.296259999275, 0.361530005932
458, 1, 1, -1.11270999908, 0.111989974976, 0.290650010109, 0.173419997096
459, 1, 1, 0.683799982071, -0.270619988441, 1.43684005737, 1.52177000046
460, 1, 1, 0.638660013676, 0.452179998159, -0.0756699964404, -0.0141700003296
461, 1, 1, 2.29732990265, -1.08486998081, 1.79803001881, 1.71218001842
462, 1, 1, -1.02070999146, 0.380409985781, -0.776440024376, -0.313250005245
463, 1, 1, -0.975430011749, 1.91755008698, 0.749610006809, 0.0389299988747
464, 1, 1, 2.87862992287, 0.362030029297, 0.921249985695, 1.64415001869
465, 1, 1, 0.637619972229, 0.852280020714, 0.886560022831, 0.567539989948
466, 1, 1, 2.80768013, -1.52945995331, 1.18991005421, 1.40635001659
467, 1, 1, 3.26561021805, -0.420910000801, 1.52734994888, 2.20171999931
468, 1, 1, -1.79685997963, -1.1206600666, -0.689520001411, -0.558910012245
469, 1, 1, -0.261229991913, -0.234329998493, 0.765320003033, 1.58258998394
470, 1, 1, 0.977300047874, 0.379220038652, 1.25862002373, 1.41426002979
471, 1, 1, 1.51663994789, -2.12777996063, 0.946359992027, 1.4132900238
472, 1, 1, 2.76074004173, -0.11904001236, 1.1323299408, 1.82987999916
473, 1, 1, -0.235919952393, 1.26256000996, 0.660009980202, 0.915149986744
474, 1, 1, 2.00616979599, -0.66912996769, 1.48960995674, 1.6340700388
475, 1, 1, 1.42006993294, 0.0765300393105, 0.38503998518, 1.48039996624
476, 1, 1, 0.492240011692, -0.711280047894, -0.368569999933, 0.00934000033885
477, 1, 1, 0.307209998369, -0.435950011015, 0.973039984703, 0.837989985943
478, 1, 1, 3.77306008339, -0.224519968033, 1.40441000462, 1.56831002235
479, 1, 1, 0.957159996033, 0.50173997879, 0.114859998226, 0.677810013294
480, 1, 1, 0.750530004501, -1.1635299921, 0.807389974594, 1.14503002167
481, 1, 1, 2.39779996872, 0.019119977951, 0.324099987745, 1.09975004196
482, 1, 1, -0.216059982777, -1.03920006752, 0.407319992781, 1.15863001347
483, 1, 1, -1.66278994083, 1.04168999195, -0.378159999847, -0.069770000875
484, 1, 1, 0.581039965153, -1.89362001419, 1.8734600544, 2.31379008293
485, 1, 1, 3.25074005127, -0.525879979134, 1.05081999302, 1.10899996758
486, 1, 1, -0.645280003548, -0.677780032158, 1.86263000965, 1.08789002895
487, 1, 1, 1.34676003456, 0.263339996338, 0.945339977741, 1.13928997517
488, 1, 1, 4.54755973816, -0.781379938126, 0.359609991312, 1.22104001045
489, 1, 1, 1.06874990463, -0.0431500077248, -0.0172600001097, 0.662360012531
490, 1, 1, -3.4896697998, -1.63346993923, -0.690859973431, -0.347869992256
491, 1, 1, -2.26440000534, 1.43443989754, -0.311309993267, -0.10055000335
492, 1, 1, 1.68782997131, 1.45109009743, -0.329129993916, 0.290639996529
493, 1, 1, 0.903739988804, -1.69738006592, 0.691449999809, 1.0102699995
494, 1, 1, -1.76328003407, -1.30014002323, -1.04859995842, -0.613730013371
495, 1, 1, 3.24542999268, -0.598690032959, 4.10441017151, 3.28803992271
496, 1, 1, 2.75539016724, -0.563769936562, 2.913189888, 3.20841002464
497, 1, 1, 0.854299962521, -0.753120005131, 0.377480000257, 1.07513999939
498, 1, 1, 2.43625998497, -0.439700067043, 2.23321008682, 3.28099989891
499, 1, 1, -0.754010021687, -0.542869985104, -1.39891004562, -0.816770017147
500, 1, 1, 1.75413990021, 2.36443996429, -0.0431700013578, -0.11603000015
501, 1, 1, 2.82299995422, -0.986540019512, 2.20012998581, 2.5441699028
502, 1, 1, -1.1198400259, 0.767159998417, -0.935779988766, -0.510110020638
503, 1, 1, 1.77289998531, 0.641899943352, 1.55962002277, 2.04415011406
504, 1, 1, 3.1469502449, -1.04909002781, 2.7014400959, 2.4294500351
505, 1, 1, 3.53100991249, 0.976269960403, 2.86578011513, 2.69370007515
506, 1, 1, -0.439759999514, 0.182119995356, -0.956380009651, -0.314339995384
507, 1, 1, 1.00945997238, 1.50282001495, -0.811290025711, -0.716700017452
508, 1, 1, -0.401310026646, -1.07747006416, 0.929620027542, 0.441410005093
509, 1, 1, 0.655070006847, 0.544110000134, 1.10116994381, 0.522390007973
510, 1, 1, 1.16819000244, -0.960190057755, 1.85294997692, 1.72088003159
511, 1, 1, -0.71132004261, -0.323820024729, -1.42778003216, -1.19193994999
512, 1, 1, 1.14191997051, 0.074599981308, 0.26861000061, 0.474860012531
513, 1, 1, -1.42839002609, 1.10282993317, -0.9203799963, -1.00616002083
514, 1, 1, 1.66181993484, 0.0240200161934, 1.15632998943, 1.60277998447
515, 1, 1, 2.16912007332, 0.995080053806, 0.594529986382, 0.501569986343
516, 1, 1, 1.51055002213, -1.16938996315, 1.15059995651, 0.766650021076
517, 1, 1, -0.0483700037003, 0.834569990635, -0.451279997826, -0.7940300107
518, 1, 1, -0.388810008764, 0.670269966125, 0.301560014486, 0.41699001193
519, 1, 1, 3.63529992104, -0.766680002213, 2.07861995697, 2.09200000763
520, 1, 1, -1.51061999798, 1.51122009754, -0.29265999794, 0.186499997973
521, 1, 1, -0.519330024719, -1.28930997849, 1.0763399601, 1.3983900547
522, 1, 1, 0.849140048027, 1.08223998547, 0.598550021648, 0.837530016899
523, 1, 1, 0.209439992905, -1.86741995811, -0.399479985237, -0.0243299994618
524, 1, 1, 0.894990026951, -1.62823009491, 1.28712999821, 1.20850002766
525, 1, 1, 3.68041014671, 0.324290037155, 2.06462001801, 1.87837994099
526, 1, 1, 0.424040019512, -0.657200038433, 2.53968000412, 1.74030995369
527, 1, 1, 1.98292005062, 0.462040066719, 0.339150011539, 0.643530011177
528, 1, 1, -0.309300005436, 1.27209997177, 0.294679999352, 0.44091001153
529, 1, 1, 0.586040019989, 0.572059988976, 0.990190029144, 1.37292003632
530, 1, 1, -0.292189985514, 1.03399002552, 0.755990028381, 0.988529980183
531, 1, 1, 0.844699978828, -0.506260037422, 0.181490004063, 0.813939988613
532, 1, 1, 0.247380018234, -1.47788000107, 1.8942899704, 1.6007900238
533, 1, 1, -0.489799976349, 0.615759968758, -0.127330005169, -0.425630003214
534, 1, 1, -0.71180999279, -0.306630015373, 0.791509985924, 0.710290014744
535, 1, 1, 0.3649700284, -1.48847007751, 0.0244900006801, 0.0485100001097
536, 1, 1, 1.6779999733, 0.308139979839, 1.28086996078, 0.55246001482
537, 1, 1, 0.836640000343, -0.724959969521, 1.53551995754, 1.98313999176
538, 1, 1, 0.208709985018, -0.975170016289, -0.0520999990404, 0.371809989214
539, 1, 1, 0.920019984245, -1.70150005817, 1.40147995949, 1.35334002972
540, 1, 1, -1.24611997604, -0.563840031624, 0.208529993892, 0.549950003624
541, 1, 1, 1.22570991516, 0.478349983692, 1.43748998642, 1.31623005867
542, 1, 1, 1.44037997723, -0.882820010185, 0.526409983635, 0.920599997044
543, 1, 1, 1.21445000172, -0.817370057106, 1.28285002708, 0.973890006542
544, 1, 1, 2.58577013016, -1.36245000362, 1.52776002884, 1.68711996078
545, 1, 1, 4.44654989243, -0.241990089417, 2.0886900425, 2.8843100071
546, 1, 1, -2.33172988892, -1.83172988892, -0.458880007267, 0.233720004559
547, 1, 1, -0.743729948997, -0.559509992599, -0.304259985685, 0.168919995427
548, 1, 1, -1.43421006203, 0.12808996439, 0.224969998002, 0.603579998016
549, 1, 1, -0.103870034218, 2.01909017563, -0.108249999583, 0.254850000143
550, 1, 1, -1.43415999413, 0.294039964676, 0.495680004358, 0.498239994049
551, 1, 1, 2.55243992805, -1.608700037, 1.40213000774, 2.39260005951
552, 1, 1, 1.47582006454, -0.319539964199, 0.721520006657, 0.659739971161
553, 1, 1, 0.986600041389, -2.00311994553, 0.76697999239, 1.47486996651
554, 1, 1, 0.550289988518, -0.865869998932, 1.07389998436, 1.46326994896
555, 1, 1, -0.988740026951, 0.153659999371, -0.347380012274, -0.474099993706
556, 1, 1, 2.15249013901, 0.582970023155, 0.812780022621, 1.54040002823
557, 1, 1, -3.86406993866, 0.0656499862671, -1.32903003693, -1.60490000248
558, 1, 1, 0.947610020638, 1.21584999561, 1.34815001488, 2.0516500473
559, 1, 1, 0.351940006018, -0.884719967842, 2.25154995918, 1.77781999111
560, 1, 1, 0.768050014973, -0.579510033131, 0.643930017948, 0.841729998589
561, 1, 1, 2.11281013489, -0.232750058174, 1.07380998135, 1.41401994228
562, 1, 1, 2.41195011139, 0.0205699205399, 1.75137996674, 1.89289999008
563, 1, 1, 2.3903799057, 0.51053994894, 0.294999986887, 0.34797000885
564, 1, 1, -0.524959921837, -2.9240398407, 1.11196994781, 1.03220999241
565, 1, 1, 4.00611019135, -0.369149923325, 1.93499004841, 1.89730000496
566, 1, 1, 1.81550002098, 0.371959984303, 2.11912989616, 1.91577994823
567, 1, 1, -1.54732000828, -2.10698008537, 0.726729989052, 0.760609984398
568, 1, 1, -0.671230018139, -0.697130024433, -0.65922999382, -0.240749999881
569, 1, 1, -0.905470013618, -0.730890035629, 0.182760000229, 1.40111994743
570, 1, 1, -0.631760001183, 2.33260011673, 0.553699970245, 1.46765005589
571, 1, 1, 1.05132997036, 0.226029992104, 0.485460013151, 0.850009977818
572, 1, 1, 0.348169982433, -0.136749997735, 1.1540800333, 1.63841998577
573, 1, 1, 2.24526000023, -0.0611000061035, 1.65179002285, 1.25557994843
574, 1, 1, -0.33246999979, -0.827650010586, -0.0730300024152, -0.0144999995828
575, 1, 1, 0.307129979134, -0.57651001215, 0.674099981785, 0.834309995174
576, 1, 1, 4.22004032135, -0.264320135117, 2.1130399704, 1.73864996433
577, 1, 1, 1.15738010406, -1.73873996735, -0.0495200008154, 0.836470007896
578, 1, 1, -0.427949994802, 0.426189988852, -0.829760015011, -0.287099987268
579, 1, 1, -0.41969999671, -0.0360200107098, 0.527100026608, 0.811749994755
580, 1, 1, -2.53438997269, 1.54495000839, -0.313219994307, -0.437299996614
581, 1, 1, -0.784520030022, 0.058620005846, 0.711220026016, 0.717180013657
582, 1, 1, 0.234889999032, -0.117290005088, 1.0309599638, 0.833320021629
583, 1, 1, -1.44358003139, -0.637240052223, -1.48150002956, -1.16518998146
584, 1, 1, -1.65229010582, -0.418890058994, -0.492029994726, -0.588980019093
585, 1, 1, 0.929859995842, -0.0974199771881, -0.997579991817, -0.675220012665
586, 1, 1, 1.57450008392, 0.334559977055, 2.36030006409, 2.04786992073
587, 1, 1, -0.278560012579, 0.949679970741, -0.584020018578, -0.742380023003
588, 1, 1, -2.04756999016, 0.0886900424957, 1.15541994572, 0.43125000596
589, 1, 1, 0.867480039597, -0.567139983177, 0.794480025768, 1.01017999649
590, 1, 1, -1.55516004562, 0.502739965916, 0.80940002203, 0.607940018177
591, 1, 1, 0.373299986124, 0.393460005522, 0.106329999864, 0.499170005322
592, 1, 1, 0.199019998312, 0.350980013609, -1.37406003475, -0.0246600005776
593, 1, 1, 2.48695993423, -0.575499951839, 1.73520004749, 1.68308997154
594, 1, 1, 0.0938400328159, 0.992220044136, 0.123680002987, 0.481059998274
595, 1, 1, -1.20783996582, 0.244219988585, -0.155009999871, 0.350080013275
596, 1, 1, -0.792640089989, -1.3921200037, 0.905239999294, 1.32990002632
597, 1, 1, 4.28015995026, 0.146460056305, 2.20301008224, 2.52905988693
598, 1, 1, -1.12172996998, 1.42456996441, -1.55955994129, -1.17989003658
599, 1, 1, 0.961139976978, 0.523119986057, 0.722360014915, 0.836409986019
600, 1, 1, 1.56492006779, -2.24326014519, 0.693989992142, 1.60825002193
601, 1, 1, 1.26140999794, -0.770750045776, -0.367909997702, 0.752110004425
602, 1, 1, 0.0837099850178, -0.600489974022, -0.0051299999468, 0.153280004859
603, 1, 1, 0.694099962711, 0.471499979496, 1.08266997337, 1.36687004566
604, 1, 1, -0.376890003681, -0.396109998226, 1.57290005684, 1.91094994545
605, 1, 1, 2.22554016113, 0.926900029182, 0.847410023212, 0.859309971333
606, 1, 1, -2.23838996887, -1.0083899498, 0.201000005007, 0.739359974861
607, 1, 1, 3.31926012039, 0.250800013542, 1.10622000694, 1.89616000652
608, 1, 1, -2.44754981995, -0.374410033226, -0.751389980316, -0.57390999794
609, 1, 1, 1.87861001492, -0.119889974594, 0.644299983978, 1.2477799654
610, 1, 1, 1.61412000656, 0.349240005016, -0.0143200000748, 0.505140006542
611, 1, 1, -0.910679996014, 0.202300012112, 0.472020000219, 0.238000005484
612, 1, 1, 0.390450030565, 0.729230046272, 0.814819991589, 1.42737996578
613, 1, 1, 1.17465996742, 1.65043997765, -0.229980006814, 0.469260007143
614, 1, 1, -0.339180022478, -0.319539994001, 0.400770008564, 0.690680027008
615, 1, 1, 0.0567799806595, -1.10539996624, 2.00957989693, 1.09646999836
616, 1, 1, 0.991609990597, 0.712549984455, -0.394650012255, -0.00863000005484
617, 1, 1, 2.02729010582, 0.491570055485, 1.47009003162, 1.4665800333
618, 1, 1, 0.603519976139, -0.260760009289, 0.442110002041, 0.684689998627
619, 1, 1, 1.22341001034, 0.613209962845, 1.84055995941, 1.43195998669
620, 1, 1, -0.370149970055, -3.29615020752, -0.0539599992335, -0.021190000698
621, 1, 1, 4.17202997208, -1.64562988281, 2.91872000694, 3.27133011818
622, 1, 1, 1.13986992836, 0.784009993076, 0.922429978848, 0.777320027351
623, 1, 1, 2.54574012756, -2.37141990662, 1.68229997158, 1.86997997761
624, 1, 1, 1.76308989525, -0.198350012302, 0.228489995003, -0.0707499980927
625, 1, 1, 1.71179008484, -0.663749992847, 1.38362002373, 1.45923995972
626, 1, 1, 4.20071983337, 0.767740011215, 3.33831000328, 2.98895001411
627, 1, 1, 0.199180006981, 2.65161991119, 1.08643996716, 0.689779996872
628, 1, 1, 1.22658002377, -0.856480002403, 0.712689995766, 1.10264003277
629, 1, 1, 1.94327998161, 1.40249991417, 1.68024003506, 1.4071199894
630, 1, 1, -0.165419995785, -1.76636004448, 0.800180017948, 1.46245002747
631, 1, 1, 0.546819984913, -0.295040011406, 0.961600005627, 1.60225999355
632, 1, 1, 3.11281013489, -1.13023006916, 1.49182999134, 1.53125
633, 1, 1, 0.886840045452, -1.58705997467, 0.834429979324, 0.838069975376
634, 1, 1, -1.4303599596, 1.31641995907, -1.51374995708, -2.03867006302
635, 1, 1, -0.622290015221, 0.227710008621, 0.577099978924, 1.28312003613
636, 1, 1, 2.65151000023, -1.57291007042, 0.432300001383, 1.01697003841
637, 1, 1, 2.32929992676, 0.729839980602, 1.64471995831, 1.95673000813
638, 1, 1, 0.154190003872, 1.18459010124, -0.308429986238, -0.248080000281
639, 1, 1, 3.29765987396, -1.56428003311, 1.88687002659, 1.89247000217
640, 1, 1, -0.128769993782, 0.713129997253, 0.638650000095, 0.890339970589
641, 1, 1, -1.53469002247, 0.888130068779, -1.43494999409, -0.953909993172
642, 1, 1, -0.527880012989, 0.385720014572, -0.725409984589, -0.370260000229
643, 1, 1, 2.31200003624, -0.817139923573, 0.431149989367, 1.22563004494
644, 1, 1, 0.290120005608, -1.32806003094, -0.709510028362, -0.521659970284
645, 1, 1, 1.68054997921, -0.409489989281, 1.41183996201, 1.27041995525
646, 1, 1, 1.36861002445, -0.327749967575, 1.66395998001, 1.83788001537
647, 1, 1, -0.352750003338, 1.37823009491, -0.0495299994946, 0.210950002074
648, 1, 1, 1.55482006073, 0.529340028763, 1.84906995296, 1.26463997364
649, 1, 1, -0.118130028248, 1.80648994446, -0.43259999156, -0.366789996624
650, 1, 1, 1.75648999214, -1.58323001862, 0.650940001011, 1.31215000153
651, 1, 1, 2.19293999672, 0.411200046539, -0.370070010424, 0.359739989042
652, 1, 1, -1.25504994392, -1.07111001015, -0.00190000003204, -0.130659997463
653, 1, 1, 1.85731005669, 0.260309994221, 1.68201994896, 2.26631999016
654, 1, 1, 2.00201010704, -0.982610046864, 1.41521000862, 1.73959994316
655, 1, 1, -1.08199000359, -0.376410007477, -2.13877010345, -1.25478005409
656, 1, 1, 2.91087007523, -0.427450060844, 0.59649002552, 1.04042005539
657, 1, 1, 0.0938200056553, 0.276140004396, 2.58537006378, 2.30902004242
658, 1, 1, 0.482740014791, 0.456880003214, 0.462089985609, 1.29829001427
659, 1, 1, 0.7306599617, -0.00284001231194, 1.21356999874, 1.1411999464
660, 1, 1, -2.14104008675, -0.522059977055, -1.35650002956, -1.75072002411
661, 1, 1, -0.853100061417, -1.6655600071, 0.534539997578, -0.0658999979496
662, 1, 1, -3.33553004265, 0.511569976807, -1.14603996277, -1.4084700346
663, 1, 1, -0.354389995337, -0.107430003583, 0.772639989853, 0.633750021458
664, 1, 1, -1.70036005974, -0.950299978256, -1.62937998772, -1.0083899498
665, 1, 1, 2.47214984894, -0.166849970818, 2.72994995117, 2.64354991913
666, 1, 1, -0.0356500148773, -2.06614995003, 0.459080010653, 0.941089987755
667, 1, 1, 0.493829995394, -0.351009994745, 1.15969002247, 1.76080000401
668, 1, 1, -2.63275003433, -0.196529984474, -1.04888999462, -1.20364999771
669, 1, 1, 3.92749023438, -0.631270051003, 1.74188005924, 1.94396996498
670, 1, 1, 0.475109994411, -0.723349988461, 2.07715988159, 1.37220001221
671, 1, 1, 1.34272003174, 0.884059965611, 1.3127399683, 1.38083004951
672, 1, 1, -3.13892006874, 1.16174006462, 0.863089978695, 0.996609985828
673, 1, 1, -1.631270051, 1.35789000988, 0.113940000534, -0.0545900017023
674, 1, 1, 3.80483007431, -1.06701004505, 1.16770994663, 2.00784993172
675, 1, 1, 0.699109971523, 0.375469982624, 0.85092997551, 0.593060016632
676, 1, 1, 2.10638999939, -1.16692996025, 1.06685996056, 1.53550004959
677, 1, 1, 1.08090007305, -1.91688001156, -0.222249999642, 0.351570010185
678, 1, 1, 0.227629989386, -1.07272994518, 1.40374994278, 1.56605994701
679, 1, 1, 3.17757987976, -1.29771995544, 1.19046998024, 1.38110995293
680, 1, 1, 1.69603991508, -1.44765996933, 1.37899005413, 1.81263995171
681, 1, 1, -0.529280006886, -0.799660027027, 0.17825999856, 0.205469995737
682, 1, 1, 0.730780005455, 0.0588399767876, -0.826409995556, -0.184400007129
683, 1, 1, -2.16859006882, -0.144070029259, -0.762690007687, -0.564270019531
684, 1, 1, -0.188160002232, -0.542100012302, 0.153860002756, 0.668519973755
685, 1, 1, 1.43849992752, -0.09535998106, 0.997759997845, 0.837230026722
686, 1, 1, -1.82169008255, 0.132589995861, 0.0257300008088, 0.398829996586
687, 1, 1, 2.81764984131, 0.468789935112, 1.03690004349, 1.58618998528
688, 1, 1, -0.94344997406, -0.44525000453, -0.222000002861, -0.514750003815
689, 1, 1, 3.68406009674, 0.97794008255, 1.42973005772, 2.15944004059
690, 1, 1, -0.734420001507, 0.836880028248, -0.989139974117, -0.572440028191
691, 1, 1, -1.898250103, 0.427810013294, -0.363139986992, -0.195199996233
692, 1, 1, 0.204379975796, -1.4698600769, 0.122769996524, -0.06026000157
693, 1, 1, 3.02307987213, -0.86036002636, 1.00321996212, 1.40605998039
694, 1, 1, 3.65701007843, -0.30531001091, 2.43998003006, 2.48295998573
695, 1, 1, 1.15577995777, -0.588140010834, 0.554830014706, 0.243320003152
696, 1, 1, 2.22402000427, -0.235719978809, 1.92411005497, 2.06415009499
697, 1, 1, 0.813449978828, 0.602030038834, 1.42250001431, 1.67814004421
698, 1, 1, -0.460590004921, 1.39283001423, 0.66482001543, 0.329140007496
699, 1, 1, 1.05368006229, -0.489540010691, 2.09393000603, 1.56589996815
700, 1, 1, 0.0184600353241, -1.18449997902, 1.19658994675, 1.19725000858
701, 1, 1, 0.290699958801, -2.03512001038, 0.996949970722, 1.69735002518
702, 1, 1, -0.763570010662, 1.68726992607, -1.36930000782, -0.656819999218
703, 1, 1, 0.0769499540329, 1.31696999073, -0.309080004692, -0.0600900016725
704, 1, 1, -0.667439997196, -1.78920006752, 0.889580011368, 1.34937000275
705, 1, 1, 2.78226017952, -2.88364005089, 1.92785000801, 2.28325009346
706, 1, 1, 1.29649996758, 0.188180029392, -0.0963099971414, 0.360599994659
707, 1, 1, 0.706869959831, -0.755789995193, 1.38138997555, 1.33808004856
708, 1, 1, -1.33730006218, -0.40314000845, 0.727339982986, -0.0589700005949
709, 1, 1, 2.95412993431, 2.28253006935, 0.301230013371, 0.938700020313
710, 1, 1, 0.625220000744, 1.26541996002, 0.484699994326, 0.652639985085
711, 1, 1, -2.39679002762, -0.63765001297, -0.923560023308, -0.974629998207
712, 1, 1, 0.173020005226, 1.22492003441, -0.438580006361, -0.44960001111
713, 1, 1, -1.87125003338, -0.14039003849, 0.436980009079, 0.151050001383
714, 1, 1, -0.498369991779, -1.64105010033, 0.959800004959, 1.75705003738
715, 1, 1, -2.48988008499, 0.501560032368, -1.14040994644, -0.726220011711
716, 1, 1, -0.12270000577, -0.934260010719, -0.547290027142, -0.237609997392
717, 1, 1, 2.68126988411, -2.49138998985, 1.95316004753, 1.56291997433
718, 1, 1, -0.535760045052, -2.20622014999, -0.748700022697, -0.170159995556
719, 1, 1, 1.59719991684, -0.399640023708, 2.80974006653, 2.17969989777
720, 1, 1, -0.106480002403, 0.0579999983311, -0.868409991264, -0.113830000162
721, 1, 1, 2.52349996567, 0.457020044327, 2.04874992371, 1.7564599514
722, 1, 1, -0.56896007061, -2.34859991074, 1.13757002354, 0.468369990587
723, 1, 1, 1.61227011681, -1.89658999443, 1.45481002331, 1.25770998001
724, 1, 1, -1.01910007, 0.963820040226, -0.360799998045, -0.851109981537
725, 1, 1, -0.857280015945, -1.37935996056, -0.472359985113, 0.205520004034
726, 1, 1, -0.658169984818, -1.60490989685, 0.366470009089, 0.916869997978
727, 1, 1, -0.737070024014, -1.44956994057, -0.326420009136, 0.209839999676
728, 1, 1, -0.174190014601, 0.781849980354, -0.506990015507, 0.0898199975491
729, 1, 1, 1.66295993328, 0.53991997242, 2.17830991745, 2.57211995125
730, 1, 1, 1.64737010002, 0.428350031376, -0.886849999428, 0.045490000397
731, 1, 1, 0.234700024128, -1.6622800827, 1.70468997955, 2.3208398819
732, 1, 1, 1.27066993713, 0.158289968967, 0.528479993343, 0.987380027771
733, 1, 1, 0.397549986839, 0.634729981422, 0.386009991169, -0.431300014257
734, 1, 1, 1.93825006485, 1.05865001678, 0.919200003147, 1.66756999493
735, 1, 1, -0.154750004411, -0.034430000931, -0.183809995651, 0.120590001345
736, 1, 1, 1.41513001919, 1.29144990444, 0.522199988365, 0.587520003319
737, 1, 1, 2.09272003174, -1.36075997353, 1.03236997128, 0.873080015182
738, 1, 1, 1.53749001026, -0.477470040321, 0.5725299716, 0.970950007439
739, 1, 1, 0.973450005054, -1.05378997326, 0.479930013418, 0.196720004082
740, 1, 1, 1.19480991364, -0.255729973316, 1.19498002529, 1.89914000034
741, 1, 1, -0.974539995193, -0.184340000153, -0.60777002573, -0.604210019112
742, 1, 1, 3.56349992752, -0.581379890442, 1.98406004906, 1.75531005859
743, 1, 1, -1.04303002357, 0.0584299862385, -0.110019996762, -0.293099999428
744, 1, 1, 2.05878996849, -0.520290076733, 1.8616399765, 1.86255002022
745, 1, 1, 2.60770988464, 1.1124099493, 1.29960000515, 1.23163998127
746, 1, 1, -0.100960016251, 1.59394001961, -0.236990004778, 0.183310002089
747, 1, 1, -0.245139956474, -2.50294017792, -0.190029993653, -0.0405399985611
748, 1, 1, 2.82265996933, 0.363460063934, 1.17510998249, 1.64549994469
749, 1, 1, 0.616410017014, -1.18171000481, 0.35857000947, 0.774969995022
750, 1, 1, 0.566320002079, -0.0324599742889, 0.0600100010633, 0.124430000782
751, 1, 1, 1.7022100687, 1.67702996731, 0.500419974327, 0.585539996624
752, 1, 1, -1.12006998062, 0.600730061531, -0.199699997902, 0.222069993615
753, 1, 1, 0.479939937592, -1.88867998123, -0.423350006342, -0.205090001225
754, 1, 1, 3.80979013443, 0.00151002407074, 1.6594799757, 1.76285004616
755, 1, 1, -0.398999989033, -0.891699969769, -0.537999987602, -0.135350003839
756, 1, 1, 0.889440059662, -0.317840009928, 0.0721099972725, 0.510330021381
757, 1, 1, -0.937959909439, -1.07037997246, 0.755760014057, 0.641550004482
758, 1, 1, -3.17326998711, -1.60396981239, -1.98759996891, -1.81044995785
759, 1, 1, -0.386059999466, -2.50767993927, -0.0490799993277, 0.296840012074
760, 1, 1, -0.130260050297, -1.24327993393, -0.502210021019, -0.237550005317
761, 1, 1, -0.514890015125, -1.13367009163, 1.6236499548, 1.8914899826
762, 1, 1, 2.99424004555, 0.9806599617, 2.03175997734, 2.35382008553
763, 1, 1, 1.45007991791, 0.37612003088, 0.333689987659, 1.34492003918
764, 1, 1, 0.97990000248, -0.191339999437, -0.0441699996591, -0.344839990139
765, 1, 1, 1.52404999733, -0.611350059509, 0.41833999753, 0.288560003042
766, 1, 1, -0.216609984636, -1.17549002171, 1.743729949, 1.44997000694
767, 1, 1, 1.79288995266, -1.13802993298, 1.42139005661, 2.11698007584
768, 1, 1, -0.0731599926949, 2.02424001694, -0.198249995708, 0.491510003805
769, 1, 1, 1.10246002674, -1.49398005009, 0.262120008469, 0.375919997692
770, 1, 1, -2.11357998848, 0.706120014191, 0.206609994173, -0.243949994445
771, 1, 1, -0.858170032501, -0.548030018806, 0.2285400033, 0.241669997573
772, 1, 1, 0.092370018363, -0.540109992027, 0.795080006123, 1.22799003124
773, 1, 1, -1.3800098896, 0.215810000896, 0.280010014772, 0.929799973965
774, 1, 1, -1.9326800108, -1.44128000736, -0.473879992962, -0.432550013065
775, 1, 1, -1.71875, 0.7356300354, 0.0320799984038, -0.263650000095
776, 1, 1, -0.496650010347, 0.576470017433, 0.140000000596, 0.185279995203
777, 1, 1, 1.13905000687, 0.410449981689, -0.401630014181, -0.308120012283
778, 1, 1, 0.183459997177, 0.509559988976, -0.459309995174, 0.0290799997747
779, 1, 1, -0.0622299909592, -1.63011002541, 0.813510000706, 0.848380029202
780, 1, 1, 1.76732993126, -2.45629000664, 1.57278001308, 2.06465005875
781, 1, 1, -0.986250042915, -0.300650030375, 0.113470003009, 0.279309988022
782, 1, 1, 1.02832996845, -0.321609973907, -0.0454399995506, 0.328990012407
783, 1, 1, 1.07210993767, 1.01768994331, 0.188409999013, 0.434269994497
784, 1, 1, 0.444849967957, -1.1624699831, 1.81949996948, 2.48405003548
785, 1, 1, 0.767379999161, 0.449560016394, 2.12617993355, 1.96688997746
786, 1, 1, 2.73377990723, 0.240679979324, 1.39008998871, 2.061439991
787, 1, 1, 2.58219003677, -1.01428997517, 0.124930001795, 0.440990000963
788, 1, 1, -1.16876995564, 0.18582996726, -0.763400018215, -0.0515599995852
789, 1, 1, 0.684830009937, -0.0146899819374, -0.227019995451, 0.0631000027061
790, 1, 1, 2.72624015808, -0.563459992409, 0.931479990482, 1.10157001019
791, 1, 1, 2.26269006729, 0.190369963646, 0.532079994678, 1.02094995975
792, 1, 1, 2.82027006149, -1.59733009338, 2.24036002159, 2.24651002884
793, 1, 1, 1.26829004288, -0.556630015373, 0.51266002655, 1.48117995262
794, 1, 1, 1.15706992149, -1.59095001221, 1.70543003082, 1.7663500309
795, 1, 1, -0.653980016708, -0.328880012035, 1.09991002083, 1.16085004807
796, 1, 1, 3.66462993622, -1.01663005352, 0.41220998764, 0.957059979439
797, 1, 1, 1.79147005081, 0.28484994173, 1.14256000519, 1.38680994511
798, 1, 1, -0.685920000076, 0.0196800231934, 0.491299986839, 0.378820002079
799, 1, 1, -0.118459999561, 0.121840000153, 0.86769002676, 1.006270051
800, 1, 1, 0.209869980812, -0.750869989395, 0.262360006571, 0.571470022202
801, 1, 1, 0.52542001009, 1.151720047, -0.517139971256, 0.133450001478
802, 1, 1, -1.58939003944, -1.30072999001, 0.357560008764, 0.0825999975204
803, 1, 1, 2.46219015121, 0.724150061607, 1.39260005951, 1.5167299509
804, 1, 1, 1.42384004593, -0.0842799544334, 0.419499993324, 0.697189986706
805, 1, 1, -0.944560050964, -2.32741999626, 0.919700026512, 1.11109995842
806, 1, 1, 0.845079958439, -0.701839983463, 0.978559970856, 1.03633999825
807, 1, 1, -1.49273002148, 1.69002997875, -0.880720019341, -0.61208999157
808, 1, 1, -0.288680016994, -0.593959987164, 0.0878700017929, 0.0873299986124
809, 1, 1, -1.87329006195, -0.400470018387, -0.406489998102, -0.248459994793
810, 1, 1, 1.1726000309, -0.40544000268, 2.03097009659, 1.92130994797
811, 1, 1, 3.44385004044, 0.729269981384, 1.24984002113, 0.882600009441
812, 1, 1, 0.0760900005698, 0.151670008898, 0.621909976006, 0.56857997179
813, 1, 1, -1.26159000397, -0.232409954071, -1.32271003723, -0.495709985495
814, 1, 1, -2.03009986877, 2.8903799057, -1.20956003666, -1.07410001755
815, 1, 1, 0.0832999944687, -0.583760023117, 0.0380900017917, 0.766340017319
816, 1, 1, 0.695860028267, -3.00850009918, 2.02344989777, 1.64960002899
817, 1, 1, 0.918869972229, 1.4712100029, -0.590240001678, -0.543280005455
818, 1, 1, 2.27452993393, 0.0920300483704, 2.18501996994, 2.11477994919
819, 1, 1, -1.18084001541, 0.45232000947, -0.309749990702, 0.454230010509
820, 1, 1, 1.90300011635, 0.177140057087, 0.968100011349, 1.3394099474
821, 1, 1, 1.19015002251, -0.605250000954, 1.5039999485, 1.87774002552
822, 1, 1, -0.813209950924, 1.59646987915, -2.16497993469, -1.4582400322
823, 1, 1, 0.176199987531, -0.433679997921, 1.11061000824, 1.50296998024
824, 1, 1, 0.240740060806, -2.08394002914, 1.58985996246, 1.28352999687
825, 1, 1, 0.141279995441, 1.19975996017, 0.73313999176, 0.650460004807
826, 1, 1, 0.0745900273323, -1.66286993027, -0.589600026608, -0.308120012283
827, 1, 1, 3.66804981232, 1.40838992596, 1.20807003975, 1.87607002258
828, 1, 1, -0.132980003953, -0.246500000358, 0.438980013132, 0.667450010777
829, 1, 1, -0.292060017586, -1.20982003212, 1.75890004635, 1.36027002335
830, 1, 1, 0.843789994717, -1.08334994316, 0.998660027981, 1.29001998901
831, 1, 1, 2.41456985474, -2.91460990906, 2.43583989143, 3.13662004471
832, 1, 1, -0.472289979458, -1.50010991096, 0.647220015526, 0.908510029316
833, 1, 1, 3.28102993965, 0.123589992523, 0.606029987335, 0.663030028343
834, 1, 1, 0.891879916191, 1.22723996639, 2.3740799427, 1.94990003109
835, 1, 1, 3.39140987396, 0.736770033836, 1.64701998234, 1.57135999203
836, 1, 1, -2.85924005508, 0.639299988747, -1.13686001301, -0.895439982414
837, 1, 1, 0.813799977303, -0.331259965897, 1.45831000805, 1.48837995529
838, 1, 1, -0.476480007172, -3.08992004395, 1.18358004093, 1.74234998226
839, 1, 1, -1.76669001579, -0.965470075607, 0.550390005112, 0.412059992552
840, 1, 1, 0.948049962521, 0.483370006084, 1.03508996964, 1.33299005032
841, 1, 1, -2.19759988785, -1.55339992046, 0.832000017166, 0.748080015182
842, 1, 1, 1.84540998936, 1.55875003338, 1.84641003609, 2.11279988289
843, 1, 1, 1.96122002602, 0.818819999695, 1.73092997074, 1.76010000706
844, 1, 1, -0.816980004311, -0.108900010586, -1.96829998493, -1.81306004524
845, 1, 1, -2.45865011215, 0.442910075188, -1.54183995724, -1.20850002766
846, 1, 1, 0.461280018091, -1.23388004303, 1.28580999374, 0.643000006676
847, 1, 1, 0.395490020514, 0.604350030422, 1.21443998814, 0.715390026569
848, 1, 1, -0.603770017624, 0.959210038185, -0.794600009918, 0.257030010223
849, 1, 1, 1.49911999702, -1.08586001396, 1.90808999538, 1.86856997013
850, 1, 1, -1.58089995384, -1.28286004066, -0.846809983253, -0.420810014009
851, 1, 1, 0.24820998311, -0.721089959145, 1.79340004921, 2.09431004524
852, 1, 1, 0.501249909401, -4.1692700386, -0.555989980698, 0.221190005541
853, 1, 1, 1.0899900198, -1.29780995846, 1.42145001888, 1.80116999149
854, 1, 1, -0.847490012646, -2.08652997017, -0.33873000741, -0.037879999727
855, 1, 1, -1.19672000408, 1.07930004597, 0.276740014553, 0.0667600035667
856, 1, 1, 1.81324005127, 0.56796002388, 1.49878001213, 1.59429001808
857, 1, 1, -2.29150009155, 0.0375599861145, 0.50297999382, 0.0618500001729
858, 1, 1, 1.13927006721, -0.663250029087, 0.301990002394, 1.10018002987
859, 1, 1, -1.00394999981, 1.39759004116, 1.17532002926, 0.891600012779
860, 1, 1, 2.31469988823, -1.46420001984, 2.19146990776, 3.10608005524
861, 1, 1, 1.66490006447, 0.144259989262, 0.736190021038, 1.1710100174
862, 1, 1, -2.00640010834, -0.455619931221, -0.876779973507, 0.0157399997115
863, 1, 1, -0.770969986916, -1.15187001228, -0.197109997272, 0.142979994416
864, 1, 1, 1.29774999619, -2.02976989746, 2.62529993057, 2.23810005188
865, 1, 1, 0.718580007553, 0.20598000288, -1.22379994392, 0.0506700016558
866, 1, 1, 1.10746002197, -0.607679963112, 2.34832000732, 2.10047006607
867, 1, 1, -0.623580038548, -1.63298010826, 0.341980010271, 0.52455997467
868, 1, 1, -1.67780995369, 0.108590006828, 0.511900007725, 0.39210999012
869, 1, 1, 0.127950012684, 0.710550010204, 0.590719997883, 0.0366499982774
870, 1, 1, 1.2762799263, 1.20361995697, 1.30931997299, 0.818270027637
871, 1, 1, -0.166520014405, 0.423080027103, 0.209849998355, 0.445630013943
872, 1, 1, -0.63130992651, 2.23992991447, 0.0281499996781, 0.529240012169
873, 1, 1, 1.14600002766, 1.49416005611, 0.228729993105, 0.0394000001252
874, 1, 1, 2.0719499588, 1.03982996941, 0.541069984436, 0.892570018768
875, 1, 1, 2.84230995178, -0.601750016212, 0.928369998932, 1.56725001335
876, 1, 1, -0.293239980936, 0.97321999073, 0.703149974346, 0.744090020657
877, 1, 1, 1.41789996624, -0.545920014381, 0.986240029335, 1.39874994755
878, 1, 1, 2.82641005516, 0.856710016727, 0.656729996204, 0.752080023289
879, 1, 1, 3.45171999931, -0.640239953995, 2.54176998138, 2.84159994125
880, 1, 1, 1.43937003613, 0.858729958534, 0.509050011635, 0.868910014629
881, 1, 1, 1.81317996979, -0.700479984283, 1.20315003395, 1.10133004189
882, 1, 1, 2.64997005463, 0.905849993229, 3.05274009705, 2.84098005295
883, 1, 1, 3.01540994644, -1.09659004211, 2.06287002563, 2.11671996117
884, 1, 1, -0.563210010529, -0.0437099933624, 1.37600004673, 0.695039987564
885, 1, 1, 1.0790899992, 1.03367006779, 1.53337001801, 2.0030798912
886, 1, 1, 4.4574098587, -1.44325006008, 2.99574995041, 2.92583990097
887, 1, 1, -0.063120007515, -1.41618001461, 0.564849972725, -0.11454000324
888, 1, 1, 2.38554000854, 0.151799917221, 3.38066005707, 2.68665003777
889, 1, 1, -0.117779992521, -0.279639989138, -0.559409976006, -0.177249997854
890, 1, 1, -1.51557004452, 1.41370999813, 0.456820011139, -0.0853699967265
891, 1, 1, 1.42140996456, 1.1320899725, 0.216869994998, 1.00992000103
892, 1, 1, -0.217319995165, 1.08270001411, 0.513700008392, 0.420619994402
893, 1, 1, 3.61807012558, 0.564610123634, 2.89664006233, 3.22127008438
894, 1, 1, 0.105010002851, -0.0334900021553, 0.970879971981, 0.896700024605
895, 1, 1, -0.852470040321, -1.90720999241, 0.49415999651, 0.0564900003374
896, 1, 1, 1.5858900547, 0.728250026703, 0.969200015068, 1.94568002224
897, 1, 1, -1.3101900816, 1.18357002735, -1.01467001438, -0.685379981995
898, 1, 1, 2.34950017929, -1.72400009632, 0.687269985676, 0.949460029602
899, 1, 1, 2.0971698761, -0.0804699659348, 0.521260023117, 0.533829987049
900, 1, 1, 2.98762989044, -0.935150027275, 1.81792998314, 1.59209001064
901, 1, 1, 1.48154997826, -0.569030046463, 1.07273995876, 1.0929800272
902, 1, 1, 1.2314800024, -0.124719977379, 1.4140599966, 1.78410995007
903, 1, 1, -1.15312004089, -0.151140034199, -0.897090017796, -0.249929994345
904, 1, 1, -1.82772004604, 2.42551994324, -2.29588007927, -2.36827993393
905, 1, 1, -0.649379968643, 0.302459985018, -0.131860002875, 0.188510000706
906, 1, 1, -1.56113004684, 0.443289995193, -0.0348200015724, 0.390280008316
907, 1, 1, -0.351530015469, 0.942449986935, -0.773750007153, -0.493140012026
908, 1, 1, 2.0177500248, -0.241790056229, 0.15136000514, 0.868640005589
909, 1, 1, 0.558750033379, 0.0557300150394, 1.50047004223, 1.00356996059
910, 1, 1, 0.292279958725, 1.48070001602, -1.9842300415, -1.1543200016
911, 1, 1, 2.66499996185, -0.0413199663162, 0.699069976807, 0.6603500247
912, 1, 1, 0.987840056419, -1.89561998844, 1.18422996998, 1.52894997597
913, 1, 1, 2.89435982704, -1.5591199398, 1.42894005775, 2.04189991951
914, 1, 1, -1.29499006271, 0.291250050068, 0.641659975052, 0.421979993582
915, 1, 1, 1.52142000198, -1.17086005211, 1.47075998783, 1.74611997604
916, 1, 1, 0.952950000763, 0.751549959183, 0.0910400003195, 0.910030007362
917, 1, 1, 3.23519992828, 0.990640044212, 1.17451000214, 2.01202011108
918, 1, 1, 1.9256401062, 0.619380056858, 0.0699499994516, 0.627529978752
919, 1, 1, 2.53973007202, -0.731830000877, -0.0421099998057, 0.152970001101
920, 1, 1, 0.04824000597, -1.1179599762, 0.723500013351, 0.587520003319
921, 1, 1, 2.04881000519, 0.499030053616, 1.7540999651, 1.38024997711
922, 1, 1, -1.81747996807, 0.241840004921, -1.13624000549, -0.355439990759
923, 1, 1, 2.32907986641, 2.65116000175, 0.413729995489, 0.498530000448
924, 1, 1, -1.93778991699, -0.473849952221, 0.328200012445, 0.364600002766
925, 1, 1, -0.580680012703, 0.166719987988, -1.55104994774, -0.57949000597
926, 1, 1, 0.743570029736, 2.0928299427, 0.277060002089, 0.142910003662
927, 1, 1, -0.0987900197506, -0.905189990997, -0.286920011044, -0.0292099993676
928, 1, 1, 0.0263900011778, 0.16209000349, -0.669459998608, -0.729210019112
929, 1, 1, -0.983780026436, 0.22537997365, 0.534449994564, 0.117870002985
930, 1, 1, 3.39610004425, -0.246340036392, 1.19760000706, 1.41773998737
931, 1, 1, 1.14277994633, 0.468679994345, 0.558950006962, 0.570439994335
932, 1, 1, 1.72646009922, -2.7456202507, 1.26066994667, 1.49898004532
933, 1, 1, -0.395220011473, 0.272540003061, -0.841189980507, -0.338369995356
934, 1, 1, 0.689480006695, -0.508840024471, 0.892279982567, 1.10509002209
935, 1, 1, 0.605120003223, 0.189840003848, 0.310519993305, 0.853559970856
936, 1, 1, 1.28336000443, -0.300339967012, 0.208910003304, 0.95709002018
937, 1, 1, -0.717859983444, 0.245760008693, 0.282959997654, 0.447930008173
938, 1, 1, 2.36072993279, -0.663530051708, 0.958140015602, 1.73338997364
939, 1, 1, 0.82365000248, 0.963189959526, -0.141859993339, 0.666059970856
940, 1, 1, 0.775030016899, -0.236429959536, -0.0670299977064, 0.679409980774
941, 1, 1, -1.79868006706, -0.127219974995, -1.45089995861, -1.51876997948
942, 1, 1, 1.12599992752, -1.39186000824, 0.808920025826, 0.321330010891
943, 1, 1, 0.629519999027, -0.371079981327, 2.10038995743, 1.33913004398
944, 1, 1, -1.30605995655, -0.934599995613, -1.09619998932, -1.12021005154
945, 1, 1, 1.8391699791, 1.58783006668, 0.489540010691, 1.10365998745
946, 1, 1, 1.73881995678, -2.17495989799, 1.34378004074, 2.00223994255
947, 1, 1, 1.89016997814, -0.0272300243378, 1.37624001503, 1.52455997467
948, 1, 1, -1.16780996323, 1.64848995209, -0.229460000992, -0.559629976749
949, 1, 1, -0.553650021553, -0.673169970512, 2.02569007874, 1.82647001743
950, 1, 1, -0.669310033321, 2.05321002007, -1.35581994057, -1.03126001358
951, 1, 1, 1.28226995468, -1.91771006584, 2.21756005287, 2.36525988579
952, 1, 1, 3.85417985916, -0.149000048637, 1.30832004547, 1.74757003784
953, 1, 1, -0.846879959106, -1.2123799324, 0.691269993782, 0.534579992294
954, 1, 1, 0.995809972286, 0.448669970036, 1.65732002258, 1.29059004784
955, 1, 1, -0.945389986038, -0.594190001488, -0.269360005856, 0.300720006227
956, 1, 1, -0.0231900066137, -0.373229980469, -0.461299985647, -0.164069995284
957, 1, 1, -1.57168996334, 1.28137004375, -0.421420007944, 0.109980002046
958, 1, 1, 0.487630009651, -0.346310019493, 0.751659989357, 1.27893996239
959, 1, 1, 0.0101099908352, 0.971809983253, 0.729449987411, 1.4561599493
960, 1, 1, -2.82846999168, -0.0927700996399, -1.4584300518, -1.17611002922
961, 1, 1, -2.03241014481, 1.26645004749, -0.154170006514, 0.109319999814
962, 1, 1, 2.755890131, -1.35690999031, 0.354409992695, 0.983250021935
963, 1, 1, 0.241109997034, 0.563650012016, 0.341470003128, 0.300889998674
964, 1, 1, 0.213590011001, 0.628809988499, 0.969160020351, 1.17285001278
965, 1, 1, -1.33465003967, -1.06264996529, -0.69431000948, -0.581759989262
966, 1, 1, 1.81089997292, -1.04532003403, 1.16143000126, 1.31588995457
967, 1, 1, 1.58846998215, 0.274890005589, 1.29101002216, 1.16240000725
968, 1, 1, -0.127479970455, -1.04803991318, 1.19981002808, 0.878449976444
969, 1, 1, -0.711400032043, -0.278699994087, -0.296849995852, -0.149949997663
970, 1, 1, -0.744799971581, -0.23925998807, 0.447919994593, 0.313529998064
971, 1, 1, 0.944750010967, -0.0688900351524, 0.161510005593, 0.209659993649
972, 1, 1, 1.7293599844, 1.03057992458, 1.21247005463, 1.2935500145
973, 1, 1, 1.45305001736, 0.320809960365, 0.707629978657, 1.86170005798
974, 1, 1, -0.47135001421, 0.00348998606205, 0.395289987326, 0.426609992981
975, 1, 1, 2.82868003845, -1.14759993553, 1.79688000679, 1.60502004623
976, 1, 1, 0.0544799864292, -0.495799988508, 1.14593994617, 0.844879984856
977, 1, 1, 0.83209002018, 1.80453002453, 0.473549991846, 0.205500006676
978, 1, 1, 2.14790010452, -1.22412002087, 0.682990014553, 0.881609976292
979, 1, 1, -1.75042998791, -1.38445007801, 0.97431999445, 1.24290001392
980, 1, 1, -0.0139900147915, -0.526970028877, 1.24884998798, 1.3353600502
981, 1, 1, 0.308200001717, 0.220480009913, -0.16998000443, -0.53671002388
982, 1, 1, 1.34349000454, 1.28155004978, 1.71308004856, 1.79220998287
983, 1, 1, -1.90105998516, -1.09905993938, -0.199839994311, 0.0915099978447
984, 1, 1, -1.17105007172, -0.716530025005, 1.36661994457, 1.2260799408
985, 1, 1, -2.11567997932, -0.221419990063, -0.5583999753, -0.762929975986
986, 1, 1, 2.06329011917, -0.0403701066971, 1.51749002934, 1.38206994534
987, 1, 1, 0.298069983721, 0.464549988508, -0.713580012321, -0.229039996862
988, 1, 1, 1.0734899044, 1.68701004982, -0.392589986324, 0.882969975471
989, 1, 1, 1.0291800499, 0.928979992867, 1.01297998428, 1.63086998463
990, 1, 1, 1.1405299902, -0.265249967575, 0.924409985542, 1.09092998505
991, 1, 1, -1.86755990982, 1.92522001266, -2.13083004951, -0.964479982853
992, 1, 1, 1.38618993759, -0.313170015812, 1.090280056, 0.755360007286
993, 1, 1, 1.46950995922, -1.05471003056, 1.7711199522, 2.56292009354
994, 1, 1, -0.433310031891, -3.17040991783, 0.40097001195, 0.815919995308
995, 1, 1, 0.604969978333, 0.810629963875, 0.287710011005, 0.302100002766
996, 1, 1, -0.749150037766, -3.3636701107, -0.52976000309, -0.0881099998951
997, 1, 1, 0.536460042, -1.36702001095, -0.120360001922, 0.0855600014329
998, 1, 1, -0.510349988937, -0.671190023422, -0.137549996376, 0.079580001533
999, 1, 1, -2.68222999573, 0.0937299728394, -1.23474001884, -1.05490005016
1000, 1, 1, 0.250520020723, -1.02594006062, 0.00657000020146, -0.295709997416
1001, 1, 1, -2.2157599926, -0.355959951878, -1.74057996273, -1.62483000755
1002, 1, 1, -0.187720000744, -1.06658005714, 0.054699998349, 0.498349994421
1003, 1, 1, 2.12560987473, -0.225449979305, 1.32015001774, 1.74426996708
1004, 1, 1, 0.0580800771713, -2.23655986786, 1.15309000015, 0.974629998207
1005, 1, 1, 0.68487995863, 1.70501995087, 0.523829996586, 0.72556000948
1006, 1, 1, -1.41759991646, 0.348020017147, -1.46642005444, -0.403589993715
1007, 1, 1, -1.58183002472, 0.489769995213, -0.154909998178, -0.262730002403
1008, 1, 1, -1.16236996651, 0.442130029202, 0.110639996827, 0.540950000286
1009, 1, 1, 0.671210050583, 0.747449994087, 0.136620000005, 0.818560004234
1010, 1, 1, 0.00457000732422, -2.67663002014, 1.80181002617, 1.8710000515
1011, 1, 1, 1.38007009029, -2.65096998215, 1.40410995483, 1.55612003803
1012, 1, 1, 0.715319991112, 1.5850199461, 0.652440011501, 0.891269981861
1013, 1, 1, 1.86054992676, -0.649029970169, 1.05031001568, 1.48768997192
1014, 1, 1, 3.29751014709, 0.722950100899, 1.62690997124, 1.5011600256
1015, 1, 1, 1.4591499567, -1.37987005711, 0.557269990444, 0.776859998703
1016, 1, 1, 1.74901008606, -0.194850027561, 0.592029988766, 0.749040007591
1017, 1, 1, 1.56152999401, 0.285449981689, 0.175610005856, 0.936619997025
1018, 1, 1, -0.712090015411, -0.483229994774, -1.1505099535, -1.17210996151
1019, 1, 1, 0.0334300100803, -0.336510002613, -0.412979990244, 0.103950001299
1020, 1, 1, 1.6348900795, 1.48874998093, 1.59353995323, 0.936200022697
1021, 1, 1, -2.05932998657, 0.0237700939178, -1.17373001575, -0.594889998436
1022, 1, 1, 0.782550036907, -0.72583001852, 1.25650000572, 1.27382004261
1023, 1, 1, 2.405189991, 0.84670996666, 0.896969974041, 1.00426995754
1024, 1, 1, 1.96158003807, 0.41296005249, -0.344509989023, -0.404790014029
1025, 1, 1, 0.52815002203, -1.65184998512, 0.84771001339, 0.541480004787
1026, 1, 1, 1.70001995564, -0.710199952126, 1.18719005585, 1.421200037
1027, 1, 1, 0.0769500136375, -0.638949990273, 0.0347799994051, 1.0647200346
1028, 1, 1, 2.85695004463, 1.17040991783, -0.0697399973869, 0.22337000072
1029, 1, 1, 1.71143007278, -1.18570995331, 0.399630010128, 0.540040016174
1030, 1, 1, 2.97150993347, -0.422089934349, 1.62484002113, 2.03449010849
1031, 1, 1, 0.454710006714, -0.82069003582, -0.0625500008464, 0.250409990549
1032, 1, 1, 1.32028007507, 0.292360007763, 0.574379980564, 0.68475997448
1033, 1, 1, -0.128589987755, -2.34688997269, 0.62115997076, 1.06746995449
1034, 1, 1, 2.34816002846, -1.18998003006, 1.44483995438, 1.71712994576
1035, 1, 1, -0.385349988937, 0.586390018463, 0.478460013866, 0.456910014153
1036, 1, 1, -1.79732000828, 1.27355992794, -0.212009996176, 0.197280004621
1037, 1, 1, -0.527450025082, 1.1176700592, 0.311710000038, -0.0917999967933
1038, 1, 1, 2.22521996498, -0.657779932022, 1.03884994984, 1.40796005726
1039, 1, 1, 1.79727995396, -1.64932000637, 1.32567000389, 2.34306001663
1040, 1, 1, 1.95150995255, 0.192609965801, 2.01859998703, 2.13860011101
1041, 1, 1, -0.232339978218, -1.25787997246, 0.84224998951, 0.382699996233
1042, 1, 1, -0.881669998169, 0.564030051231, 0.670080006123, 0.478520005941
1043, 1, 1, 1.10367000103, -1.93127000332, 0.790549993515, 0.869920015335
1044, 1, 1, 1.34651994705, -1.10335993767, 1.63694000244, 1.59547996521
1045, 1, 1, 1.83559000492, -0.0385700464249, 1.41202998161, 1.88973999023
1046, 1, 1, -1.07034993172, -0.675170004368, 0.79388999939, 0.0119899995625
1047, 1, 1, 3.26388001442, 2.72203993797, 1.00644004345, 1.71466994286
1048, 1, 1, -0.400900006294, 0.307600021362, -0.375340014696, -0.366129994392
1049, 1, 1, -0.414670020342, -1.14023005962, -1.03409004211, -0.774619996548
1050, 1, 1, 0.29358997941, 0.389149993658, 0.572160005569, 0.395500004292
1051, 1, 1, -0.315580010414, -2.70429992676, 0.850019991398, 0.975880026817
1052, 1, 1, 0.484609991312, -0.352589994669, 0.956390023232, 1.42085003853
1053, 1, 1, 3.54994010925, 1.27019989491, 1.05613005161, 1.18246996403
1054, 1, 1, 2.09974002838, -1.70397996902, 0.357609987259, 0.573289990425
1055, 1, 1, -1.59200000763, 0.889440059662, 0.567809998989, 0.322439998388
1056, 1, 1, 2.25211000443, 0.394109964371, 1.84030997753, 1.76198005676
1057, 1, 1, 1.15647006035, 2.06463003159, 0.546109974384, 0.712140023708
1058, 1, 1, 1.86310994625, -0.225489974022, -0.340270012617, 0.0550500005484
1059, 1, 1, 3.13293004036, 2.0248901844, 1.56799995899, 1.55755996704
1060, 1, 1, 1.90702998638, 0.692809939384, 1.20799994469, 1.30823004246
1061, 1, 1, 3.75569009781, -1.84326994419, 2.67428994179, 2.87604999542
1062, 1, 1, -0.25296998024, 0.935649991035, 0.513379991055, 1.05426001549
1063, 1, 1, 1.76051008701, 0.792770028114, 1.32904005051, 0.892490029335
1064, 1, 1, 2.08516001701, 0.656480073929, 1.96044003963, 1.75426995754
1065, 1, 1, 0.953449964523, 1.3070499897, -0.0549400001764, 0.271400004625
1066, 1, 1, 3.13178992271, -0.663110017776, 2.38872003555, 2.38480997086
1067, 1, 1, -0.148359954357, 1.98709988594, 0.165409997106, 1.1317499876
1068, 1, 1, 1.81553995609, -0.160640001297, 0.994509994984, 1.15392005444
1069, 1, 1, -1.01849997044, -1.31411993504, 0.057610001415, 0.465700000525
1070, 1, 1, 1.18376994133, -0.486630022526, -0.404940009117, 0.449510008097
1071, 1, 1, 1.63636004925, -1.5121999979, 2.38086009026, 1.92402005196
1072, 1, 1, 1.85448002815, -0.429960012436, 1.600020051, 0.889050006866
1073, 1, 1, 3.82236003876, 0.0865800380707, 2.18390989304, 1.21100997925
1074, 1, 1, 2.58612012863, -1.62748003006, 3.32744002342, 3.48090004921
1075, 1, 1, 2.07129001617, 0.328190028667, 0.161060005426, 1.05008995533
1076, 1, 1, -2.74344015121, 0.742040038109, 0.125890001655, 0.824060022831
1077, 1, 1, -1.02372992039, -0.837709963322, -0.0268699992448, 0.199349999428
1078, 1, 1, 0.251930058002, -1.91753005981, -0.213440001011, 0.330830007792
1079, 1, 1, 1.44420003891, -0.646939992905, -0.0677499994636, 0.148010000587
1080, 1, 1, 0.155050039291, -1.70805001259, 1.68273997307, 1.33287000656
1081, 1, 1, -1.19319999218, 0.011579990387, 0.763870000839, 0.994939982891
1082, 1, 1, 4.56093978882, -0.437820196152, 2.34793996811, 3.0854101181
1083, 1, 1, 1.3181899786, -2.59801006317, 2.13751006126, 2.27360010147
1084, 1, 1, 0.638629972935, -0.568769991398, 1.0022200346, 0.737529993057
1085, 1, 1, 3.45517015457, -0.142650008202, 2.96671009064, 3.24254989624
1086, 1, 1, 0.203839987516, -0.43979999423, 0.810429990292, 0.363270014524
1087, 1, 1, 1.7146999836, -1.20257997513, 1.64666998386, 1.74169003963
1088, 1, 1, 1.85903000832, -1.00892996788, 2.65987992287, 2.50454998016
1089, 1, 1, 0.405220001936, 0.403220027685, -0.378089994192, -0.664740025997
1090, 1, 1, 0.545430004597, 0.934189975262, 0.836239993572, 0.850510001183
1091, 1, 1, -1.33217990398, -1.15719997883, 0.779929995537, 0.950070023537
1092, 1, 1, -1.14284992218, -0.226589977741, 1.46525001526, 0.960669994354
1093, 1, 1, 2.95360994339, 1.33297002316, 1.19960999489, 2.11043000221
1094, 1, 1, -0.459530055523, -1.70276999474, 1.54417002201, 1.92669999599
1095, 1, 1, 1.48928999901, 0.534169912338, 0.430839985609, 0.77381002903
1096, 1, 1, 0.22365000844, 0.754729986191, 0.208440005779, 0.146569997072
1097, 1, 1, 1.2155200243, 0.748479962349, 0.10326000303, 0.895739972591
1098, 1, 1, 3.28966999054, 0.798289895058, 0.629509985447, 1.46890997887
1099, 1, 1, 0.814329981804, -0.491850018501, 1.00202000141, 0.862590014935
1100, 1, 1, -2.64614009857, 1.73982000351, -0.288230001926, -0.342330008745
1101, 1, 1, 3.61408996582, -3.11716985703, 1.83003997803, 2.52237010002
1102, 1, 1, 1.53690993786, -0.895269989967, 0.876900017262, 1.29981994629
1103, 1, 1, 0.921660006046, 1.38328003883, 1.9129999876, 1.83960998058
1104, 1, 1, -0.796270012856, -0.967309951782, -0.750069975853, 0.0374299995601
1105, 1, 1, 0.814090013504, -2.02371001244, 0.498149991035, 0.895229995251
1106, 1, 1, 0.384499996901, 0.218820005655, 1.39776003361, 1.60330998898
1107, 1, 1, -1.36019003391, 2.42641019821, 0.140819996595, -0.192289993167
1108, 1, 1, 0.357720017433, -0.743960022926, 1.75097000599, 1.22416996956
1109, 1, 1, 3.40838003159, 0.139699935913, 0.789650022984, 2.0192899704
1110, 1, 1, 1.20067000389, 0.533509969711, 0.550300002098, 1.30375003815
1111, 1, 1, -2.06156992912, -1.43997001648, -1.03759002686, -0.293960005045
1112, 1, 1, 1.30690002441, 1.51744008064, 1.1583199501, 0.935509979725
1113, 1, 1, 1.87697005272, 0.16900998354, 1.15845000744, 1.14522004128
1114, 1, 1, -1.7002799511, -1.02230000496, -0.523109972477, -0.284990012646
1115, 1, 1, -0.246020004153, 0.58693999052, -0.680649995804, -0.188639998436
1116, 1, 1, 2.70447015762, 1.47301006317, 2.01076006889, 2.13756990433
1117, 1, 1, -1.99001002312, -3.03403019905, -1.07138001919, -1.06016004086
1118, 1, 1, 0.0303300023079, 1.86884999275, 1.3244600296, 1.62679994106
1119, 1, 1, -2.08416008949, 1.45016002655, 0.814419984818, -0.145070001483
1120, 1, 1, -0.13332003355, -2.11511993408, 1.23266005516, 1.06938004494
1121, 1, 1, 2.27448987961, -0.25320994854, 1.30586004257, 1.05516004562
1122, 1, 1, 0.371619999409, 0.78409999609, -0.177110001445, 0.342220008373
1123, 1, 1, 0.299959987402, 0.131319999695, 0.970399975777, 1.10578000546
1124, 1, 1, -0.550639986992, 0.685840010643, -0.705060005188, -0.871429979801
1125, 1, 1, 1.0325499773, 0.5568100214, 1.57583999634, 1.4018599987
1126, 1, 1, 1.54080998898, -1.92671000957, 1.00431001186, 1.32273995876
1127, 1, 1, -0.702480018139, -1.2023999691, 0.19538000226, 0.7771499753
1128, 1, 1, -1.41119003296, -0.661329984665, 0.769469976425, 0.398110002279
1129, 1, 1, 0.845329999924, 0.783489942551, 0.269400000572, 0.645399987698
1130, 1, 1, 2.00177001953, -2.03311014175, 1.28545999527, 1.51568996906
1131, 1, 1, 0.786759972572, -0.24728000164, 0.951479971409, 1.30335998535
1132, 1, 1, 0.32801002264, -0.985390007496, 1.28603005409, 1.76036000252
1133, 1, 1, 1.51858997345, -0.997210025787, 0.629289984703, 0.902849972248
1134, 1, 1, 2.19764995575, 1.2623500824, 0.115029998124, 0.395429998636
1135, 1, 1, 0.861739993095, 1.71581995487, 0.993839979172, 1.37250995636
1136, 1, 1, -0.593650043011, 0.64349001646, 0.787410020828, 1.18242001534
1137, 1, 1, 2.06061983109, 0.0227199792862, 0.13560000062, 0.943270027637
1138, 1, 1, -1.39025998116, 0.722140014172, -0.760599970818, -0.478179991245
1139, 1, 1, 2.79475998878, 1.91761994362, 2.10770010948, 2.00851011276
1140, 1, 1, 1.43378996849, -0.869249999523, 1.38813996315, 0.89209997654
1141, 1, 1, 1.32666993141, -0.850629985332, 2.09080004692, 1.54367995262
1142, 1, 1, -0.0895600318909, 1.21884000301, -0.19170999527, -0.0146500002593
1143, 1, 1, 2.15294003487, -0.617019951344, 2.07331991196, 3.01171994209
1144, 1, 1, 0.956900000572, -0.427799969912, 1.42550003529, 0.398090004921
1145, 1, 1, 0.699090003967, -0.397410035133, 0.454039990902, 0.674130022526
1146, 1, 1, 2.47275018692, -0.0820900201797, 1.27095997334, 1.48830997944
1147, 1, 1, 1.62349009514, -2.78917002678, 2.86722993851, 2.41188001633
1148, 1, 1, 0.249769985676, -2.12733006477, 0.200639992952, 0.772759974003
1149, 1, 1, 2.65255999565, -0.226239919662, 0.835349977016, 1.2890599966
1150, 1, 1, 0.967289984226, -0.95744997263, -0.802020013332, 0.355430006981
1151, 1, 1, 0.572149991989, 2.05104994774, 0.492779999971, 0.290329992771
1152, 1, 1, 0.00260999985039, -0.0399499982595, 1.1807500124, 0.96465998888
1153, 1, 1, -0.954200029373, -0.10583999753, -0.32638001442, -0.257429987192
1154, 1, 1, 0.0716900229454, -0.968529999256, 0.699339985847, 0.535040020943
1155, 1, 1, -0.330599963665, -1.29453992844, -0.46180999279, -0.410430014133
1156, 1, 1, -2.88427996635, -1.01085996628, -1.15236997604, -0.994099974632
1157, 1, 1, 2.9469499588, 0.553149938583, 1.19386005402, 1.28261005878
1158, 1, 1, -1.47165989876, -0.662419974804, 0.0184000004083, -0.379610002041
1159, 1, 1, -1.80362010002, -0.659560024738, -0.49404001236, -0.79005998373
1160, 1, 1, 4.11618995667, -1.69295012951, 2.28700995445, 2.32582998276
1161, 1, 1, 0.072450004518, -0.222350001335, 1.08104002476, 1.4024399519
1162, 1, 1, -0.711699962616, -0.416439980268, 1.76382994652, 1.35938000679
1163, 1, 1, -1.97667002678, -0.501290082932, -1.59686994553, -1.40050005913
1164, 1, 1, 1.94407999516, 0.239060044289, -0.202859997749, -0.0144400000572
1165, 1, 1, 2.18232989311, -0.975109994411, 2.33369994164, 1.8102799654
1166, 1, 1, 0.437759935856, -1.68172001839, 1.18339002132, 1.3125
1167, 1, 1, 1.65946006775, 0.0479800105095, 2.20448994637, 2.53020000458
1168, 1, 1, -1.11738991737, -1.9696700573, -0.757879972458, -0.543240010738
1169, 1, 1, 0.190600007772, -0.937199950218, 0.613900005817, 0.38938999176
1170, 1, 1, 1.73198008537, -0.84636002779, 2.2207300663, 2.86543011665
1171, 1, 1, -0.00157999992371, -1.04936003685, 0.739480018616, 1.00487995148
1172, 1, 1, -1.92418003082, 1.40179991722, -1.63178002834, -0.990390002728
1173, 1, 1, -0.894630014896, 1.01619005203, 0.98027998209, 0.756500005722
1174, 1, 1, 4.55743980408, -0.711300134659, 2.36118006706, 3.22265005112
1175, 1, 1, -0.40531000495, -0.357289999723, -0.174840003252, -0.0702700018883
1176, 1, 1, 1.71566009521, -0.111079990864, 2.65296006203, 2.09944009781
1177, 1, 1, -2.1841199398, 2.16322016716, -1.29023003578, -1.50133001804
1178, 1, 1, 2.93000984192, 0.502509951591, 1.52623999119, 1.66517996788
1179, 1, 1, 0.403490006924, 0.196489989758, -0.967960000038, -0.80259001255
1180, 1, 1, 2.77770996094, -0.091570019722, 2.05894994736, 2.40913009644
1181, 1, 1, 0.23015999794, 0.111200004816, -0.13925999403, 0.0155300004408
1182, 1, 1, 3.30078983307, -0.347030043602, 1.22950005531, 1.07500004768
1183, 1, 1, -0.987739980221, -0.0997399687767, 0.114880003035, -0.368369996548
1184, 1, 1, 1.32059001923, -0.241789996624, 1.9280500412, 2.32433009148
1185, 1, 1, 1.53626012802, 0.623760044575, 1.49852001667, 1.89777994156
1186, 1, 1, 1.41981983185, -2.6105799675, 1.01346004009, 1.10495996475
1187, 1, 1, -2.81398010254, -0.580479979515, -0.259950011969, 0.319590002298
1188, 1, 1, 0.3608700037, 0.460550010204, 1.29648995399, 1.43869996071
1189, 1, 1, 1.15114998817, -1.67227005959, 1.45668005943, 2.10891008377
1190, 1, 1, 1.01671004295, 1.34641003609, 0.787559986115, 0.843609988689
1191, 1, 1, -2.5541100502, 1.28764998913, -0.291310012341, -0.718240022659
1192, 1, 1, -1.99419999123, -0.0757600665092, -0.0929799973965, -0.278459995985
1193, 1, 1, 1.04313993454, -1.42348003387, 1.42412996292, 1.95351004601
1194, 1, 1, 1.37747001648, 0.451509982347, 0.723730027676, 0.599129974842
1195, 1, 1, -0.179009974003, -2.00423002243, -1.14098000526, -0.804560005665
1196, 1, 1, 0.819959998131, 2.98965978622, 1.02213001251, 1.52627003193
1197, 1, 1, -1.41717004776, -0.0970700383186, -0.345629990101, 0.229750007391
1198, 1, 1, -0.789830029011, -1.93121004105, 0.32091999054, 0.222609996796
1199, 1, 1, 0.239679992199, -0.192660003901, 0.806200027466, 0.42013001442
1200, 1, 1, 0.486750006676, -0.200029984117, 0.378239989281, 0.577610015869
1201, 1, 1, -0.135450005531, -0.0365500040352, 0.55814999342, 0.798600018024
1202, 1, 1, -0.248649999499, -0.719349980354, -0.121430002153, 0.185530006886
1203, 1, 1, 0.247899979353, 0.781919956207, 0.267010003328, 0.193020001054
1204, 1, 1, 2.70529007912, -1.98011004925, 1.60549998283, 1.86696004868
1205, 1, 1, 1.82651996613, 0.608920037746, 1.16298997402, 1.16348004341
1206, 1, 1, -0.824699997902, -0.639240026474, 0.684350013733, 0.773739993572
1207, 1, 1, 3.34535002708, -0.749490022659, 1.69830000401, 1.6353700161
1208, 1, 1, -1.94482004642, 0.203040003777, -0.695370018482, -0.693390011787
1209, 1, 1, 0.952740013599, -0.916999995708, -0.698870003223, -0.564719974995
1210, 1, 1, -0.382170021534, -0.8478500247, 0.429170012474, 1.18754005432
1211, 1, 1, 1.93692994118, 0.0136299729347, 1.12026000023, 1.68986999989
1212, 1, 1, -1.88205003738, -1.2851099968, -0.133729994297, 0.21833999455
1213, 1, 1, 5.08240032196, 2.23013997078, 1.43957996368, 1.97177994251
1214, 1, 1, 1.49654996395, -0.699550032616, 0.970350027084, 0.947449982166
1215, 1, 1, -0.861180007458, -1.99273991585, 0.0592399984598, -0.187560006976
1216, 1, 1, -2.34979009628, 0.0829900503159, -0.371639996767, 0.0787400007248
1217, 1, 1, -4.06545972824, 0.793239951134, -2.22732996941, -1.80996000767
1218, 1, 1, 1.14028000832, 0.0173599720001, 0.176650002599, 0.542389988899
1219, 1, 1, -0.976830005646, -1.48093008995, -0.479090005159, 0.0528599992394
1220, 1, 1, -1.00557005405, 0.0376500189304, -1.03409004211, -0.517170011997
1221, 1, 1, 4.27062988281, 0.0337500572205, 2.34312009811, 2.69444990158
1222, 1, 1, -2.65506005287, 0.304579973221, -0.427080005407, -0.712689995766
1223, 1, 1, 1.30331003666, -0.296450018883, 2.65682005882, 2.49559998512
1224, 1, 1, 1.50117993355, 0.593599975109, 0.736980021, 0.507669985294
1225, 1, 1, -0.9676399827, -0.94901996851, 0.00390999997035, 0.153559997678
1226, 1, 1, 1.15662992001, -0.728949964046, 0.891170024872, 0.197029992938
1227, 1, 1, -1.90323996544, 0.980999946594, -0.666970014572, -0.393940001726
1228, 1, 1, 1.39719998837, -0.874920010567, 1.17518997192, 1.63216996193
1229, 1, 1, -0.0789700001478, 0.512449979782, 0.626070022583, 0.390300005674
1230, 1, 1, 1.29566001892, -0.352780014277, 1.45148003101, 1.21737003326
1231, 1, 1, 2.71561002731, -1.25831007957, 1.56449997425, 1.88686001301
1232, 1, 1, 0.432550013065, -0.877790033817, -0.771260023117, 0.183219999075
1233, 1, 1, 1.40939998627, -0.694940030575, 1.73441004753, 1.7295999527
1234, 1, 1, -1.11918997765, 0.172729969025, -1.22163999081, -1.12188994884
1235, 1, 1, 0.107319995761, -0.0234799981117, 0.831279993057, 1.66505002975
1236, 1, 1, 0.92644995451, 1.95498991013, -0.870930016041, -0.122610002756
1237, 1, 1, 1.01677000523, -1.0419100523, 0.828339993954, 1.01308000088
1238, 1, 1, 1.22132003307, -0.454780012369, 1.30546998978, 1.57892000675
1239, 1, 1, 1.70910000801, 1.37190008163, 0.0756999999285, 1.2351000309
1240, 1, 1, 0.789810061455, -1.82877004147, 0.849849998951, 0.71588999033
1241, 1, 1, -3.80454015732, -1.09047996998, -0.366560012102, -0.344989985228
1242, 1, 1, 0.171040013433, 0.600000023842, -0.481880009174, -0.263920009136
1243, 1, 1, -0.24529004097, -0.852890014648, 0.0544900000095, 0.278239995241
1244, 1, 1, 1.23401999474, -1.63714003563, 0.877449989319, 0.802309989929
1245, 1, 1, 4.54092025757, -1.06927990913, 2.98873996735, 3.16293001175
1246, 1, 1, -1.71177005768, 0.0448099970818, 0.19089999795, -0.4472900033
1247, 1, 1, 0.0747600197792, 1.33229994774, -0.935949981213, -0.92447000742
1248, 1, 1, 1.58045995235, -0.410640001297, 0.541029989719, -0.0281399991363
1249, 1, 1, 1.82033002377, 0.925809979439, 0.121320001781, 0.427599996328
1250, 1, 1, 1.60114002228, -1.34385991096, 0.822000026703, 0.920669972897
1251, 1, 1, 1.79981994629, -0.767699956894, 1.40682995319, 1.48553001881
1252, 1, 1, 2.72433996201, 1.17761993408, 0.932280004025, 1.60485994816
1253, 1, 1, -3.56388998032, -0.32438993454, -2.0248401165, -1.69492995739
1254, 1, 1, -0.340350031853, -2.94094991684, 0.847760021687, 0.449499994516
1255, 1, 1, 0.371980011463, -0.547320008278, -0.0195199996233, -0.0535999983549
1256, 1, 1, 2.3779900074, -0.490370035172, 1.4581400156, 1.48047995567
1257, 1, 1, -0.607110023499, -1.28899002075, -0.372110009193, 0.209940001369
1258, 1, 1, 1.6573600769, -1.46609997749, 1.39555001259, 1.70511996746
1259, 1, 1, 0.588209986687, -0.467710018158, 1.39982998371, 1.05285000801
1260, 1, 1, 1.7733900547, 1.59810996056, 0.278959989548, 0.162269994617
1261, 1, 1, 4.40087032318, 1.02163004875, 2.38958001137, 3.23434996605
1262, 1, 1, 2.71976995468, -2.29166984558, 1.78831994534, 1.77599000931
1263, 1, 1, -1.64461994171, -0.838439941406, -0.0588800013065, 0.439660012722
1264, 1, 1, -2.2624399662, 0.560939967632, -1.39549005032, -0.20517000556
1265, 1, 1, 1.21192002296, 0.00380003452301, 0.12609000504, -0.00731999985874
1266, 1, 1, 2.46480989456, 0.691990017891, 0.0673900023103, 0.930750012398
1267, 1, 1, -1.55313003063, -2.50168991089, 0.810649991035, 0.422610014677
1268, 1, 1, -1.44577002525, -0.167469978333, -0.259270012379, -0.087279997766
1269, 1, 1, 3.53552007675, 0.653160095215, 0.0796200037003, 0.863619983196
1270, 1, 1, 0.467009961605, -0.909630000591, 0.0710100010037, 0.898389995098
1271, 1, 1, -0.491480022669, -1.22326004505, -0.179360002279, 0.608900010586
1272, 1, 1, 1.15794992447, 0.596769988537, 0.0369299985468, 0.142770007253
1273, 1, 1, -0.919059991837, 0.809679985046, -0.953819990158, -0.201680004597
1274, 1, 1, -0.397750020027, -1.44007003307, 1.95596003532, 1.55514001846
1275, 1, 1, 4.05579996109, -0.345620036125, 2.60519003868, 3.28643989563
1276, 1, 1, 0.421730011702, -0.379730015993, 0.413940012455, 0.30406999588
1277, 1, 1, -3.24981999397, -1.62108016014, -0.0913600027561, -0.622630000114
1278, 1, 1, 3.83376002312, -0.59175992012, 1.63801002502, 1.89849996567
1279, 1, 1, 0.876740038395, -1.42510008812, 0.0801699981093, 1.04112005234
1280, 1, 1, 1.33945000172, -0.181630015373, 0.391389995813, 0.888339996338
1281, 1, 1, 0.455620020628, -0.0859200060368, 0.0869499966502, 0.893760025501
1282, 1, 1, 0.932160019875, 1.34314000607, 1.35081994534, 1.72809994221
1283, 1, 1, 1.67079007626, -1.35247004032, 0.549070000648, 1.09256994724
1284, 1, 1, 2.28135991096, -0.384319961071, 0.305090010166, 0.559870004654
1285, 1, 1, 0.808670043945, -1.31657004356, 1.41206002235, 1.29689002037
1286, 1, 1, 0.137669980526, -1.95044994354, 0.665499985218, 1.03120994568
1287, 1, 1, -1.45333003998, 0.627029955387, -0.244000002742, -0.653599977493
1288, 1, 1, 1.46089982986, -3.42309999466, 0.397219985723, 1.68560004234
1289, 1, 1, 1.04482007027, 2.50157999992, 0.53719997406, 0.560000002384
1290, 1, 1, -1.89437007904, -1.15676999092, 1.1122699976, 1.23126995564
1291, 1, 1, 1.63504004478, -0.241540014744, -0.0975600033998, 0.461719989777
1292, 1, 1, 0.190009951591, 2.07067012787, 1.31426000595, 2.03115010262
1293, 1, 1, -0.31126999855, -1.58219003677, 1.25391995907, 1.4190299511
1294, 1, 1, -0.00128999352455, -0.427009999752, 1.14069998264, 0.598389983177
1295, 1, 1, 0.634319961071, 0.495119988918, 2.03079009056, 1.46003997326
1296, 1, 1, -1.19742000103, -0.131719946861, -1.24258995056, -1.15147995949
1297, 1, 1, 2.46700000763, -1.08626008034, 1.55513000488, 1.61360001564
1298, 1, 1, 0.0990800112486, 0.576499998569, -1.01303994656, -0.205390006304
1299, 1, 1, 2.11952996254, 2.06411004066, 1.21724998951, 1.47862005234
1300, 1, 1, 1.89619994164, -1.40023994446, 1.85433995724, 2.01030993462
1301, 1, 1, 2.99919986725, -1.25065994263, 2.20222997665, 2.12495994568
1302, 1, 1, 2.62847995758, -3.13206005096, 1.58800005913, 2.10075998306
1303, 1, 1, 3.93351984024, -0.675320029259, 2.80016994476, 2.96936988831
1304, 1, 1, 1.85294997692, -1.70849001408, 1.62405002117, 1.32889997959
1305, 1, 1, 0.23044000566, 0.357739984989, 0.113909997046, 0.139689996839
1306, 1, 1, 2.02891016006, -0.303990006447, 1.11564004421, 1.49020004272
1307, 1, 1, -2.3229598999, -2.60529994965, 0.377420008183, 0.64657998085
1308, 1, 1, -1.29809999466, 1.46068000793, 0.632089972496, 0.709010004997
1309, 1, 1, 0.370609998703, 0.740409970284, 1.34818994999, 1.83214998245
1310, 1, 1, 2.9145898819, -1.55518996716, 1.79463994503, 2.3512198925
1311, 1, 1, 2.50476002693, 1.02458000183, 1.20344996452, 1.6755900383
1312, 1, 1, -0.0076299905777, 0.641809999943, 0.135419994593, 0.294999986887
1313, 1, 1, 1.57589995861, -0.710240006447, 1.30736005306, 1.13002002239
1314, 1, 1, -1.12634992599, 1.00190997124, 0.774590015411, 1.0045800209
1315, 1, 1, -2.0515499115, 0.232629954815, -2.28832006454, -2.34281992912
1316, 1, 1, 0.531399965286, -1.40996003151, 1.01154994965, 0.999230027199
1317, 1, 1, 2.12122011185, 0.753440022469, 1.82986998558, 1.99307000637
1318, 1, 1, 2.15336990356, 0.905229985714, 1.18882000446, 1.01484000683
1319, 1, 1, 2.13264989853, 1.65829002857, -0.0581399984658, 0.73982000351
1320, 1, 1, 2.47346019745, -1.07296001911, 1.80181002617, 1.78232002258
1321, 1, 1, 0.691009998322, -0.686650037766, -0.703809976578, 0.182549998164
1322, 1, 1, 0.784749984741, 0.723549962044, 1.54917001724, 2.14634990692
1323, 1, 1, 0.532099962234, 1.31242001057, 0.224820002913, 0.839489996433
1324, 1, 1, 3.15657997131, -0.908020019531, 0.273979991674, 1.00231003761
1325, 1, 1, -1.19963002205, 0.0599899888039, 0.862460017204, 0.796159982681
1326, 1, 1, 3.25451993942, 0.253520011902, 2.10547995567, 2.85127997398
1327, 1, 1, 1.93272995949, -0.050989985466, -0.756290018559, -0.324400007725
1328, 1, 1, -1.48874998093, -1.02944993973, 0.612439990044, 0.655799984932
